{"layers.0.weight": [[0.31212145759193527, 0.3815476524737837, 0.016738414484809176, -0.1425598998116988, -0.13389792247492052, -0.013019046157822657, -0.10990728375605338, -0.060695706957807724, -0.004203642493760245, 0.06413247634804138, -0.06838851061801995, -0.03113241513212369, 0.09040302152059286, -0.02813989341396169, 0.07689973301322874, -0.07903345020730382, 0.018143967333510074, -0.18577601744850195, 0.11054454187628648, -0.05847541950482347, 0.2259527641636008, -0.2489262035435717, -0.021549245431484502, -0.186682689793015, 0.11573800496623782, -1.00775972468986, -0.4530809914636232, -1.0125268860944314, -0.9977291261120839], [0.5147792071329357, 0.5554417602174065, 0.062349259192061406, -0.07559368826118856, 0.1115807089293111, -0.069441102323154, -0.04117514650005714, 0.09759122053074293, -0.03839443693254663, 0.0023886293058470545, 0.10828858010304539, -0.18935842448227697, 0.1628581183167023, 0.1559028283693858, -0.3247041687761545, 0.19071940123435113, 0.04198712444761186, -0.28693801870162416, 0.1123295866226018, 0.06782065452351917, -0.07375862427396503, 0.13270848026215104, 0.07579906255903074, -0.3530420980717225, 0.12326305247994317, -0.49256246110435425, -0.6019101773398424, -0.7793490328349805, -0.7551408742039253], [0.2310811203528185, 0.2981814643631721, 0.17608552373045702, 0.2109851437827838, 0.037082390475962894, -0.10173160109272697, -0.09508351732390624, -0.004962626353660918, -0.32825763345792724, 0.005783357461084119, -0.11500981042567615, -0.13662991228862914, -0.01974968992039831, -0.1550303434061067, -0.225349620689771, 0.12264739603660134, 0.31667638495171285, -0.04373952993957383, 0.0727196618347944, 0.17519778014480716, -0.04233939807428971, -0.27932921862127696, -0.11329259317967257, -0.7853402411949234, -0.2540696476058206, 0.180313841364723, -0.1793850961808241, -0.7390272418728685, -0.957431099514719], [0.0488246775375789, 0.41416830760043, 0.16536897342199186, -0.20735997046777077, 0.08688846856042719, 0.028060409841006512, 0.0283188029963875, -0.06588352172578867, 0.09020626912120869, 0.03524723237635692, 0.16718920739371046, -0.017077379419901242, 0.030864444301215214, 0.03487041999287363, 0.003132268927811545, 0.06567921095566309, 0.1646098132602036, -0.17290192814017563, -0.057689653567018766, 0.1389301668765292, 0.0526241909406354, 0.3034449482386425, 0.43143544062238565, 0.11637459255099265, 0.12767078964287112, -1.6487522389258447, -1.5330222347773508, -1.5401493236453514, 0.17615699155996017], [-0.11676782369613647, 0.009010106325149536, 0.13702164590358734, -0.18249475955963135, -0.12027370929718018, 0.17111392319202423, -0.1744057685136795, 0.15277384221553802, 0.07000680267810822, -0.16929128766059875, 0.18255503475666046, -0.0063095539808273315, 0.018089577555656433, 0.15933857858181, 0.025068044662475586, 0.0578991174697876, -0.03323186933994293, -0.17552243173122406, 0.08684183657169342, 0.09599156677722931, -0.03358858823776245, 0.14044959843158722, -0.05807545781135559, 0.14083223044872284, -0.01084969937801361, -0.11559159308671951, 0.013970553874969482, 0.12366883456707001, -0.09810668230056763], [-0.1624223598035401, 0.23446386263161453, 0.5786622260672202, 0.6934386062645301, 0.06946225923638247, 0.055281732792576206, 0.022264065788670143, 0.18118071531412241, 0.049447071326407535, -0.11797956548210957, 0.13112874115508902, 0.025077048651494814, -0.2914081380365531, 0.2630439605749371, 0.5450631750987446, -0.06449800745090019, 0.20173715710720852, 0.3462253900364653, 0.18885781453600622, 0.17317581676400967, 0.37961681718373097, -0.06460921890225645, -0.32448529533926584, 0.001975094234147762, -0.07321879481065383, 0.9187227636497152, -0.7063278812181586, -0.9304759242469739, -0.6118211111246282], [0.48134630490396607, 0.6652259351095514, 0.3369542157923782, -0.07838043517146845, -0.13759742824289878, 0.013308911476476915, -0.22310180656213371, 0.08896417160851906, -0.010064596673822167, -0.1637613648324499, -0.011388039145457048, 0.060406028044365685, 0.039741538323868654, 0.061883871671474446, -0.2821751085465528, -0.024178328197683438, -0.051356767131330555, -0.11973174529975518, 0.16339200074853363, -0.0630162184365289, 0.09228889249772945, 0.004469986229010592, 0.3291857640688776, -0.012157534303797717, 0.15705692595638998, -0.4675944508933716, -0.3871981526547234, -0.4539246337241781, -0.6609866682729658], [0.3127741377823046, 0.006688834315135791, -0.45801468345267754, -0.41912613854178515, 0.05707774641620089, 0.11791010831763374, -0.07724903036795192, 0.06364235078283656, 0.26826150392751463, 0.20643975418596483, 0.1693439933023478, 0.14610189069521687, 0.12721391796456596, -0.10976885769851435, -0.38175749788135765, -0.22876273812095752, -0.0629397572299232, 0.17601798058987683, 0.2454297758751124, 0.14672308292171574, 0.141610276071806, -0.11334768370208242, 0.3268140574487047, 0.012934314932013621, -0.30060127904889916, -0.9658525263387899, -0.7286169247283697, -0.690461250178197, -0.6806574488098177], [0.6704649369320923, 0.7433995610885787, 0.1371770233898763, 0.09866780845074499, 0.010042621282276853, 0.09316628640334133, 0.07748570416047139, 0.038000651307796576, 0.23091927632507203, -0.03162679180748465, -0.1366460282947842, 0.200004225797053, 0.2504951536056839, -0.06610642377889332, 0.03669118244179417, 0.19621800471194537, 0.0461496350115253, -0.03841998306130274, 0.2590891463134027, -0.028204908443371896, -0.18893899056444383, 0.03760404834590721, 0.3059364761480253, -0.1862197586445341, 0.3820557306030941, -0.4830852639742513, -0.44392646679599956, -0.5017112807437996, -0.42723540512121694], [0.48420743737969735, 0.44657605151031016, 0.03211866200150318, -0.07395946247583464, 0.18585331370584357, -0.009126235215272243, -0.058422991900571625, -0.04748608768928476, -0.12797478968018097, 0.0977504300502362, 0.009059817784879813, -0.0008518414808887862, 0.05135491629242915, 0.03867495133076141, -0.12484682629191546, -0.0920781829917918, -0.04899964454562753, 0.13391735384692738, 0.27512081664804555, 0.33987208791029233, 0.09764762814359959, 0.13326466036957346, 0.3849107215225373, -0.14748787962410184, 0.47162284111033753, -0.3933161867357638, -0.5087918757773818, -0.5792603571832867, -0.7714306756626952], [-0.1749722372975443, -0.070373300481078, -0.07263194331235036, 0.15636776000197822, 0.018589803430493965, -0.018295678209533605, -0.06903341072889177, 0.2781402565633693, -0.05233518413723524, -0.04755018138897037, -0.039147645828104705, 0.02326293874347423, 0.12515523824500954, 0.05385981541590614, -0.04333093508115412, 0.21627082916566323, -0.031241752387734, -0.023010125167239038, 0.11032103084894625, 0.03257607680404877, -0.027312473573856615, -0.056288755042408864, 0.18682747253309337, 0.1171218868115988, -0.08347846464613444, -0.19035992102592075, -0.2607158709725496, -0.07157979820855793, -0.08424965445132175], [0.5013545906579173, 0.2720358839886582, 0.23510537001274764, 0.3022513021296936, 0.10077899937780936, -0.06659532748318127, -0.22273052463067564, -0.05130420808956159, 0.060804402912406116, -0.1374922967930315, -0.015220162696810136, -0.06408894970637762, -0.3854043598287534, 0.04031783116454637, 0.32964781934902, 0.10444228998135939, -0.1629807632020004, 0.1803220866393461, -0.03128179088014581, 0.10705005807716192, 0.08271863688941786, -0.4433525299011452, 0.06862352446081715, -0.18762122012403004, -0.14198249729990114, -1.2937417139692224, -1.234194894696757, -1.1497251706680658, -1.1362504390878105], [-0.12332915824103306, -0.09942649537042107, -0.11848870470576613, -0.2279508183971395, 0.005950929105736483, 0.10051773957183775, -0.030895318340282387, 0.03657657958680955, 0.17785462484117837, -0.08492971928959318, -0.07847349811720318, -0.02575758846881684, 0.20705863931286128, -0.010958941659045637, 0.1619511192072048, 0.04662738109978421, -0.1040434942288647, -0.141392552291394, 0.10511972005797358, -0.008656366745758672, 0.02726270166863631, 0.09265477529202154, -0.041550529067495554, 0.09139823702570456, 0.10962923703684764, -0.16579402432682028, -0.006722773036230316, -0.0007433970193399786, -0.10131711048287832], [-0.0805177316069603, -0.062245599925518036, 0.09196783602237701, 0.1603447049856186, -0.08240556716918945, -0.15041841566562653, -0.16401730477809906, -0.011574462056159973, -0.033682748675346375, 0.04620550572872162, 0.06367307901382446, 0.07242228090763092, 0.03173336386680603, 0.044404804706573486, -0.0904245525598526, -0.16401506960391998, -0.07080095261335373, -0.16534358263015747, 0.03795027732849121, 0.01348675787448883, 0.154536172747612, 0.17253656685352325, 0.023184537887573242, 0.14774005115032196, 0.03753593564033508, 0.07474617660045624, 0.09087486565113068, 0.12330175936222076, -0.1260010451078415], [-0.2816896461653135, 0.1004747369635706, 0.06136580384106024, -0.049750438429629264, -0.1451244588004309, -0.2015248503937628, -0.03748968434535281, 0.007727004010469497, -0.05080671262482137, -0.12633534185710768, 0.07005726193344186, -0.02645134234330821, -0.03547171685005614, 0.038199612368129326, 0.09112120663457804, -0.20628917018367232, 0.07467275054898445, 0.06511286923915577, -0.10180432713585708, -0.12042205465891548, 0.018357691212582645, -0.1625379445247485, 0.028301031597311933, -0.215142784551723, -0.007615363590005094, 0.009673188687924597, -0.12487022578716278, -0.08652498573064804, -0.0542743628076916], [-0.08491470664739609, 0.10783164203166962, -0.004092365503311157, -0.04651342332363129, 0.17327164113521576, -0.05646418035030365, -0.008581459522247314, 0.018599003553390503, -0.17226044833660126, 0.18565310537815094, 0.16797713935375214, 0.0030237436294555664, 0.14319013059139252, -0.13172630965709686, -0.07126157730817795, 0.07505930960178375, -0.08964957296848297, 0.012674540281295776, 0.17558132112026215, -0.18168067932128906, 0.11102093756198883, -0.03505958616733551, -0.1773679256439209, -0.1444617360830307, 0.06416070461273193, -0.023716405034065247, -0.14779263734817505, -0.13563157618045807, -0.0662042647600174], [0.2142056808940676, -0.41461307403001524, -0.3995086530967761, -0.4988722561036865, -0.4612682231580164, -0.40508833256171967, -0.3437587697404162, -0.27297571340946614, -0.11236120480999034, 0.06990448483063673, -0.1842183332302113, 0.030985146080227618, -0.045982343136873334, 0.069684855550339, 0.0003018264126378981, -0.19341213915704913, -0.2510055497340882, -0.1567278431266855, -0.6752016047833777, -0.5949039841818964, -0.6873780672658123, 0.6428073750142592, 2.1083674350943546, 1.9135886179017143, 0.7914632861990609, -0.7457646627026021, -0.6981157454698941, -0.6804965101690008, -0.6591871625318212], [0.275149156936626, 0.29794522602542717, 0.1870913604876625, -0.05321790544961241, 0.09365566439228336, -0.1426252696643656, -0.350833559499901, 0.01147304019603624, 0.1238186218044148, 0.14099940998905156, -0.07522569211369101, -0.013909645390582549, -0.022279194886456796, 0.08167306456165281, -0.1481691214715937, 0.08404702632582436, -0.13745398708470685, 0.037309791632284095, 0.08212481984150272, 0.06321760798397923, -0.07139817008908, -0.034431236374984464, 0.10239165506668098, -0.4391658579702614, 0.30983691202325203, -0.7956161296661531, -0.7622307662022945, -0.7328610368228663, -0.7177918433165861], [-0.11880000680685043, -0.08844288438558578, -0.04103115200996399, -0.15798459947109222, -0.03183084726333618, -0.10953781008720398, 0.12007980048656464, 0.18561910092830658, 0.07764016091823578, -0.013643860816955566, 0.14562569558620453, -0.17398697137832642, 0.03970944881439209, -0.01334264874458313, 0.058121487498283386, -0.010378748178482056, 0.13266901671886444, 0.027791932225227356, 0.08054162561893463, -0.008716970682144165, 0.10215140879154205, 0.08454747498035431, 0.09761141240596771, 0.01383298635482788, -0.1520562320947647, -0.0632123053073883, -0.005566403269767761, 0.11487381160259247, -0.18364089727401733], [0.14330452418078465, -0.23197806764478685, -0.31359398584662407, -0.4719674643132086, -0.6137998908088773, -0.39691616510846245, -0.38042751862228186, 0.11631994151237472, 0.3818440453712678, 0.32156843418073666, 0.24402485591383674, 0.3697249616911771, 0.37328779424615094, 0.20701004631286402, -0.18174166243137052, -0.08575610137180802, -0.2763649268790673, -0.24234834150447138, 0.4570157602018632, 0.5354961842238943, 0.313265893855176, 0.6493202976321727, 0.3101245277244464, -0.2086028774559002, -0.5684583554170147, -0.19880305432768502, -0.3910360278886956, -0.38094015426518896, -0.389668735444212], [0.11332429879276497, 0.5389820244066607, -0.042190277342849, -0.06044019301318694, 0.603488682823202, 0.5850668692441876, 0.567029703151654, 0.44449203016572053, 0.17078604830927568, 0.12156583324763887, 0.3094243997417093, 0.015081831430477772, 0.05822072029587514, -0.38911395178121, -0.4099613300324344, -0.04234251043001013, 0.2823573034359463, 0.24063715460241933, -0.1315469762389686, -0.35704916901299233, -0.7648125368639347, -0.6089950141867329, -0.631515583980794, -0.5650403407470369, 0.059461559171713314, -0.40741458033830263, -0.41412965768851256, -0.40054241407534663, -0.39159379602047234], [0.5266401311644753, 0.43113758525197937, -0.07765395241996487, 0.049496272721777736, 0.12914346428076895, -0.18910352346820555, -0.06880839539736125, 0.22305851557039566, -0.016709607729528904, -0.07206874290701114, 0.0008587981567585306, 0.09267187993082278, 0.18989223516994178, 0.15645510855794062, -0.3034108981115951, 0.0062470776395584056, -0.10580766478815747, 0.009928221976755766, -0.050971345524598304, -0.07770629561292615, 0.023124164010951354, -0.12444380085537998, 0.16073367573700992, -0.1145101991533609, 0.1566405394993721, -0.32394221535278556, -0.6427695651353558, -0.5145853412696788, -0.5260535909436262], [-0.21522215144372112, -0.12401296770283006, -0.016040234145356484, 0.07970205574630437, 0.0020125080578656386, 0.03451059570812629, -0.07345450938361, 0.10245891859983969, -0.11995013617760526, 0.02914442173668827, 0.08543452784693503, 0.18234523965853763, 0.07851055242053266, -0.31462152668324544, -0.25487929468387666, -0.10421402480989289, -0.13537529554775346, 0.005134385801430346, -0.0980605754961033, 0.003038369908428707, 0.10248637651643193, 0.24951028764432912, 0.1093636570423691, 0.22184964589238926, -0.0649203575378775, -0.18966364638118788, -0.23052512357977417, 0.7265996882323146, -0.265615886189806], [0.6084813498952051, 0.49623276957111323, 0.1730443858107569, -0.18367935755420464, -0.1032596270382594, -0.18677920474651669, -0.1606989097265494, 0.25802143473259387, 0.10891335630423876, 0.10267631928749725, 0.10432366217198087, 0.1671754292469328, 0.20473892755163853, 0.012817613099972095, -0.05213235520850042, 0.004256981246344236, 0.0038065528880984567, -0.009095295857228012, 0.07333637706621121, -0.0034556115347628654, -0.22406180848901033, -0.07194381120887108, 0.28386798993547585, -0.1758699190269411, 0.0741309626561644, -0.3705810741364334, -0.5937260253095904, -0.6682455884312287, -0.6367020097609409], [-0.17127151787281036, 0.04149901866912842, 0.11786146461963654, -0.05355866253376007, 0.12364764511585236, -0.12422208487987518, -0.13952353596687317, 0.07456411421298981, -0.18204458057880402, -0.03470003604888916, 0.0005829930305480957, -0.12486745417118073, -0.08863762021064758, 0.1273416131734848, -0.08644859492778778, -0.04674173891544342, -0.13267840445041656, -0.08475521206855774, -0.17522434890270233, -0.13720127940177917, 0.07058613002300262, 0.0021487772464752197, 0.0832924097776413, -0.13762588798999786, 0.12258841097354889, 0.09942050278186798, -0.04795229434967041, -0.05953988432884216, 0.14973272383213043], [-0.008679555542505152, 0.0749915055877627, 0.0006584536550974181, -0.032818002652508844, -0.0743325385194695, -0.020733138923422045, 0.1298950992856223, 0.07641958229338697, 0.13710567034632948, -0.1519834097442293, -0.15361888392327955, 0.11098062567302405, -0.057133314876448044, -0.06510732467064782, -0.07371461205908542, -0.10886757923647913, -0.05833105672549719, -0.008302000733075842, -0.023430960692981995, -0.1020382985699381, 0.0666322458716264, 0.09508904022070684, -0.00855867840752652, 0.10304523343721056, 0.16183108320427075, -0.19609493976097744, -0.19185937275968698, -0.09542954442847268, -0.05526749218412935], [-0.24338735528751587, -0.16011602696492744, -0.17246146767318873, -0.21444999344859475, -0.15321807793286302, -0.18001359423640798, -0.12103164939168493, -0.02215084992304054, -0.03905663503932412, -0.06155130814426739, 0.0833876186196024, -0.2316409505780977, -0.1304065828998768, 0.08354634038704586, -0.033615181613166525, 0.07248878988389254, -0.07124497204637593, 0.09428798127814327, -0.08692628015243288, -0.0030256607756272624, -0.13100836070803248, -0.2106447557619578, -0.21022365614342833, 0.041524044918904914, -0.12704355585513588, -0.14903624355793, 0.023882487877491674, -0.15710409506597553, 0.007485484234872058], [0.5180102478645656, 0.5658618384886331, 0.12340887756796658, 0.18709727987142086, 0.28096900716830286, -0.014005449358979403, -0.2161240342447818, -0.09810007160018418, -0.06423331775694968, -0.22017335684937542, -0.01528153279495429, -0.055923124974051365, -0.1969535861765735, 0.1275546966564821, -0.08166069942308633, 0.27191909787730423, 0.03332398646849801, -0.043232796546000284, 0.18537898691664606, -0.06891464732009789, -0.08307653278847878, 0.0035365882635887886, -0.05677339663788455, -0.384785267746785, -0.05531398379838976, -1.3348582808444318, -1.2719586632142381, -1.1042392217982038, -1.0857535950715245], [-0.23281325431200917, 0.08949668268301304, 0.14968435947633196, 0.047876162365678515, -0.11200583498753049, 0.0636400415036501, 0.10389406136473753, 0.2137359636299625, -0.0967674245847014, 0.09004250615638923, 0.041119553479716485, 0.16282123443587676, -0.07009952822860761, 0.11709941502571981, 0.06896428539508782, 0.15857386726653816, 0.03777455945412865, 0.201683650041367, 0.12473865185750747, 0.006979441433644311, -0.048459579387193044, 0.051183312461706806, -0.09810130366694035, -0.08583421178572635, 0.08656395002700604, -0.2523376575733224, -0.04448070746638995, -0.13317324842101222, -0.3321874234812497]], "layers.0.bias": [-0.7976234625051228, -0.4821878723360629, -0.25483979164452375, -0.6199122122155475, -0.09774481505155563, -0.3797050978677443, -0.5366157486707737, -0.8826069338563114, -0.5317786561279483, -0.5488987457496388, -0.27470541620686945, -1.398267026217667, -0.26096073008086396, -0.17298808693885803, -0.07111863721978272, 0.17317073047161102, -0.7785793050942168, -0.7965304857607732, -0.11361406743526459, -0.2092620248445051, -0.3250248089085632, -0.5930470803598152, 0.15676373459870918, -0.6416676789640733, -0.1657130867242813, -0.08996948538124093, -0.264977669339452, -1.3684001805443557, -0.13998574872282277], "layers.2.weight": [[-0.05619257974003513, -0.27299972103427544, -0.21367213817960534, -0.009246192681094967, 0.08518756926059723, 0.05833409619180164, -0.13221746358193956, -0.06318351026178311, -0.19670204479281184, -0.23226255439632568, -0.20936647491442092, -0.1306990293397118, -0.12217017990709038, -0.18491807579994202, 0.15817393362522125, -0.0959034264087677, -0.12141073495149612, -0.2570954551693963, 0.020164743065834045, -0.17407509684562683, -0.15445426604337303, 0.015685409509915194, -0.1802104424179997, -0.11952818286690164, -0.03809000551700592, -0.04244813623414171, 0.12771724164485931, -0.07211478997850941, -0.06948339221735639], [0.0036291148362620988, -0.13687661455409228, -0.24086764009886014, 0.036729994453011276, 0.1267954558134079, -0.041449473021394886, -0.26911262222617954, -0.17089411171378832, -0.03653821616830547, 0.00977280922191618, 0.04096304860990555, -0.1036318066539486, 0.030155852618449906, 0.053405582904815674, 0.17290760576725006, 0.11080925166606903, -0.15071935065057232, -0.26011751427555174, -0.10729968547821045, -0.26835135702937724, -0.2976783254185045, -0.04505035478567385, -0.19523246866108754, -0.33195607379257625, -0.1364733874797821, -0.17153325649226137, -0.018079429864883423, -0.2476627914670812, -0.09226168577490723], [-0.012115039649612868, 0.28627492670175075, 0.0045750268305546765, 0.11048784135337346, 0.019419625401496887, -0.1813069377659475, 0.09661245125168702, 0.040218456305864396, 0.36480496906419424, 0.28657642223263413, 0.007605991497698967, 0.19715346000495548, 0.030466952166207043, 0.11492876708507538, 0.07549345641885849, 0.07547439634799957, 0.0811631030750736, -0.3150725394419405, 0.1509619504213333, 0.07909727461334493, 0.1437281614393214, 0.3612213060956653, -0.1503592382893367, 0.2855618571007766, 0.13445769250392914, 0.11447641912858088, -0.17647814023245656, 0.44954843439731873, 0.022737109538110797], [-0.14173949999062083, -0.1741180457837202, -0.2680425773989886, -0.11316701311820343, -0.013225674629211426, -0.07285308917737014, -0.2220612256543781, -0.11730239279576088, -0.3042750490396019, 0.02194614038856985, -0.08868633550803892, -0.06429070127095873, 0.028254867165785343, -0.05058440566062927, 0.06662701070308685, 0.11937151849269867, -0.22243918922786782, -0.1827510946218593, -0.06642678380012512, -0.20151840073879956, 0.024393632544431696, 0.015215528411285414, -0.12883675629433328, -0.29887331247526344, 0.06349080801010132, -0.11146757603688288, -0.15156829357147217, -0.1587570602701229, -0.20198207954236264], [0.24983209672215173, 0.10948520817531844, -0.044453277491059484, -0.15702081586809646, 0.12182225286960602, 0.07698813576849638, -0.06593300124767051, 0.43334053740298295, 0.021002573895321557, -0.35812135294731773, -0.2774008575067615, 0.9072300640676179, -0.19107042352732803, 0.0489935576915741, -0.12499311784329145, -0.13673001527786255, 0.7982290135234078, -1.0448585657105804, 0.09470774233341217, 0.24484488546332164, -0.0016140228453603498, 0.08491648260676637, 0.12645511108711363, 0.2483302095844175, 0.08782584965229034, -0.01678075186235834, -0.032908328149548874, 1.304807822818657, -0.25571554186721496], [0.252804751450074, 0.1361809311358032, -0.19040723091899023, 0.37598803140688164, -0.027666181325912476, -0.5027636080813913, -0.11152131660760559, 0.6296072909091719, 0.042338033093708934, -0.04432909925017417, -0.0072153551001772655, 0.5309832321957023, -0.005044330286603915, 0.1682233065366745, -0.074092547862558, 0.03379671275615692, -0.7940826633233267, 0.15189156737347487, 0.06917978823184967, -0.23115875348869241, -0.191860017859089, 0.0866726083800594, 0.05239253826641366, -0.07701453925656254, 0.10851483047008514, 0.14389667574230777, -0.05964294656257819, 0.1220234885070886, -0.1358017403985407], [0.011300085655051521, 0.35319100345697774, 0.1498635798354433, -0.10628249232394503, -0.027177542448043823, -0.33673073453276114, 0.24415155762166407, -0.12200810593525184, 0.27318677476830294, 0.29803623629081455, 0.03537310798779913, 0.13592375286666758, -0.05651899807872193, -0.08449918031692505, 0.18589692399001706, 0.16070975363254547, -0.10440283443871541, -0.2318975273019663, 0.0918772965669632, 0.18150444802790144, 0.13133248275489043, 0.265309880251116, -0.17609412167901428, 0.16586438289506902, -0.10793241858482361, -0.17008103190202623, 0.10441677685549858, 0.33767961219077136, -0.2081814885108201], [0.25449622010669093, 0.09738743485917581, 0.06907341450817514, 0.11075540340641224, 0.11563591659069061, -0.031792203909535105, 0.28246956227802794, 0.14067671319399822, 0.277111948243484, 0.28789153786965366, 0.29420134371776185, 0.21976214125714963, 0.14213688504309444, -0.005055293440818787, -0.05188247007233332, -0.01215486228466034, 0.14487317947549477, -0.4982232897681424, -0.09241513907909393, 0.008040141506486867, -0.011539024124684983, 0.3293122967042667, -0.08431279748297438, 0.4291138928754159, -0.004498153924942017, 0.23178542413216582, -0.09942430753568443, 0.2017089657589659, 0.12838023190115916], [0.0007920210898795367, -0.2990406710055345, -0.1871027480982928, -0.0912632835197657, -0.11408829689025879, 0.055163474677332666, -0.06435275586443913, -0.2274713835617604, -0.16696156305398843, -0.10772780930640265, -0.2946976330172898, -0.08819188210735068, 0.0141547103266851, 0.12398286163806915, 0.14178194105625153, -0.0846649557352066, -0.11104184410704353, -0.11015969426691448, -0.11635200679302216, -0.06936157965356378, -0.1753650300422348, -0.17549334595047877, -0.001097341827710379, 0.038322421026080765, 0.05980125069618225, -0.10028767376750908, 0.07291464507579803, -0.03167778233069109, -0.01648741793287587], [0.2600364045486179, 0.23104712018847937, 0.1930925763199072, 0.06794016135994535, 0.044690027832984924, 0.07783818171130867, 0.3644487442173141, 0.17968292550503612, 0.5264308023949432, 0.17163422465527986, 0.2353300559675005, 0.35467624254401053, 0.2764427866476052, -0.061275728046894073, -0.07290787520337538, 0.16296498477458954, 0.024938351442857984, -0.44379114925252616, -0.09047604352235794, 0.0670767341253725, 0.33840144741819317, 0.37334777802024216, 0.11992742460466804, 0.4158749354089969, -0.004503518342971802, -0.07438657343624162, -0.12732986438656657, 0.15856164860503633, 0.167343943151781], [0.07888126971708341, 0.06235815494172862, -0.13084884712627917, -0.16097988368793117, -0.029177427291870117, -0.11143368154809544, 0.07684334333076052, 0.4065507376494192, -0.10500458656965943, -0.3395212137184809, 0.12864900594379777, 0.8091292198806492, 0.10169125108102, -0.1482425332069397, -0.009308650643258655, 0.0624559223651886, 0.21336186903115217, -0.02965536605754953, -0.0620652511715889, 0.1550635257366505, -0.007476643364951497, 0.11590973068666445, 0.005244639733918361, 0.07774857393283371, 0.0997210294008255, 0.07567187953889008, -0.08553585794371936, 0.5054341921496187, -0.10079205791493408], [0.20988810502265567, 0.12430805996133815, -0.1937256657247209, -0.06482253018783606, 0.12529356777668, -0.7583588808206073, 0.005547245874845068, 0.7930892223107362, -0.1875226504045766, -0.2789328106670649, -0.11422332141596925, 1.3230879773290856, -0.12555143377099198, 0.10051538050174713, 0.0028002688976249144, 0.036910250782966614, 0.4912295114123496, -0.4657960565328919, -0.07447326183319092, 0.009914097677150381, 0.01139576675728336, 0.2711574224745448, 0.2566904547399518, 0.19592729769747824, 0.05223049223423004, -0.008383077215513573, -0.148606985592295, 0.8671349121278147, -0.13140796182760822], [-0.003388434648513794, -0.11256341636180878, -0.10045351833105087, 0.09370575845241547, -0.03378517925739288, 0.10728470981121063, 0.07561518251895905, 0.04760250449180603, -0.15752001106739044, -0.1689644157886505, 0.0966336578130722, -0.07751983404159546, 0.17021404206752777, 0.12442286312580109, -0.029349535703659058, -0.06791126728057861, -0.15141268074512482, 0.0922536700963974, -0.15028931200504303, 0.034730345010757446, 0.14731009304523468, -0.18341201543807983, -0.03209348022937775, 0.006613865494728088, 0.03239153325557709, -0.10806383937597275, 0.13999058306217194, -0.05908726155757904, -0.026496097445487976], [0.035832591694910584, 0.23039048504017168, 0.01097609632971387, 0.12133884770477239, 0.006127968430519104, 0.054448716018378925, 0.28713998527862994, 0.010488945112874156, 0.46185405354279774, 0.30863873885924564, 0.17794333539753687, 0.6210558436037524, 0.037219147461777784, -0.1379038393497467, 0.186186553034784, 0.17959709465503693, 0.12754680451572853, -0.28380145046160404, -0.07257168740034103, 0.03768312840413592, 0.12714701847450666, 0.04313865114299898, 0.07352866259945996, 0.4160163889300087, -0.11895976960659027, -0.12063973867532966, 0.022809547850114294, 0.33435710247394906, -0.06831068218298895], [-0.12282450418574838, 0.0675874474634147, 0.0697761854024085, -0.1114237694143159, -0.04013563692569733, -0.12100274170768911, -0.24484539743332578, 0.010487288236618042, -0.11821242873121594, -0.21957454063526935, 0.011252767151740352, 0.049538162661802505, -0.16117839979178117, 0.02189500629901886, 0.16202150285243988, 0.12074567377567291, -0.0309942364692688, -0.007032234330243999, -0.17317333817481995, 0.1511365920305252, -0.08741001360085901, -0.2464222413940717, -0.06393724212237674, -0.2729985148969128, -0.07416946440935135, -0.0612054243683815, 0.0945153683423996, -0.2787721057662145, -0.09597417712211609]], "layers.2.bias": [0.02898990487990544, -0.03299927411116482, -0.057796699753309276, -0.029756785725150454, -0.6260833697457237, -0.04423235415414194, -0.027239056500844808, -0.20863456022731527, -0.12742632208471288, 0.005024578965292138, -0.2510049295220678, -0.6312535026384667, -0.18255317211151123, -0.041045194338118846, -0.2457575946871154], "layers.4.weight": [[-0.09650968015193939, 0.22255781292915344, -0.062219634652137756, 0.2196759581565857, -0.07757677137851715, -0.03425393998622894, -0.1290120631456375, 0.16697335243225098, 0.2200678288936615, -0.18406683206558228, -0.0879766196012497, -0.06691788136959076, 0.12655702233314514, -0.21920065581798553, 0.13621237874031067], [-0.07736261699317062, -0.1307371622762037, 0.03612186562479403, -0.015417944106612517, -0.23315899501559295, -0.22712681200012041, -0.11529051158610175, -0.07271639301291509, -0.09251314061565197, -0.39381548114793025, -0.14710278117007375, -0.1868801903029734, -0.11233943700790405, -0.3934044724080032, 0.010865658521652222], [0.22551543824381545, -0.1122359475674577, 0.08660058126418488, 0.051489694244333604, 0.09486841988803964, 0.27407427307634413, 0.2845579018058946, 0.060106647306589905, 0.0932442784243024, 0.2936766122938034, 0.3195406660703148, 0.2841119198650953, -0.13575255870819092, -0.06259965579000841, -0.09268938623480491], [0.12126344613445222, 0.02830874616528822, 0.4087765467777688, 0.09932952157872893, 0.3784713617876616, -0.016976228867502472, 0.2646858498962334, 0.3270520366738815, 0.02619998777486761, 0.4878616959976736, 0.3323528339076877, 0.1223386313968476, 0.1224050521850586, 0.45356565594514553, 0.0710438544305316], [-0.28841275566900987, -0.1780370752571226, -0.3272531027215803, -0.19404041138395223, -0.3013506800263241, -0.3431659582374438, 0.1112939696745963, -0.2048585962920748, -0.024192896220006147, -0.32590120243864695, -0.14889682829380035, 0.11323219944220801, -0.05064678192138672, 0.049318230563498364, -0.247933030128479], [-0.3651780859566546, -0.33097305172108105, -0.16667095932264675, 0.17977091670036316, -0.3027854920844923, -0.32235858036765286, -0.15034735351859108, -0.02817559640823735, 0.02006823960964914, -0.1844046410260582, -0.052051812410354614, 0.026636920814377397, -0.04280899465084076, -0.3487847325825098, 0.02734363079071045], [0.08531790567676209, -0.11287564259557918, 0.08336349840525642, -0.08767695629659843, 0.3496321855926984, 0.17339329166508352, 0.2722016802275316, 0.21483858810077613, 0.343374395187301, 0.32551888900145937, 0.2717902794505797, 0.4474195189633956, -0.22164487838745117, 0.27276571823799123, 0.22209129146241216], [0.11356636973565275, -0.05861451367885626, -0.21557196930127603, -0.25462339778925536, 0.013844628618037865, -0.24446875093073125, 0.05259114619737975, -0.06570248776087531, -0.05876109233274192, 0.10558751719479659, -0.1631699290687369, -0.19447147533152645, 0.20101669430732727, -0.08731252427703061, -0.18325714650760125], [0.11050650866834671, -0.11343612260626913, 0.2468185399714001, 0.22595853175188318, -0.29901214455267183, 0.2817417259834483, 0.03814822469478089, -0.07533671098475984, -0.02115464873253364, -0.18147245216488717, 0.24406450333934143, 0.5312865487291987, -0.06424672901630402, -0.1808766871203002, -0.06863729869248651], [0.05733716008396514, -0.1358059398019105, -0.04419110574542826, 0.11268436634550796, -0.4155941770693764, -0.21484272238569432, -0.17618077034376947, -0.11165339536227752, 0.01411902514582397, -0.14466597772080184, -0.10293835134029639, -0.18620523473887335, -0.1297103613615036, -0.29970455980821964, 0.12611548166504644], [0.16253545880317688, -0.060694560408592224, -0.04378126561641693, -0.22183580696582794, 0.18400120735168457, -0.1556207835674286, 0.004803597927093506, -0.11387893557548523, 0.17729002237319946, -0.13300997018814087, 0.22930008172988892, 0.2061789631843567, 0.09168526530265808, -0.24152524769306183, 0.13017728924751282], [-0.2102871828324976, -0.2032953292626549, -0.2688416345730703, 0.04861861828587656, -0.0431640068222068, -0.06841724698082531, 0.1133831445551265, -0.29801291698285964, -0.11976088600331074, -0.07560426521798944, 0.01983205338807759, -0.038416064535989385, -0.248500257730484, -0.05937789532387587, -0.09374581916854985], [0.15578693151474, 0.07723811268806458, 0.2334210404379031, 0.020873934030532837, -0.027508076159151865, -0.0339804436823654, 0.19027478257546318, -0.20387010113938914, 0.1493615210056305, -0.03615123654076484, 0.15558711025357871, -0.2328213894278833, 0.19835126399993896, -0.13367259310227492, 0.04797661304473877], [-0.1357455551624298, 0.2458312213420868, -0.35622034670314906, -0.22963818907737732, -0.7962621676204324, -0.6631425683661268, -0.6598957407070787, -0.7791117165599974, 0.0320931077003479, -0.5765827810245848, -0.5825181781067986, -0.695403019357636, 0.04790371656417847, -0.3073609884113457, 0.19185566902160645], [0.03555587270152782, -0.013587258306035794, -0.2555360761371185, 0.05856486059130612, 0.009996730143344025, -0.3661959465940952, 0.04122330686996729, -0.1783708898247898, -0.35629415566485884, -0.3134262719586197, 0.04528769850730896, -0.11784603284769216, -0.15652702748775482, -0.2010636403996784, 0.1413506269454956]], "layers.4.bias": [-0.07933807373046875, 0.08910734115606365, 0.27180006162501874, 0.2964400457655366, -0.007282615457587198, 0.09312717754347696, 0.25932353481092807, -0.18842203378817732, 0.4157267669313645, -0.22932254757939838, 0.01742491126060486, -0.2663767767738374, -0.3751671093108419, -0.7450914149343395, 0.11355808446781655], "layers.6.weight": [[-0.22265134751796722, -0.014577035675710679, 0.18909119844025457, 0.38866440195123486, 0.06896112222557756, 0.03651012888141315, 0.23969925379498971, -0.10858283671947315, 0.14950866975547727, 0.1257055873788094, 0.1195220947265625, -0.034079188761135304, -0.039150789905844106, 0.5320526047666797, 0.02679238376787769]], "layers.6.bias": [0.3023519404139523]}