{"layers.0.weight": [[-0.16695722937583923, 0.034791335463523865, 0.07441096007823944, 0.15922291576862335, 0.16915859282016754, -0.00483076274394989, 0.12296099960803986, -0.03358261287212372, 0.11951841413974762, 0.15013976395130157, -0.08007338643074036, 0.08094616234302521, -0.055251508951187134, 0.09024016559123993, 0.1667986661195755, -0.18003806471824646, -0.12321044504642487, -0.1632973849773407, -0.1372486650943756, 0.1271696835756302, 0.08531080186367035, -0.11148945987224579, 0.06478182971477509, 0.14513058960437775, -0.12207815051078796, 0.07872910797595978, -0.08507822453975677, 0.037345319986343384, -0.16743677854537964], [-0.3524305219290808, -0.24249571516245544, -0.061673187235474, -0.07825419121217218, -0.25996809465497095, -0.05102296153943031, 0.35816148249062446, -0.23356413511510887, 0.024437334044652346, 0.2619208664875227, -0.09647599015399155, 0.11372446508751406, 0.22086894761794026, -0.11395103163083253, -0.13049335889272345, -0.03682789019545604, -0.05430055279190076, -0.05406288350758039, 0.1472911071918783, -0.21366685052005666, 0.03522773319822823, 0.2378782227259048, -0.13649592141891745, -0.029582545223391984, -0.16467342494689552, 1.046669942878426, 0.9563787029486222, 0.8928507939972142, 0.8019482428734287], [-0.17035118543437464, -0.03494120442754405, -0.05684256563538953, -0.00787788855200299, -0.13555925949828923, 0.02489734043856274, -0.14407009702219267, -0.15969167555934413, 0.14458717078660568, 0.1315794908273653, 0.1638077751667502, -0.11784463511232092, 0.14890112258938148, -0.1756799131949326, -0.11320367578704393, 0.01204469889340645, 0.08805607379917667, -0.20804909345771272, 0.1043564576824963, -0.013948233590927605, 0.030766074179028605, -0.044110458068248606, 0.13064130180615624, -0.04887609554154497, -0.034678492498065545, -0.20765305503924023, -0.21680386581133124, -0.08205933197465293, -0.17924738004154922], [-0.04607504606246948, 0.056054338812828064, -0.15999501943588257, 0.09575684368610382, 0.12263543903827667, 0.15588007867336273, 0.00890319049358368, -0.10829517245292664, 0.1330631822347641, 0.11046700179576874, 0.17424364387989044, -0.14942359924316406, -0.11018005758523941, -0.1777287870645523, -0.12924587726593018, 0.15077657997608185, -0.17922332882881165, 0.07402782142162323, -0.030403748154640198, 0.1677025407552719, 0.17846019566059113, 0.04289610683917999, -0.07259789109230042, 0.1019037514925003, 0.09082786738872528, -0.054749131202697754, -0.16112959384918213, 0.022930026054382324, -0.06016036868095398], [-0.11187066423372065, 0.1352013045566015, 0.05320332747286201, -0.35605463151744826, -0.02281660586718859, -0.14451156104634774, -0.12801805565111388, 0.12063803608775332, -0.009313095647410891, -0.10520016822909477, -0.029462833251566255, -0.022515875306664292, -0.09192737417737469, -0.015618582834713573, 0.18805867509552515, -0.022663123243117037, 0.08426671326966846, 0.2559913491373028, 0.07752786005055214, 0.020444682391423923, -0.002821866321886942, -0.037632258334206053, -0.11778599724667067, -0.20030397071327077, 0.02646357709734343, -0.21095973644196708, -0.16355963982862753, -0.1534908611400718, -0.18701465322638253], [0.4693840333990729, 0.10226635122486544, 0.07459502103455545, 0.14343385435273243, 0.19077117930252133, -0.03945548551569655, -0.28319745807668695, 0.23416439833020933, 0.09618202093272443, 0.14115514631101328, 0.2661407836431894, 0.01043452698117989, -0.11042373561780856, 0.014658840022302175, -0.14895061732139153, 0.029969838795293073, -0.09210178855287453, -0.16116882904862537, 0.26673638976696135, 0.06753197782726675, -0.043470460759261045, 0.019380448697864795, 0.03393926184198532, -0.21186518297016643, 0.06503661277472235, -0.5706120865460755, -0.449037556905623, -0.6290222471941928, -0.44620817692090986], [-0.10320492088794708, -0.030345037579536438, -0.006362900137901306, -0.12926816940307617, -0.03506679832935333, -0.11746951192617416, 0.013745665550231934, 0.013826921582221985, -0.16644616425037384, 0.1487075239419937, 0.009626641869544983, 0.17470310628414154, 0.020076021552085876, -0.07583098858594894, -0.0671767070889473, -0.02223213016986847, -0.03920823335647583, 0.046112820506095886, -0.03014935553073883, -0.09544400125741959, 0.06306035816669464, 0.18376992642879486, -0.025549903512001038, 0.058878093957901, -0.12902182340621948, -0.12270667403936386, -0.18414612114429474, -0.09352781623601913, 0.09573183953762054], [0.5348937446452969, 0.46830558024595753, 0.053495445598771715, -0.04332041305023777, 0.21278175808142963, -0.06121340822455653, -0.02582543852388607, 0.2540842912040663, -0.039316512982272164, -0.20638726637398233, 0.19550967150307613, -0.012231810505389691, -0.07406073397587246, 0.07928311518244265, 0.01700586596712506, 0.032481940300515336, 0.15040646458330342, -0.22234543470890086, 0.20472044207090895, 0.17300893364993977, -0.27953812880051765, -0.10174298795283877, 0.17988016825338166, -0.19754555853943156, 0.3059493237792943, -0.6671157065409822, -0.5584762460480117, -0.5238338085662656, -0.6295983282983733], [-0.09430485218763351, -0.1619480401277542, 0.09147556126117706, -0.09242933243513107, 0.10833267867565155, 0.15902327001094818, -0.12124793976545334, 0.14752815663814545, -0.013994961977005005, 0.17917127907276154, 0.0747511237859726, 0.09987403452396393, -0.03709214925765991, 0.042752936482429504, -0.01325942575931549, 0.053488969802856445, 0.029134228825569153, -0.13430258631706238, 0.1675393134355545, -0.14170588552951813, 0.16849912703037262, -0.12585929036140442, 0.04036429524421692, 0.13646747171878815, -0.149314746260643, -0.10726585984230042, 0.15583394467830658, -0.110629141330719, 0.11430113017559052], [0.5492902955101108, 0.1775157933733442, -0.05811499392878748, -0.09732622826263844, 0.191781416134212, -0.2265287111877366, -0.029088356032676673, 0.14115592051067388, -0.196933471849983, -0.03238903989473014, 0.05647499947745785, 0.09788389237271827, 0.19230916270552542, 0.07576271590264928, 0.04602877829956163, 0.3177491361289022, -0.017178289640186546, -0.008003706336917722, 0.24404004649274788, 0.020874931280592257, -0.06677931172362789, 0.015581522483192011, 0.1353941256060312, -0.1295833499483345, 0.36472285007035044, -0.5296303477289136, -0.5436342236755414, -0.4301391481576549, -0.3417829296220858], [0.4099858968484392, 0.1791760464334484, -0.04611164025932164, 0.0432504622829641, 0.16388529612108813, -0.1342013926610475, -0.11028523516041402, 0.282939821674847, -0.10677577228519272, -0.21905782994354886, 0.012726795982839994, 0.08954385369204024, 0.008089882535339502, -0.05211115285988286, -0.12061129391028276, 0.01806493404341157, 0.0029802737485314806, -0.2718032956492053, 0.09935781036830099, 0.30328772075379673, -0.3158460659273401, 0.10055390366203275, -0.033969246145511806, -0.06324656855886088, 0.25700813192970556, -0.67279204228197, -0.642010674142027, -0.5616569580794725, -0.6123355883415036], [0.3375817916914021, 0.35335183192545294, 0.1330366414350191, 0.11144457178088935, 0.028772444689593547, -0.013857336231862525, -0.04439702322347742, 0.1369612614130227, 0.004523176704966692, -0.20603960132981838, -0.05583309879040949, -0.07812234588509585, 0.08660495373994515, -0.17714105994901608, -0.1006675822183715, 0.09394673000814449, -0.15591251445632043, -0.1005533783225013, -0.04653472332121898, 0.25991996244109195, -0.28799716853177837, -0.10726217340308149, 0.1403851158500678, -0.1828608252333568, 0.18997991435275385, -0.5782284279360643, -0.387140013031241, -0.6411518345763506, -0.5621499713471808], [-0.3078359288290217, 0.015420007307356291, -0.08319769654286992, 0.03563212211088959, 0.0899571669936243, 0.0534352745460128, 0.15681110637848084, 0.05771338403796248, 0.10385118197396295, 0.1371862562853124, 0.023624990666504166, 0.0251407168623001, -0.0248172416141353, 0.14842310426556843, 0.01786711746875255, 0.011745425941154576, 0.14745088889869842, -0.09934931439123522, -0.14120611192756152, -0.15945325660258564, -0.008503493630310055, 0.15884753215586045, -0.05101636144964446, -0.0441655422755706, 0.0260289983881461, -0.17632919043232287, -0.14064210770252247, -0.23532644458805882, -0.4273868982536536], [0.07623320581524927, -0.7585588352609188, -0.7929926246629202, -0.9092210128977671, -0.48298741713205046, -0.5253886804321475, -0.30143868651139283, -0.18977183392338262, -0.11586491890657663, -0.06465929699062276, 0.2627346070274238, 0.17336779097299865, 0.4262064834215396, 0.512322486781111, -0.02333547289397339, -0.20921174192715014, -0.2619238369724383, -0.03969311521094679, -0.821344126363854, -0.6069168496222171, -0.42309456596097444, 0.7314909329620616, 2.2422282026144926, 1.7722345965633206, 0.4625476487413236, -0.2842249743621315, -0.2841675011419594, -0.28464722595114544, -0.2786517878749563], [0.5686303898850503, 0.30199114528305077, 0.14243781398910002, 0.19501075837683712, 0.235065721572662, -0.2790563631596982, -0.26708221356250833, 0.3012022432640007, -0.13354176474743135, 0.08423697833959985, 0.04291478276627939, 0.10946414111094957, -0.09254349785717339, -0.02157975046478107, 0.1129636859701163, 0.13566252906273693, 0.07744523424311182, -0.042054735674885706, 0.20815272983622582, 0.13935886010090448, -0.08051479401270067, -0.22375387265237373, 0.02611191037554211, -0.20698594356682584, 0.14330651809837633, -0.5107897280275924, -0.5524479935972473, -0.5454306150576581, -0.4794708479233244], [-0.18310284614562988, -0.1842273473739624, 0.10951896011829376, -0.019792944192886353, -0.17451877892017365, -0.1643684357404709, 0.1834137886762619, -0.07920507341623306, 0.1140427440404892, -0.09403536468744278, -0.16005446016788483, -0.07177465409040451, 0.09983067214488983, -0.11435674875974655, 0.09801124036312103, 0.00550137460231781, 0.14666791260242462, 0.03270202875137329, 0.019074782729148865, -0.007463276386260986, -0.11103030294179916, -0.15178944170475006, 0.12199388444423676, 0.11882312595844269, 0.09540809690952301, 0.15691666305065155, -0.06925801187753677, 0.11072011291980743, -0.10706166923046112], [0.3232548965253842, 0.17634897773526018, -0.24730920089161199, -0.011470175153844638, 0.10996348959962476, -0.06606082874156444, -0.07556179937907309, 0.30427264559274825, 0.22042948022623016, -0.09245014305051312, 0.21217674467186334, -0.17299443967215766, 0.04913711887092958, 0.03598862182656786, 0.08703941511018358, -0.04291173829746426, -0.14314891956405823, -0.28345396850185106, -0.0744011730971069, 0.2469815559706762, -0.27046612833650013, -0.3017872287137108, 0.1824181293946061, -0.11303643243239173, 0.12424332063520163, -0.46901688497600563, -0.6118546608776575, -0.7172971012951432, -0.7996525577744696], [0.2972480036462525, 0.5544854092837607, 0.2820343023487145, 0.1567448218983287, 0.5692267044334578, 0.2294121252825298, -0.053961496961720985, 0.25832891766970667, 0.1269727908438121, -0.14828357101693682, 0.17351907978299277, -0.09284087365881716, 0.14630340087006885, 0.04214606099547869, -0.006893786043015919, 0.2044767660303735, 0.05961643868669644, 0.0028095615824412935, 0.1305809886899381, 0.4254741213642105, -0.016354202902786545, -0.048017386618460986, 0.2764332636338355, -0.19523430653741414, 0.37121009255827037, -0.7143717903522055, -0.5710812721840656, -0.4807348068074591, -0.26887389825902225], [-0.11483179777860641, 0.08670563995838165, -0.023087993264198303, -0.16633060574531555, 0.14174921810626984, -0.02159842848777771, -0.17910248041152954, 0.030887767672538757, -0.027222275733947754, 0.10274533927440643, -0.07045120000839233, -0.1808808445930481, 0.12885163724422455, 0.13632209599018097, -0.1809147149324417, 0.12595246732234955, -0.04512786865234375, 0.036717355251312256, 0.1791566163301468, 0.024989858269691467, 0.0523083359003067, -0.14800697565078735, -0.01942358911037445, 0.1543460637331009, -0.037994250655174255, 0.18067826330661774, -0.0011244714260101318, 0.10309813916683197, 0.0634855329990387], [-0.2819496942790911, 0.000669599829279981, -0.1805846787810276, 0.08850305057379368, -0.17491944909987595, 0.01221095889831972, -0.007589780991260512, 0.09005016405106697, 0.03833186842228555, -0.08920276872205718, -0.1557331940690748, -0.031023511001984614, 0.1068536432575064, -0.12139538767221905, 0.012086983875221146, -0.12282227728779974, -0.04142959240617952, 0.036677244954568235, 0.05525276390223547, -0.07013813950584408, -0.06206596160108797, -0.06256549674523823, 0.0363446130957113, 0.0838497853078498, -0.1468457503947016, 0.002968441396106109, 0.2396662787937625, -0.2658559636202854, -0.29935822827738356], [-0.1614500535410411, -0.03113757582127051, 0.033209305841808624, 0.0890177507139386, 0.0800960294981271, -0.08038442176564965, -0.07349249653908396, 0.06403800076106997, 0.14676631645314125, 0.14922274641024216, 0.15003379914456666, 0.10206752037613691, -0.025523601680000677, 0.13261342163219525, 0.12838591516323328, 0.08679970403095778, 0.03856206305503352, -0.18008554881879574, 0.046475267518745984, -0.09827339085226916, 0.19899418161436475, 0.14938798994127406, 0.021315548377784026, 0.14297008977836625, -0.11934170885432337, -0.39413877057190133, -0.2976219280191903, -0.08824776271611318, -0.12770132671352286], [-0.2150025795031454, -0.006977688330920146, 0.08176157687728434, 0.05253517855985346, 0.08566024639348023, 0.20046529425366036, -0.04092907924820855, -0.12299796570845832, 0.15988386994339313, 0.234611189834977, 0.2193256710575122, 0.020032823465653812, 0.023631419816779006, 0.05005127109687292, -0.03381094702028797, -0.08571258145276171, 0.0794919067022847, 0.04396915702742386, 0.04760076022748407, -0.012872781469974453, -0.07882104094426948, 0.16282257778645684, 0.05429680551681491, -0.0010064679011084292, 0.1713204001281714, 0.005380481481552124, 0.06458576023578644, -0.005859465985900016, -0.06578943571057669], [-0.0035919547080993652, 0.08854810893535614, 0.08536885678768158, 0.039416730403900146, -0.18151403963565826, 0.09181438386440277, -0.10314656794071198, 0.08024086058139801, -0.028907909989356995, 0.07041378319263458, 0.03859752416610718, -0.07668743282556534, 0.11199559271335602, -0.1344425082206726, -0.14957137405872345, 0.04322230815887451, 0.164287731051445, -0.017412900924682617, 0.1491568237543106, -0.06382106244564056, 0.06940783560276031, -0.09272930026054382, 0.0058557987213134766, -0.08284322917461395, -0.11025731265544891, -0.11172638833522797, 0.08667771518230438, -0.12262734025716782, -0.01944383978843689], [0.39356319099917353, 0.3617895793984963, 0.12246809840546224, 0.08307904581850349, 0.381419394966155, -0.17242329763128517, -0.2389754843133411, 0.13498188474731804, -0.17664302195585507, -0.06377669127661278, 0.07789899738332785, -0.24623669830933007, -0.10172938286698263, 0.026237406469232564, 0.08722757024828545, 0.13103329795678928, -0.12537517544862783, 0.022270854359602764, 0.0517253269161733, 0.08023537236791996, -0.04955075909607453, -0.12416976644202302, 0.11187337436265721, -0.4856694545903849, -0.07272733788990596, -0.9350170980761026, -0.9222982664908547, -0.9071565190877177, -0.9028418781525182], [0.4941372345005798, 0.1310263529744449, 0.03497106001961091, 0.09582882278271661, 0.21415711921391117, -0.08863480894679725, -0.1651695000414431, 0.23981899073308216, 0.02276621890927487, 0.10047730879879874, 0.14350948393991964, -0.09343139218606616, 0.007713796153606481, -0.1149343023796585, -0.11184221526992472, -0.05834407066327895, -0.1189355974259856, -0.059307874187614434, 0.24303878777153476, 0.19781724193903016, -0.17088661923651202, -0.09706512890939875, -0.03587122738377821, -0.06000154386732935, 0.1520669700313275, -0.5940887577071388, -0.591049431688032, -0.6062644739823093, -0.6124279952617854], [-0.11689223405252336, -0.023190588771924647, 0.13773636540180198, -0.1671751738915183, -0.18915593617935145, -0.2003910197905607, 0.01032030538102506, 0.1185957034646352, 0.12857117805558135, -0.016405373527812957, -0.023217888513462855, 0.08761306621034431, 0.0741964044914784, -0.1549320492853689, -0.07234991702558474, -0.1933767786117107, 0.15054066212583048, 0.09405439292335249, -0.09160481789279791, -0.05835353891110095, -0.021976341174307565, 0.1231686736285992, 0.08402145324937153, -0.17219234247276954, -0.060735090991265506, -0.1025481675799498, 0.009029838757316848, -0.1983461500815277, -0.029765746393354015], [0.3436891057528877, 0.18069364011635572, 0.09068014214368589, 0.08107450592282603, 0.11479122699641377, -0.14100267625364837, -0.12732726360750338, 0.2166792061254352, -0.00042945463333669706, -0.1689631702777075, -0.010121658598219938, -0.12793683998840924, 0.06627113899266764, -0.022957051744451826, -0.24472142712783404, 0.059888958722823855, -0.06423059596866806, -0.2597082071850948, 0.029386815043614584, 0.22796696271414163, -0.03518834639672477, 0.04297083463978945, 0.057095611376228955, -0.24758619459442185, 0.2959629178690013, -0.26300381119312716, -0.49864339532871416, -0.37703990246682606, -0.6587570518511618], [-0.019789461616274817, 0.2438309881354283, 0.18006790681343562, -0.15935997505467642, -0.23900685597438143, 0.006818299545121406, -0.2892198692314241, -0.32391608613466083, -0.1644443787306364, 0.007823269200780384, -0.15364792399190652, 0.008635290749832717, -0.16283652804184398, 0.1610038132034076, 0.09818558686553726, 0.09623946710921785, -0.014310915767876296, -0.06811236734864377, 0.02905252367258605, 0.04913343169138737, -0.007827259249665106, -0.0088855713651464, -0.029920257748202422, 0.14884974706498033, 0.2437057003418866, -0.2614937717440112, -0.23716486101367562, -0.20781049263337092, -0.334745689352633], [-0.160708487033844, 0.11001516878604889, -0.02650582790374756, 0.010227158665657043, 0.07954065501689911, 0.008684694766998291, -0.05938141047954559, 0.05391901731491089, 0.07259707152843475, 0.07147346436977386, -0.07675822824239731, -0.120493084192276, -0.1543416827917099, -0.1461729258298874, -0.05113734304904938, -0.09452062100172043, 0.14683793485164642, -0.07485602796077728, -0.07968831807374954, -0.12090599536895752, -0.10424844175577164, 0.10685361921787262, 0.15656624734401703, 0.14157100021839142, -0.12971054017543793, -0.06291748583316803, -0.16042110323905945, 0.09646610915660858, 0.16094781458377838]], "layers.0.bias": [-0.1550145298242569, 1.071342984713276, -0.2626920811695906, -0.18168610334396362, -0.12777992333641508, -0.7597781038137337, -0.09945403039455414, -0.34475307636497315, -0.1593187004327774, -0.5995245260188435, -0.6494381073399873, -0.37393038313253085, -0.09564189537561496, -0.2683232321389601, -0.6226043528730651, -0.09311744570732117, -0.5645043380707125, -0.4211294986293244, 0.1356789618730545, -0.08519055615715845, -0.2551049552131901, -0.12813830571064308, -0.14273770153522491, -1.0617801178761104, -0.3827111326474896, -0.13185370381174863, -0.2876736030709614, -0.28549822845552997, 0.18444620072841644], "layers.2.weight": [[0.10000549256801605, -0.29309999446279, -0.20018466238601335, -0.0012784600257873535, 0.1619296818971634, -0.09387888206330951, 0.047280386090278625, -0.09718077446958849, -0.09201634675264359, -0.30476436186703004, -0.108051369483113, -0.18181678231488435, -0.05759488975110722, -0.016920842048010733, -0.2757362166394301, 0.06524001061916351, -0.050123045458720705, -0.060835118703882196, 0.10232062637805939, -0.22781764772519034, -0.2024160759344692, -0.22713517853375415, 0.16918186843395233, -0.03402394083680186, -0.1083874520375846, -0.052554929125145554, -0.2820980520936253, 0.04324481920164658, -0.14392410218715668], [-0.03668452799320221, -0.32342776188020816, -0.1334301857716108, -0.11831028014421463, -0.2226219714683418, -0.24975235454244932, 0.13439537584781647, -0.03796892148222958, -0.08246535807847977, -0.1375273486475493, -0.04775352025725747, -0.053572084323500684, -0.009912789264438237, -0.049758945216777414, -0.04920232430434733, 0.04533512890338898, -0.3688391554810521, -0.0476956522812304, 0.15825949609279633, 0.05930040049710647, -0.3417783195589821, -0.10668134069942002, 0.14862887561321259, -0.1931795737446707, -0.11991569648671468, -0.22344943789226232, -0.059713744041373834, -0.3673713035056663, 0.0031102746725082397], [-0.16533678770065308, -0.2530576454598284, 0.05287428489942201, 0.021568089723587036, 0.10505746176989189, 0.09737510484639982, 0.13048361241817474, 0.3192671978845524, -0.10434696823358536, 0.17931965592275612, 0.28074379813925554, -0.16569121910386297, -0.05998207571621828, 0.12658236939557077, 0.26466040820447073, 0.15868224203586578, 0.031184839113225813, -0.06026618931641428, -0.1631683111190796, -0.25025725641843627, 0.035194982126281256, 0.18053104322807564, 0.025243818759918213, 0.7450945284601735, 0.18282299682226644, -0.01735037157917357, 0.1698414742167043, -0.036458543766558583, 0.08663685619831085], [0.13948412239551544, -0.08873733878135681, -0.23441044534787706, 0.11185707151889801, 0.11857236921787262, 0.0576944008090857, -0.17225806415081024, 0.0600350831990402, 0.027295738458633423, -0.24612643616474125, -0.18870563922183603, -0.07382699555123325, -0.009100412886402065, 0.020378429582760996, -0.11673899060352845, -0.12539762258529663, -0.20547804183632168, -0.20034580186496206, 0.05638369917869568, -0.20794177563118577, 0.06364009129730772, -0.09850528166342233, -0.03939661383628845, -0.28872776254544835, -0.015975602744734224, -0.04014603066092212, -0.15623484444248859, -0.165942383478283, 0.049072057008743286], [-0.058732956647872925, -0.24173031468233835, 0.20110993767826882, 0.11735211312770844, -0.13747316144238497, 0.047033313280476274, 0.06497214734554291, -0.0551698820212127, -0.12907379865646362, 0.2293202714242463, 0.09984684927425429, 0.022314264415094605, 0.1125476805579194, 0.4374178373371007, 0.18429082857397242, -0.09379278868436813, 0.3208520783970315, -0.41504752225774066, 0.1350933462381363, -0.06187359512005329, -0.12299124906828182, 0.02864251196308687, 0.15028907358646393, 1.5324744027301602, 0.1177254992210023, 0.19194885307196013, -0.005158865174509216, -0.08514689978771552, -0.0604986697435379], [0.016840562224388123, -0.10659629421365385, -0.010004090248020469, 0.11662288010120392, 0.14015544010073278, 0.20736889508968154, -0.15558946132659912, 0.4024511899250779, 0.09708316624164581, 0.3940488596903324, 0.28200854775334305, 0.1859366667280214, 0.12673474251652608, 0.44215063501387364, 0.3403225425455483, 0.011605188250541687, 0.0937716240395502, 0.113721492078342, -0.11024516075849533, 0.22981293693046675, 0.015818219116367355, -0.023053015608751976, -0.06540046632289886, 0.6034372017325196, 0.41069774847423796, -0.12327610047738707, 0.2961223396109962, -0.12631244183468485, 0.1375412791967392], [-0.033706024289131165, -0.13886860013008118, -0.2664329130835006, 0.08285365998744965, 0.044031769037246704, -0.02421506165688596, -0.17343884706497192, -0.18380735384424185, 0.15750358998775482, 0.0061083391349879305, -0.07720182981374915, -0.2398276198714606, -0.2691407692556494, -0.20988888040540354, -0.038624384825520955, 0.18428869545459747, -0.10053135363510682, -0.1525068206581663, 0.0752093642950058, -0.2967784190017618, -0.0010308199316065511, -0.1687718778848648, -0.1268012374639511, -0.19816726922352854, -0.1404773167374197, -0.03947840810592621, 0.05632119818836617, -0.30063411709372984, 0.04665002226829529], [-0.15908204019069672, 0.02987194061279297, -0.010705185191215803, 0.06376808881759644, -0.10309290885925293, -0.19391690362356453, 0.07771183550357819, -0.04109640592053072, -0.12731853127479553, 0.022783643349028732, -0.20304771034865368, -0.13332350651871933, -0.028372590480067388, 0.030372454341572798, -0.26921873139740704, -0.1477336883544922, -0.028992211423892758, -0.1294073706938956, 0.10430572926998138, -0.16591535462986456, -0.055985771944244464, 0.013380647454376685, 0.14113159477710724, -0.02375023814431698, -0.10859318419497144, -0.033701189081355255, -0.11537239656108947, -0.2627013364452463, 0.05381390452384949], [0.028779402375221252, -0.380997535442302, 0.15161778905339732, 0.07082675397396088, -0.19523845507221266, 0.03621741894130856, -0.1030244454741478, 0.0311495224413709, -0.052067920565605164, 0.3428032385726137, 0.2858287043792206, 0.09275225834155154, -0.023813745900011306, 0.23927505576839475, 0.345219071373396, -0.036249011754989624, -0.14848150551044928, 0.03234088595304094, 0.15911723673343658, -0.017037069364526525, 0.09619174076918195, 0.058916012060016565, 0.11963798105716705, 0.7636448360865356, 0.2286530810613104, 0.1824036389738796, 0.0117900912796131, 0.1177217345882045, -0.0346052348613739], [-0.09318454563617706, -0.5037042375380543, 0.2686212983948674, -0.15466421842575073, -0.06542943121201837, 0.23423921667566786, 0.011749982833862305, 0.4194632150415643, -0.012547358870506287, 0.13428304670471214, 0.3057440481919617, 0.2278988676693802, 0.19552184212486912, 0.41874426241981455, 0.46120457961146494, 0.0038222670555114746, 0.0006829293971970376, 0.2171839977753827, 0.15264366567134857, 0.12948753052021034, -0.012414878724982618, 0.0038638158006988723, -0.08850594609975815, 0.465943316804152, 0.05212223098878068, 0.031913237267301255, -0.013042248551081253, 0.11769252223163064, -0.04410956799983978], [-0.014250457286834717, -0.45211777823620963, 0.04393436266060943, -0.00731658935546875, 0.019877729185826667, 0.238528667512475, -0.16326262056827545, 0.2710391364219634, 0.15872211754322052, 0.2792173542009892, 0.10106420846781855, -0.1256066282868685, -0.20473069466583968, 0.25120491678856827, 0.33414317560130136, -0.12116842716932297, 0.0031302015549161976, -0.045638805314610634, 0.008833035826683044, -0.15526754881379912, -0.12422523148538084, -0.12021101440964743, -0.09455358237028122, 0.6452926674114721, 0.0959401314271059, -0.027694890332944474, 0.017525229062215843, -0.01972795052838781, -0.1853225976228714], [-0.14348091185092926, -0.2991752612572354, 0.031548299226762, 0.060806989669799805, -0.04536335465437761, 0.4241927997388216, 0.019256994128227234, 0.4285193721961796, -0.08399391174316406, 0.5052782353091114, 0.15092474613265575, 0.23616233048533417, 0.18284623070522157, 0.2250692388552456, 0.38984808803162113, -0.17668859660625458, 0.21015180227240207, 0.017427286110792143, -0.04562753438949585, 0.08566925141345648, 0.04314675823923594, 0.26237509551955307, 0.17376916110515594, 0.6853283733690578, 0.25660267400522163, -0.07577019687066054, 0.21900371123191387, -0.020044871422069406, -0.14811283349990845], [0.12793545424938202, -0.19610488245315358, 0.0014039725065231323, -0.04507102072238922, 0.020013029235578076, -0.0935554602819314, -0.11172441393136978, -0.13422344104381112, -0.04243594408035278, -0.12731796016469085, 0.13429944161851157, 0.14966669363114676, 0.11174614258573884, 0.08118191751124529, -0.06843226358760873, 0.0009286105632781982, 0.03906049583462632, -0.08161694757451182, -0.017424657940864563, -0.03626731038093567, -0.17838194966316223, 0.02175988256931305, -0.06461609899997711, -0.025187093132239973, 0.02435635487281309, -0.021401047706604004, 0.07645257028954253, 0.04370506375188142, 0.17425943911075592], [-0.15953001379966736, 0.11014701426029205, 0.07682754099369049, 0.1533137410879135, 0.14974768459796906, 0.08109577000141144, 0.041631922125816345, 0.06524930894374847, -0.07183323055505753, -0.0968506783246994, -0.13575875759124756, -0.07421623915433884, 0.1666775792837143, -0.11819639056921005, -0.1423923224210739, 0.09816239774227142, 0.08879877626895905, 0.11745093762874603, -0.12739160656929016, 0.03704875707626343, -0.05395382642745972, -0.14046835899353027, 0.0956345945596695, -0.06643129885196686, -0.11083363741636276, 0.007692977786064148, -0.09490608423948288, 0.024434834718704224, 0.11981891095638275], [0.06751279532909393, -0.17639663390881788, 0.1335008591413498, -0.14455613493919373, -0.08685880899429321, -0.10884399888625504, 0.18373240530490875, -0.08385310307631533, -0.06027519702911377, -0.10113665915970983, -0.14068816983652208, -0.1366598569373846, -0.13132819533348083, -0.018661617278182458, -0.30395421149103724, 0.11442111432552338, -0.21637375975323597, -0.21959882766244024, -0.01695197820663452, -0.17197255790233612, -0.22730834408882433, -0.041726983602082865, -0.18116208910942078, 0.05428489224118995, -0.08262772325191436, 0.047354416388191774, -0.16390515866032143, -0.18545199843787583, -0.10394023358821869]], "layers.2.bias": [-0.11210698677544484, -0.18686908222429205, -0.1306755688058007, -0.29160101211416134, -0.2839517924986617, -0.06288375089069181, -0.05264890407484306, -0.20123936206943932, -0.37771681011956143, -0.420427895242625, -0.3570425361999822, -0.24453427289115356, -0.13500951699209443, -0.1122649684548378, -0.0893878162875699], "layers.4.weight": [[-0.07748095691204071, 0.08055919408798218, -0.09177954494953156, -0.2228575050830841, -0.24348542094230652, 0.1208956241607666, 0.09613645076751709, 0.10801613330841064, -0.18488922715187073, -0.07277083396911621, -0.171089768409729, -0.012603461742401123, -0.2291642725467682, -0.253451406955719, -0.251416951417923], [-0.08621680238990234, 0.02906735926404867, -0.1748922504373372, 0.35047315975634885, -0.158972440418489, 0.32141047426481517, 0.13661407528203412, 0.13608667026529833, 0.12890629061620604, -0.22616947319404665, 0.0753549726658795, 0.33087311586665974, -0.2968255664302583, -0.18466085195541382, 0.03413109066627252], [0.11059606466132824, 0.13069672188068765, 0.022656270056328406, -0.25848997778017285, -0.23576469827882635, -0.35451989364055725, -0.07565264628677743, -0.05963258776290708, -0.1373668439643666, 0.049673274257875516, 0.012599526854502625, -0.36717374780034784, 0.21220612525939941, 0.197797030210495, 0.10615510848891639], [0.10392248511269778, 0.07977706402374282, 0.12703680853251104, 0.023383595912173216, 0.0008709185481255234, -0.1215986691775775, -0.10835795680129445, -0.18979211351284594, 0.02344186903509731, -0.24426954314415913, 0.024024595857055263, 0.1797446394754135, 0.06419683993861133, 0.18190860748291016, -0.1366870863030878], [0.014435111548614857, -0.014371824108367185, -0.1988571017502477, -0.285079378659851, -0.4274360540172891, -0.11290183178242227, 0.1295320473944509, -0.17478649090638096, -0.08012068307192406, -0.27406593710030747, -0.14198905794824845, -0.06402374819219858, -0.15936817228794098, 0.05776748061180115, -0.15561947154095784], [0.0504539704353112, 0.2129980034718625, 0.29625103612086134, 0.16447263956069946, -0.1802212018235999, 0.4478724326454797, -0.1298058032989502, 0.21997964458795294, 0.30491223168782294, 0.15174789480650663, 0.0924643717836091, 0.3684671281065122, 0.09891763715187699, -0.08621564507484436, 0.23228859215758912], [-0.08089959621429443, -0.22751379013061523, 0.04572325944900513, 0.10075953602790833, -0.36323517948145095, -0.33552953199216956, -0.21936410665512085, -0.013723596930503845, -0.21335852146148682, -0.22414169128023112, -0.3688186634377082, -0.020346771349775025, 0.09621912240982056, -0.14169175922870636, 0.16497063636779785], [0.07095882296562195, -0.32984551802107953, 0.05559428550020045, 0.21492800116539001, -0.13971894558446907, -0.22106501274447404, -0.2479306161403656, 0.04096606373786926, 0.05212153098210459, -0.40399933564488383, -0.28339986734802225, -0.1491131284991128, -0.23376771807670593, 0.14097553491592407, 0.2114454209804535], [0.22909754514694214, -0.010586157441139221, -0.25600579380989075, -0.07935315370559692, -0.03167450428009033, 0.03953832387924194, 0.22272291779518127, -0.010491102933883667, 0.2550019919872284, 0.2518627941608429, -0.20268036425113678, -0.24339325726032257, -0.14844605326652527, -0.21139653027057648, -0.06251078844070435], [-0.20144402980804443, -0.09804561734199524, -0.20603233575820923, 0.1426011323928833, -0.030097201466560364, 0.14051327109336853, 0.04145631194114685, 0.1274293065071106, 0.028718769550323486, -0.03362676501274109, -0.1173071563243866, -0.12356700003147125, -0.04457305371761322, 0.15324029326438904, 0.15461790561676025], [-0.11644827807178552, 0.11006919124420166, 0.23785738887723526, -0.05325002512182087, 0.16250974188961126, 0.38502046631505427, 0.053120299336578775, -0.09688054868423635, 0.18432143882410582, 0.38279471272296595, 0.3455307694855977, 0.5122649983790912, -0.12423748898707844, 0.23717910051345825, -0.02412470768436812], [0.03274795774356269, 0.18323234262328325, -0.039657735641813144, 0.06146560201922184, -0.29428955901787657, 0.30836713416073475, 0.20320091417868155, 0.03303058784831635, -0.36011295849890157, -0.3580692298580596, -0.30973233863061694, -0.03316687905495386, -0.010431875140046896, 0.0012385845184326172, 0.13219349548767342], [0.1481737494468689, -0.04724602401256561, -0.25679025113746445, 0.041158318519592285, -0.18474790255511359, -0.19681450587743018, 0.051488786935806274, -0.00764891505241394, -0.15465936553087672, -0.047362428516876075, -0.19267267992232404, -0.012713837993844936, -0.06398780643939972, 0.04538610577583313, 0.22729995846748352], [0.02606790444341189, 0.05410450740495606, 0.012755739384210301, 0.058340561753553885, -0.7605599127292457, 0.209808559170834, 0.30504908904901673, 0.21963365630697781, -0.07851272035921338, 0.03260024384004505, -0.2873212651041203, -0.014283548592895363, -0.11885222839414666, 0.10621488094329834, 0.3094228668595899], [0.119516521692276, 0.18285873532295227, -0.25251346826553345, 0.1164715588092804, 0.049879223108291626, -0.1251053810119629, -0.25816524028778076, 0.24169841408729553, -0.08714085817337036, -0.22980567812919617, -0.1860993355512619, 0.06407707929611206, 0.1587633490562439, 0.02664405107498169, 0.040278851985931396]], "layers.4.bias": [-0.035938724875450134, -0.050010563693752785, -0.14202102064728642, -0.06450204988076326, -0.12356229182048231, -0.00767147405704432, -0.019460185113219258, -0.2664794327887633, -0.1646556705236435, -0.10464794933795929, 0.3505658721732401, 0.9563161553291969, -0.3763783078496091, 0.32386630048267456, -0.19565939903259277], "layers.6.weight": [[0.1739276945590973, 0.10479897120717171, 0.04588067335487279, 0.014199252587119094, 0.05079468114110304, 0.35802001259862376, 0.011633617567068821, 0.08871305495881254, -0.20656192302703857, 0.16784551739692688, 0.38575772244681306, -0.2946220791985258, 0.1125109358521517, 0.1979086357877496, -0.1148284375667572]], "layers.6.bias": [0.5471619086732976]}