{"layers.0.weight": [[0.34899801656198576, -0.3865346297706013, 0.23934112176440184, 0.3111870273987315, -0.19876042331085708, -0.020530932328143407, -0.1950184543579108, -0.30095633841120994, -0.4311313680405375, -0.39452211708835594, -0.3195328401711847, -0.00325180503254697, -0.00018451150219171478, 0.40440246657177015, 0.3740262608018217, -0.12055110481475748, -0.16146820302277612, 0.18551173907077617, -0.2814058918157108, -0.11131120881333616, -0.19164773126743725, 0.010872809842037137, 0.8850897352536762, 0.15934549707096088, 0.41611525499531227, -1.0158844971138732, -0.987322863720313, -0.9869954161111236, -0.9909236678441952], [-0.13188332437522785, -0.029737559984001096, -0.17177868454012327, 0.14237025651293392, -0.05992994818399463, -0.07876037803676005, -0.08058236773475827, -0.15308147779656572, -0.18683562512316598, -0.038997563488376456, -0.1859089663671416, -0.13084964972954835, 0.08527169291133319, 0.0374882414192162, -0.17087239010570732, -0.06501347279560933, -0.11006231345347492, 0.03201292255319603, -0.04535381875810709, 0.04660982110027665, 0.019351122444970406, 0.013728657993763603, 0.09732541428906946, 0.042485124701183756, -0.20903387917324653, 0.05285623633338361, -0.3196464839224542, 0.006156925472201661, -0.1441090339803094], [0.33438413840049813, 0.2504334347477818, -0.036368859162358706, -0.37336120546129015, -0.07625749907358345, -0.19062146727772464, -0.038834115093922615, -0.2002444544991713, 0.17686482098465015, -0.05253929467439029, -0.2724071225308126, 0.10461448880392712, 0.531427329131315, -0.018195240897756017, -0.15874366169578802, 0.16024575604831, 0.06659880816512107, 0.1116822684380241, 0.10335104909791056, -0.1988810639510154, -0.23172768042796343, 0.2100813072935158, 0.17954578192592005, -0.26452902515452537, 0.3331371080478131, -1.1347240413366935, -0.5431112157813779, -0.4805670918399752, -0.6859734664001419], [0.47248709513802184, 0.1308391587319031, 0.7544235288755615, 0.2040599401449062, 0.6476324880655159, 0.868746252090961, 0.3725971790303527, 0.04783983406270553, -0.3448097271444058, -0.34532305968960103, -0.0011686684300166435, -0.1240118273780229, -0.3238371762889579, -0.12395870818154439, -0.02386179179774634, -0.16560864439785514, -0.30937705260786685, 0.2644354085309159, -0.08528667019659154, -0.15686173746310247, -0.057702508372705665, -1.1334399169343583, -0.2592466305200064, -0.9642272358901184, 0.9417736389009143, -1.1849022522339883, -1.1186903450030983, -1.104186394035481, -1.1283057329273682], [-0.25423675571983906, -0.17182859367688635, -0.1271432857635898, -0.06752736579230044, -0.0659853765401376, -0.1912456300652899, 0.04170193024584374, -0.265659658245131, 0.008258796895044733, -0.26369272473051614, -0.2614551985622422, -0.09361018914522339, 0.06988236776670358, -0.1013906837195237, -0.09809551889847061, 0.03712872821207922, -0.04863242580812233, 0.04508893181039984, 0.006932063811467861, -0.19531630670995, -0.07874677454052896, -0.2865529533065017, -0.010339373834525403, -0.19797818450230964, 0.04137970569688567, -0.25257382047727417, -0.2699066627936891, -0.23840866960494356, -0.05490018374059486], [0.47932218441734886, 0.3951754992595934, 0.009023234171298404, -0.3390432408711082, -0.304952549396788, 0.01267015640031778, -0.16322808846279344, 0.01309322471426391, 0.3019504898066353, 0.043615803453996564, -0.26535050380574055, 0.13568129076031482, 0.2820945624259924, -0.2678542185086052, -0.33816766976117835, 0.11717328504693536, -0.3231615257027956, 0.01659418293866366, 0.300784361066348, -0.0027284883900101694, -0.07761995895395503, 0.27441738579931363, -0.06294044969069773, -0.2477782757419598, 0.6355552950034409, -0.36346086527906996, -0.6628983311194456, -0.38376200693039536, -0.5875834190760141], [0.55689500020554, 0.44751365440509017, 0.23141735556165077, -0.000928883561701767, -0.12761708621219248, -0.11144914993802243, -0.14270307768100746, 0.17045652000682887, 0.16941563464732998, 0.303048874079249, -0.06893555207470427, 0.20775740517847602, 0.3849633889329712, 0.05654717465375764, -0.17141051255484285, 0.19880111648835946, -0.10591918895702278, 0.16801997917356515, 0.3189678504744578, -0.1590918159373063, -0.07000022120957029, 0.24675335876232657, 0.13750945489563615, -0.1781607115935109, 0.7616434495655409, -0.23552727580112595, -0.25744233261265065, -0.28628060377654313, -0.19286698784816964], [-0.12816491723060608, 0.17597727477550507, 0.13422103226184845, -0.004651948809623718, -0.14829982817173004, -0.03978276252746582, 0.12483327090740204, -0.12968473136425018, 0.0546540766954422, -0.12098602205514908, -0.03985559940338135, 0.06492681801319122, 0.09615306556224823, -0.10390426218509674, -0.12980714440345764, 0.016936540603637695, -0.015700653195381165, -0.1404327005147934, -0.06116493046283722, -0.16960057616233826, 0.011123910546302795, 0.1117752343416214, -0.04745645821094513, 0.019950509071350098, 0.05029654502868652, -0.0852125734090805, 0.1474570780992508, 0.013705551624298096, 0.10670603811740875], [-0.37238283273248984, -0.03502455112282402, 0.09215192219067048, 0.5246518728186028, 0.45446282557367057, 0.2349610428534481, 0.06968920053169265, -0.18362433796579142, -0.2164143025322273, 0.3592286685520424, 0.18358278173365836, -0.14081379985350384, -0.0066367868844169516, -0.08288628484210758, -0.27456264079246634, -0.43825271885079736, -0.29117248320047634, -0.1452297477398338, 0.28389788000974764, 0.08725452024308414, 0.1337853507486895, 0.04924304811364679, -0.32207399466964554, -0.009709573341239487, -0.4544005179011738, 0.38359103368743463, 1.012435341498659, 0.9889088732790298, 0.986543864979083], [-0.27894375336546695, -0.22031586672681133, 0.014103770258392802, -0.18263384294626883, -0.023048446753226228, -0.1406783349942835, -0.20595907764720112, -0.2125699077384522, -0.11586191190320302, 0.02013933050956618, -0.167077020827029, -0.056638613824899695, -0.03312231430164351, -0.000873512745133938, -0.13759402400295115, -0.1703633637484271, 0.04220998187157209, -0.001340966089541882, -0.04648838427546863, 0.051437713660346183, 0.08111678881806691, 0.02346174758282335, 0.00753156198650677, -0.14928152183720614, 0.09548448758590385, -0.17712607926865037, 0.009711335748904404, -0.24577002416594876, -0.2793724130638242], [-0.13407322764396667, 0.0010058432817459106, 0.004422605037689209, 0.009638413786888123, 0.17620711028575897, -0.15951833128929138, 0.015035122632980347, 0.1843140870332718, -0.008982613682746887, -0.15048794448375702, 0.022887155413627625, -0.1605067104101181, -0.10937032103538513, -0.0996706560254097, 0.15316416323184967, 0.07970769703388214, -0.08424611389636993, 0.09683598577976227, -0.13431057333946228, -0.1374886929988861, 0.0023044943809509277, -0.04756070673465729, 0.09663276374340057, 0.10507436096668243, 0.18138371407985687, -0.05404751002788544, 0.1534828394651413, -0.015787988901138306, -0.11930673569440842], [0.1308256867954366, 0.45018753031562125, -0.22047826813932966, -0.6390951450059141, -0.633397590733893, -0.07523313389143989, -0.09672804092646947, 0.025473417274060096, 0.10622737750939593, 0.27042934843663485, -0.06089350847963418, -0.054753117202901554, 0.31547463878618975, -0.35217938359454865, -0.37719785406191686, -0.07451263927647823, -0.0671136634508467, 0.07579099207493326, 0.21947211124349644, 0.26529036565320746, 0.3808222684285371, 0.7018776531170096, 0.4108085832714899, 0.08083455002028785, 0.527085920227569, -0.17493373688762387, -0.2421478064731506, -0.20455178407191804, -0.08811501918109291], [-0.17125637829303741, -0.029951274394989014, -0.013819471001625061, 0.03873150050640106, -0.1823173612356186, -0.12561029195785522, 0.0981953889131546, 0.14343766868114471, 0.029789507389068604, 0.016279548406600952, 0.1806858330965042, -0.17053090035915375, -0.015034541487693787, 0.17723773419857025, 0.16987423598766327, -0.0429183691740036, 0.010756328701972961, -0.14757946133613586, 0.012694746255874634, 0.07799310982227325, 0.02937150001525879, -0.07137931883335114, -0.17841795086860657, 0.011810719966888428, -0.14710815250873566, 0.04682813584804535, -0.15333639085292816, 0.12077866494655609, -0.16695722937583923], [0.2605631688719284, 0.5038814542740505, 0.2554094867040726, -0.08888864882929508, -0.24412558066635903, 0.03861305808181264, -0.21694001485189215, 0.020332923933304187, 0.22691198641679683, 0.05100187370057904, 0.0023780883444190774, 0.017769709950807493, 0.5117807353243407, 0.10109319314636885, -0.35147114170182475, -0.06700816734312032, -0.3452841942404887, -0.1591115290799059, 0.21321125264270044, 0.016647087946709105, -0.37616350298353424, 0.06450923898885044, 0.058051214226634396, -0.6382202252629362, 0.48061364133743545, -0.5085521868545023, -0.6471372026633395, -0.814722473285899, -0.665488341907963], [-0.17432073527919695, -0.2468634275983386, -0.1840015091054763, 0.011035610162959548, -0.1696115923288147, 0.08333322150935552, -0.003981259535657345, 0.02838423342181535, 0.041323739272658075, -0.1034974437258714, -0.1901375761816681, -0.18940829077696963, -0.1860603584681022, -0.12722456410160882, 0.01887904476108739, -0.17767437903378674, -0.1645768315408919, 0.021196317085035984, -0.07744274571022815, 0.03774336155407744, -0.021670471196703685, -0.06067944229114848, -0.21798773092723234, -0.00899901258565548, -0.04334970647248967, -0.31477819073913027, -0.1620869891374709, -0.04733480236727721, -0.21138687609099283], [0.44439736205421854, 0.015175419099353096, 0.351277331032757, 0.03139020505647788, -0.02439830820722919, -0.16422263010398053, -0.41150562219906606, 0.026438876908043148, 0.04142245514696552, 0.014763038442783082, -0.12355600214513729, 0.029427994055509568, -0.2822032910333902, -0.04775405859903092, 0.2669190843385556, 0.3041069454367226, -0.33477018442714335, 0.3582014501876916, -0.11059658383865136, 0.046287266334691386, 0.2231339112991357, -0.021170643890115925, -0.06277881799461064, -0.4909778058074901, 0.256523136812095, -1.137616588779696, -1.114552345788481, -1.1186498879436242, -1.1196192033602341], [0.37185933989278697, -0.05154136985667389, -0.047005887557295324, -0.29149605556937475, -0.05734765258522686, 0.04345782610528259, -0.11719510282680462, 0.1719079800104239, 0.31389173037795276, 0.3748702061482771, -0.2132569332807268, -0.016831288881967842, 0.19315095905996724, -0.339362479121133, -0.13423017409785268, -0.14211383684249124, 0.008959832167978595, -0.015785212167141835, 0.28318731624050425, 0.20050181011435453, -0.12882434475878246, 0.06453068637659154, 0.17799650340376474, -0.3530762950912288, 0.1351043200530508, -0.8156304030409643, -0.4697987316459171, -0.5226051611883775, -0.6269864546207147], [0.4429774861774649, 0.819754298082397, 0.032639133169314744, -0.10161091180906084, -0.17844768188028204, -0.031115187456889553, 0.014481851241658537, -0.05996899654313891, 0.00805889312191681, 0.07957389401124623, -0.1826485297859175, -0.12251579950934822, 0.26631606501930205, -0.13896321938554282, -0.5072258658531926, -0.10874914978933828, -0.11008918466280435, -0.10389369260115522, -0.02751996480522857, -0.1362466672163054, -0.31047304452310565, -0.015273110675873773, -0.035699596769704446, -0.2549164279214594, 0.7751680149150856, -0.41977689070991714, -0.5662795510355596, -0.5765627467064872, -0.45645083406503956], [-0.17377644777297974, 0.04619044065475464, 0.09645019471645355, -0.028470829129219055, 0.09661011397838593, -0.15697768330574036, -0.07202194631099701, 0.08822636306285858, 0.18084503710269928, 0.13609279692173004, 0.04792781174182892, -0.16292323172092438, -0.04386700689792633, -0.14379146695137024, -0.13589201867580414, -0.06629584729671478, -0.05314438045024872, 0.15485216677188873, -0.16181927919387817, 0.11459682881832123, 0.0706670731306076, -0.1290678083896637, -0.022921115159988403, -0.12232858687639236, 0.03390161693096161, 0.05012662708759308, -0.09745161980390549, 0.1461852639913559, -0.10320492088794708], [-0.18655505634335703, -0.019317505971851046, -0.13568264887943052, -0.03617350037195446, -0.11287659944257966, 0.021618286824463647, 0.02553025878146419, -0.15319558307351294, 0.16135071819145078, 0.02424735720202565, 0.18681715405844457, 0.03152150951876731, -0.06743111040666681, -0.066999746268099, -0.018449256883287732, -0.033540787480098554, 0.05624503336862886, -0.017310523900167435, -0.07972164520360474, 0.08025530869615288, 0.20018239302830218, -0.009279530052005675, 0.07162097427679862, -0.1197311321739709, -0.12178941407161269, -0.18414612114429474, -0.09352781623601913, -0.011197380356754308, 0.014794811113582893], [0.5956922981968403, 0.6294098657414469, 0.10102968435332808, -0.212364550449057, -0.07202050507689603, 0.12275321168068204, -0.12286505727197988, -0.024548151923476185, 0.020545682628845624, 0.2550883710052434, -0.06371297659998937, -0.04966893234905838, 0.49229756627587506, -0.038085195567407706, -0.3041253379445188, 0.27196136735587445, -0.22536891751101876, 0.1198712384009243, 0.09615276044090892, -0.09742869709374885, -0.22173557317310608, 0.1770040404972574, 0.09141707265183842, -0.19428377964682983, 0.4716917170158643, -0.4152617304556187, -0.5492718022403259, -0.6486956466958884, -0.4906245327252965], [-0.3366306971356956, -0.015480379129116824, -0.1726163039645803, 0.03951029645266177, 0.09715783763960183, -0.17855577383076388, 0.082792730506534, -0.08703503627959049, 0.10010305082610373, -0.00806167934064214, 0.012657524625836462, -0.12325889788613946, -0.04142688173605441, -0.09524331464294006, -0.026733452560365384, -0.050118325949415024, -0.2138028528797717, 0.08724614884728456, -0.2267077651244098, 0.07556396201309815, -0.232454491033022, -0.06351145172138416, 0.04079182686945952, -0.259120435939198, -0.2148109400184487, 0.0768898175284179, -0.110629141330719, 0.15117512865740498, -0.06991987261779802], [-0.10120728685211174, -0.07356617146650435, -0.30034309248663016, -0.2705215628573629, -0.19709674535651261, 0.0397343082067432, -0.1963549201686496, -0.17486880592131715, 0.06650069948272076, -0.0010707534146883054, 0.18513838429325952, 0.17340118276826602, 0.04921831520767655, -0.1005603567787984, -0.06179030517676276, -0.15043348150864883, 0.007653945105054927, 0.09611459116231334, -0.1920446585595263, 0.11046952727908489, 0.05657374224039638, 0.016039757796406425, 0.06267424822225388, 0.11705748562549372, 0.04448491181132009, -0.3606436755173239, -0.1386639065901944, -0.056057145783201874, 0.01612365320998546], [-0.1535200110095153, -0.14412478830317232, -0.01760632391992269, -0.037171563566437124, 0.0395699834266015, 0.06752616049423203, 0.04499640904858763, -0.05044839447214097, -0.10818282691294859, -0.035667755703331375, 0.2083240432451017, 0.038462367726567956, -0.024763633952651486, -0.027627244605690594, -0.05681476031596865, 0.11318266573705531, -0.08712646730552455, 0.07037982584869396, 0.1566109700183976, -0.09584720115298709, 0.21277085458609865, -0.13085488496716582, 0.16589320094132015, 0.09066722833104153, -0.047820190903838156, -0.22847073217991148, -0.11349588004408148, -0.14298237052923402, -0.003681517347708971], [0.4030809488890913, 0.7215495419150036, 0.262609528613416, -0.38334727957992737, -0.09134427042384656, -0.011884854171529943, -0.31849436318114727, -0.07195921268445382, -0.08442959783807069, -0.05910470715347231, -0.1745145690795774, 0.08655303460714613, 0.24771351468276537, -0.07773602621666068, -0.13968338096990374, 0.02425840312703821, -0.0735609081687398, -0.08830949633157298, 0.22749206178902107, -0.12311785735492552, -0.2628901508105916, 0.08169006567971088, 0.005718246173723119, -0.3303775013276235, 0.43509186312256626, -0.2485269746284141, -0.8043682649823786, -0.7711435460797351, -0.5994224585199056], [0.47580964191456676, 0.5732487912680911, 0.2664042125693874, -0.07455242582566357, -0.043198754464221986, 0.24667988066030763, 0.029061387874619045, 0.15328649602340136, 0.3677711757762726, 0.2634517979979296, -0.002543200149984758, 0.12533658660177904, 0.7166116528006443, 0.10448152276014458, 0.02433664995202252, 0.4318175841348149, -0.07305847992997479, 0.03740277905723916, 0.14901222413811743, 0.09851944081962093, 0.0500320396309883, 0.07467180576575506, -0.15542790443458623, -0.47031827368113716, 0.47102379658892224, -0.3143395825632042, -0.3769994475307405, -0.29482906895810357, -0.22195649782224178], [-0.11276401579380035, 0.023130521178245544, -0.04125693440437317, 0.16186799108982086, 0.042070209980010986, 0.16577757894992828, 0.03175458312034607, -0.04022631049156189, -0.12531819939613342, 0.04850876331329346, -0.13066960871219635, -0.022597134113311768, -0.004669159650802612, -0.14303535223007202, -0.019101813435554504, -0.09846266359090805, 0.09748189151287079, -0.15129131078720093, 0.1826997548341751, 0.10738466680049896, -0.041749536991119385, 0.03684026002883911, 0.05268998444080353, -0.08668789267539978, 0.15178130567073822, 0.12966836988925934, -0.015647977590560913, 0.09649036824703217, 0.14968915283679962], [0.2830659836037883, -0.7200852341521078, 0.4846818935491106, 0.27205209694545973, -0.2264817191628571, -0.2151754744948664, -0.2510552398430039, -0.23763059514941542, 0.09490653421975515, -0.23966840893651792, 0.11675114755898652, -0.16548262853884435, -0.0914206276063606, 0.3625936603905369, 0.33447315999690996, 0.0638473684582738, -0.031728011281658135, 0.4629672915346184, -0.5347322586733818, -0.09657098219207735, 0.1551973245735971, -0.43820063421765304, -0.05732225570905065, -0.41328104431362, 0.7480329072663111, -1.7069583342982677, -1.5417077648410766, -1.4038333325987302, -1.658578634372278], [-0.1842273473739624, 0.10951896011829376, -0.019792944192886353, -0.17451877892017365, -0.1643684357404709, 0.1834137886762619, -0.07920507341623306, 0.1140427440404892, -0.09403536468744278, -0.16005446016788483, -0.07177465409040451, 0.09983067214488983, -0.11435674875974655, 0.09801124036312103, 0.00550137460231781, 0.14666791260242462, 0.03270202875137329, 0.019074782729148865, -0.007463276386260986, -0.11103030294179916, -0.15178944170475006, 0.12199388444423676, 0.11882312595844269, 0.09540809690952301, 0.15691666305065155, -0.06925801187753677, 0.11072011291980743, -0.10706166923046112, 0.08708278834819794]], "layers.0.bias": [-1.1994502135952516, -0.2678264506592894, -0.6402285726758717, -1.3975247183212356, -0.09582539949898047, -0.4129256891701201, -0.31707270294664963, 0.18567080795764923, 0.9127655778179179, -0.1193789547007421, -0.15624390542507172, -0.2064889549487264, 0.003950431942939758, -0.49881360427164295, -0.36514519911192994, -1.264384293074995, -0.7313910338903792, -0.6625568986450772, 0.11679951846599579, -0.20158467003474442, -0.6187732713132086, -0.053645210602593765, 0.016047739361917595, -0.014109057441190637, -0.6591479573724639, -0.23346784905488913, 0.026249930262565613, -1.7217708937322262, 0.06849749386310577], "layers.2.weight": [[0.0005542686234588646, -0.05928595472458177, -0.19946531636584336, 0.04356876717871292, -0.027532745115943225, -0.23537770602728145, -0.1672632879676828, 0.14955206215381622, -0.0709804818034172, 0.10299853980541229, -0.08521560579538345, -0.11824218233201536, -0.15941831469535828, -0.22835301131826213, -0.1233012020458704, -0.06448036430231287, -0.06576789390541699, -0.23934120692242716, 0.050630226731300354, -0.08596928477306977, -0.11919724891678429, -0.0008947998285293579, -0.2845646174634547, -0.036167652045132656, -0.09564781575918575, -0.044169722025267755, 0.009693071246147156, 0.07132522761821747, -0.11483179777860641], [-0.014206717667152466, -0.13903148728956083, -0.21133559100573673, 0.3101630120000385, -0.030856262389036118, -0.23958983700057282, -0.04007666180879193, -0.027222275733947754, -0.22389849826684882, -0.028286207734982197, -0.1808808445930481, 0.00417272997777969, 0.13632209599018097, -0.2542363797388565, 0.03447786715781164, -0.1348128304835477, -0.057623075287199746, 0.07746883263616604, 0.024989858269691467, 0.15923266739889405, -0.18392099335282508, -0.08782216941132569, 0.08486042857021421, -0.028216178576837544, 0.12396225193015306, -0.0918654460595933, 0.10309813916683197, 0.7386353335698957, -0.11851980537176132], [1.188992173995859, -0.16493688447498706, 0.669123249300568, 0.5607542172976936, 0.07639720095651155, 0.26720670375891475, 0.39959389178564836, 0.09926329553127289, 0.12202768886999273, -0.04414118023486545, 0.034080371260643005, 0.2997783695583335, -0.047091901302337646, 0.2314563694182384, -0.11192461747921685, 1.049703873073903, 0.17595932496995706, 0.41492841282869997, 0.010362252593040466, 0.18998475754799396, 0.3410904238215926, 0.07157595156655155, 0.13421501423387497, -0.004564931847010481, 0.34337925650026674, 0.3772759715222081, -0.14577525854110718, 0.5292496014438864, 0.041460081934928894], [-0.17133532891425526, -0.11113429506337291, -0.05944192259983442, -0.07392448204841258, -0.11687266081571579, -0.23135202423383944, -0.09435901837082147, 0.10839013755321503, 0.10930545628070831, 0.10969321429729462, 0.061605677008628845, -0.06604953110218048, 0.09236259758472443, 0.008676046296790538, -0.030885002493430666, 0.16379142471446786, -0.05307476806808364, -0.1059429819332203, -0.13136142492294312, 0.04650205974933306, -0.0035481070077885905, -0.011093631386756897, 0.1111578494310379, -0.1480543315410614, -0.2911263771715568, -0.21889865814131731, 0.09469212591648102, 0.1104956716299057, -0.04749579727649689], [-0.10121051870651773, -0.03630542913053273, -0.03426421618602856, -0.0006521226401322031, 0.04954202846443226, -0.15404951157483152, -0.2518871053653866, 0.1005847305059433, 0.06751699968301966, 0.0676444504938537, -0.046571776270866394, -0.13942271896920033, -0.020997971296310425, -0.19506813756976582, -0.2604202759071706, -0.035390489587306125, -0.11623154451735548, -0.042811785862278524, -0.07888097316026688, -0.14026334881782532, 0.04642807815371567, 0.01273152232170105, -0.13461554049329802, -0.0649778026576496, -0.06230251006023351, -0.012841080701486329, 0.16346575319766998, 0.026099522900019184, -0.0035919547080993652], [-2.5135411295977597, -0.018259274083809264, 0.13898428824386372, -0.9629756529785624, 0.07724389539854534, -0.072206709640453, 0.15969254885347758, -0.028907909989356995, 0.4616529965427617, 0.084319860425627, -0.07668743282556534, 0.15778765731072011, -0.1344425082206726, -0.13263605685368635, -0.07354360896741531, -3.0394725848391912, -0.16130644242458744, 0.12736077619527775, -0.06382106244564056, 0.1763254783600388, -0.02340071990825583, -0.055725974959998446, -0.18053345576555674, -0.07718527799721306, -0.20682613046876192, 0.16240078814223532, -0.12262734025716782, 0.5097558546281395, 0.10032700002193451], [0.03888863469467412, -0.11275130869383904, -0.2862911577841806, 0.00897698355939175, 0.15103115141391754, -0.016295200411605915, -0.2098940858322495, -0.07109103351831436, 0.1002502292394638, -0.03285960853099823, -0.1623210608959198, -0.12212293295701865, -0.012443184852600098, -0.11785788879664044, -0.12100140416257212, -0.3033311157085206, -0.3035261025580251, -0.21287576536070021, -0.12640827894210815, -0.19517589159076437, -0.28627791344381237, 0.024169474840164185, -0.10629304498434067, -0.1249781996011734, -0.18869379859679802, -0.035407930936636585, 0.13341446220874786, 0.015091925859451294, 0.18016354739665985], [-3.066827116886357, -0.05834891896055606, 0.277903057954535, 0.0428017828655302, 0.03827990289706027, 0.15244794785425567, 0.029611567141161046, 0.05486828088760376, -0.6857552297343192, -0.14963709799404676, -0.033882156014442444, -0.3981620798264995, -0.13012926280498505, -0.017273692710153363, -0.30519110099251573, -1.8308747774991196, 0.6073026401156866, 0.3008785384363112, 0.00979684293270111, 0.03121154010295868, 0.08513666297789488, -0.27202774698550247, 0.0975701209706203, -0.3143326034799392, -0.12405296818268492, -0.25714716161059287, -0.04409867525100708, -0.055548128057168425, 0.02560923993587494], [0.818217230217554, 0.08836580870253422, 0.27093786629665334, 0.46600682101047636, -0.21232361443757508, 0.1731924056394032, 0.32887971880418865, 0.1568319946527481, 0.07118180707246759, 0.04806820422132622, 0.1096256822347641, 0.1672913304014386, -0.13696414232254028, 0.0038217547704257893, -0.2401697918761017, 1.1466793673517148, 0.08699588878457191, 0.14543269869470252, -0.031636759638786316, 0.15934490695674516, 0.3936477196952085, 0.05116760554650496, -0.25440685465743407, 0.0036915693588047502, 0.20710375769485292, 0.3027058123176376, -0.06285738945007324, 0.7757245457047991, 0.017060577869415283], [-0.19645850925022035, -0.05878007105472157, -0.09308115777522057, -0.22051953896115706, 0.0144873708486557, -0.11054987229386527, -0.14771499049555373, 0.04514560103416443, -0.08831743150949478, -0.08019566535949707, -0.04952056705951691, -0.057677287901195085, -0.013189539313316345, -0.2953046289005319, -0.16017941186991405, -0.11350251064401852, -0.22819877620586868, -0.16324544639999122, 0.044031113386154175, 0.023544513279806504, -0.014377519043179864, -0.08277491480112076, -0.131144180893898, 0.08515922725200653, -0.10366000642337649, -0.2092554662035842, 0.087935671210289, -0.163613960146904, 0.07813097536563873], [-0.058800289581640484, 0.1646089106798172, -0.14944324670297165, -0.2280047294987621, 0.1839776188135147, -0.14611432992324377, -0.2884880094672939, -0.06807553768157959, 0.1485944241285324, -0.12396682798862457, 0.04061040282249451, -0.18271404504776, -0.05601659417152405, -0.07222024351358414, -0.0548996776342392, -0.2013256444637082, -0.13492736220359802, -0.048817323682335476, 0.08454100787639618, 0.03215758502483368, -0.05356635053656001, -0.11798956245183945, 0.07575933635234833, 0.04915224015712738, 0.03705381954447129, 0.09443934261798859, 0.18546386063098907, 0.08321164548397064, -0.160708487033844], [0.8155149803847533, -0.09546066046208018, 0.38415568342530726, 0.48640943399703995, -0.01846947303954917, 0.03428041747236213, 0.18521853468623928, 0.07259707152843475, 0.12975695624860858, -0.030096782993408715, -0.120493084192276, -0.12692194097718443, -0.1461729258298874, -0.002075487258896193, -0.16124081942850776, 0.8360890265620142, -0.12197606134008908, 0.06401533352715831, -0.12090599536895752, 0.05791220036978836, 0.2858962225305452, 0.09541066364997289, 0.05405537324592252, -0.09693064390474963, 0.020067476943499758, -0.06842997364539263, 0.09646610915660858, 0.74947056191151, -0.1550145298242569], [0.013672085738070747, -0.09060162305831909, -0.35116990361280503, -0.0585717881866503, -0.3018803233583498, -0.2670627288717087, 0.012194649320247703, -0.1593187004327774, -0.05477950546037298, 0.030004670888045183, 0.14605368673801422, -0.02124836301909063, 0.12811623513698578, -0.2633064907989322, -0.22506673393564824, -0.0032360683885241832, 0.00184773166514108, 0.061962505623386115, 0.06988422572612762, -0.05030599236488342, -0.1277256554734092, -0.14273770153522491, -0.15786819261243493, 0.17046536538084556, -0.1361371674682043, -0.02589431372988648, 0.12384425103664398, 0.25137310587193706, 0.10000549256801605], [-0.20199165829791166, -0.15419816977617742, -0.028999133060371877, 0.24236025692698374, -0.005726473162753865, 0.010328262529904758, -0.024623346726729445, -0.09201634675264359, -0.5072128212875564, 0.052186045364271995, -0.061706751585006714, -0.049947516363133077, 0.10318921506404877, -0.19590487107951682, 0.0011554996566971857, -0.08332974419746766, -0.011965752516205878, -0.029112039240617726, -0.1077105849981308, -0.03758275111739018, -0.13259322178522567, 0.09659839754504607, -0.007430848439720566, -0.022589478515839728, 0.021200179036371117, -0.2336756211501113, 0.16335491836071014, 0.21159884548423052, -0.03668452799320221], [0.8934759944142964, -0.08227312590846128, 0.38575162766196713, 0.6290254405325254, -0.04167784570033139, 0.35887754832057783, 0.43384827236938145, -0.08246535807847977, 0.19568328803058532, 0.1824506552503568, 0.17321060597896576, 0.2564084996607353, 0.1167445033788681, 0.3098429661866375, -0.025306533529974466, 0.9356696103905904, 0.19222150796151954, 0.4574046553451022, 0.1794087439775467, 0.02272713012894863, 0.40474523903850623, 0.0924476522543851, -0.06630448946387191, 0.12800481533582586, 0.16324354414540407, 0.407164495581317, -0.182021826505661, 0.6998427250191491, -0.16533678770065308]], "layers.2.bias": [-0.047301806401124386, -0.3109696431335451, -0.03910436967579489, 0.0015869425940492278, -0.1220131276229913, 0.11994068456454177, -0.013610275340622625, -0.08603117755927306, -0.13921976912360462, 0.016102661502935815, -0.27182536571330734, -0.005511237591962941, -0.31184133350231735, -0.13815752995669775, 0.11630616429522385], "layers.4.weight": [[0.08213009484470073, -0.2035237105985007, -0.17799451927083584, 0.07520430326148377, -0.23503100865745008, 0.09986098637417412, 0.15518935454875976, 0.15512732697548767, 0.04709066590852789, 0.11583743831191194, 0.3252528227657271, -0.047738755779297155, 0.22397128563062, 0.20779312673172207, -0.07496349614260588], [-0.03895199310018079, 0.016071466052746664, 0.16425920146177117, 0.3672982803046414, -0.5049254033771025, 0.29103323857484054, 0.1580505384722066, -0.18812364225971465, -0.16300328336922904, 0.18445092921922263, 0.2605076925841781, 0.0942950620620978, 0.13207172249094187, -0.2805337890219292, -0.1331740666130794], [-0.11157311499118805, -0.0556520215708366, -0.2539786611989881, 0.25547561049461365, -0.037723205775808594, -0.18702657170945328, -0.23448272049427032, 0.0032302853015216083, -0.020660917747078584, -0.05037778615951538, -0.06373833119869232, -0.06225732720421818, -0.11177453018642203, -0.07282618723649235, -0.17548008786084746], [0.16317149996757507, -0.12403270602226257, -0.17171230912208557, 0.09034010767936707, -0.14567172527313232, -0.17946985363960266, 0.20032817125320435, 0.071073979139328, 0.07621261477470398, -0.09885096549987793, -0.0790785402059555, 0.13444960117340088, -0.13041357696056366, 0.05005481839179993, -0.24907803535461426], [0.18783968687057495, -0.874871089865069, -0.8121045105028939, -0.11471864581108093, 0.20896846055984497, -0.7485767599683836, -0.02722957730293274, 0.24018150568008423, -0.4062367706599908, -0.11272303760051727, -0.08411997556686401, -0.5413668393053908, -0.2438451647758484, -0.8810631089277691, -0.40255701426714136], [0.08701622296252283, -0.03909771144390106, -0.33644846465500927, 0.02674954920966571, 0.13498863577842712, 0.003387823000797056, -0.05001445763043347, 0.10924309492111206, -0.2491987184609968, 0.12921642916146317, -0.019914835691452026, -0.10397341680770482, -0.18278881727839635, -0.01439954235848558, -0.2733997448961699], [0.15389469265937805, -0.13746078312397003, -0.24889543652534485, -0.09093566238880157, 0.1330249309539795, 0.2046714723110199, -0.23597323894500732, 0.2516475021839142, -0.250704288482666, 0.19124338030815125, -0.04686631262302399, -0.19308894872665405, -0.20347517728805542, 0.11520332098007202, 0.06122368574142456], [0.013239625758712084, -0.2411569356918335, -0.20867744119702109, 0.09889386193351764, 0.1754988431930542, 0.05966022610664368, -0.2862444476864915, -0.20723311603069305, -0.24492544677002354, -0.006806673252609695, 0.2562430202960968, -0.09288546039274644, -0.04504674673080444, -0.01549020539280039, -0.3715348300538348], [0.16557136178016663, -0.23466777801513672, -0.1763099730014801, -0.1085367202758789, -0.028319910168647766, 0.11211162805557251, 0.24530676007270813, -0.2510094940662384, 0.06486421823501587, -0.22119459509849548, 0.04153522849082947, 0.152118980884552, 0.0886659324169159, -0.14334487915039062, -0.10262535512447357], [0.10805392265319824, 0.10986396670341492, -0.17702922224998474, 0.1986854374408722, -0.11532044410705566, -0.018372833728790283, 0.1275542676448822, 0.20923706889152527, -0.20732739567756653, -0.20541535317897797, 0.12669405341148376, -0.01292756199836731, 0.14503124356269836, -0.063695028424263, 0.0891607403755188], [0.3056623364347704, 0.10902250758379306, 0.3523777220468018, 0.13612095607377578, -0.14213824905488176, 0.14525960045469388, -0.08234353634804925, -0.17786882073514199, 0.20785621987765074, 0.17644103032124597, 0.02955437924613696, 0.1136128293538346, -0.12712123532195072, -0.22142403346798575, 0.05782810124935197], [-0.2580692172050476, -0.17534316289872018, 0.028297166422921197, 0.1984456181526184, -0.12840695871897873, -0.09548695228525302, -0.0754404067993164, 0.005977422256760952, -0.18560654099560717, -0.24525780975818634, 0.0681709590763154, 0.061984276136534004, 0.037531973562390825, -0.01307219371549665, -0.21305218039949855], [0.28645915327839055, 0.16035833542410127, 0.3103834999051012, 0.3365509499807878, -0.23738479164346565, 0.30614057925992166, -0.04811662435531616, -0.45275272413332074, 0.298450396277153, 0.14337041974067688, -0.10849336127917174, -0.035179527049324186, 0.21133616950245038, -0.06551502770364485, 0.4696748524557262], [-0.017446398735046387, -0.2769589214980837, 0.08838718797343699, 0.2497905194759369, -0.02614659070968628, -0.06542118896235025, 0.2525576651096344, 0.005314648151397705, -0.14848977009356, 0.2098226249217987, 0.21224242448806763, -0.09287841517955993, -0.16589874029159546, -0.3141232778566438, -0.23000349759442368], [-0.10245114171502427, -0.25683945394164215, 0.28007259240862503, 0.11729993746963878, -0.13923656031046303, 0.14646038461909383, 0.10029239023197623, -0.11412077583382219, 0.3040796412146446, 0.10993641426235227, 0.18012083752145844, 0.280929373427367, -0.09980137259134242, 0.18099372592945284, 0.49337795633874276]], "layers.4.bias": [0.5488193268236806, 0.2679171135345521, -0.17070032421523684, -0.24092823266983032, -0.6169340671860488, 0.09781375230979479, -0.168477863073349, -0.03448070769757125, -0.10015995800495148, 0.012281835079193115, 0.20033561016448764, -0.3196976911184713, -0.012054260239416947, -0.2384122785986077, 0.31079006474190196], "layers.6.weight": [[-0.14483648879828892, 0.30445113625437215, 0.05876209162153748, 0.07896536588668823, 0.3384741270734956, -0.07939205552228662, -0.11716778576374054, -0.07849816342119866, 0.08454868197441101, -0.042583972215652466, 0.24175792818238237, 0.0131074021084556, 0.30846052822858055, -0.009849873284313172, 0.4008631835835607]], "layers.6.bias": [0.37329588482633885]}