{"layers.0.weight": [[0.42579437583328755, 0.14747449364365212, 0.1866660805266459, -0.16109877050663102, 0.019668868289396922, -0.07011798949383438, -0.22760614824212355, -0.0013331722745146151, -0.04025516438247098, -0.15945917603293794, 0.04813363515993992, -0.1020455687437819, -0.09197276833922657, -0.11185116806832916, -0.09447089866159772, 0.09446400871323342, 0.028240476134720444, -0.010608913207584857, 0.1082193789610763, 0.07460668757987206, -0.07364767961453336, -0.197882230722642, -0.11159644752729114, -0.5135988351327634, -0.059479673670338205, -0.11705653161036919, -0.39260113463937224, -0.8348379814072258, -1.2224730186396975], [0.04253903166354892, 0.10558839097326153, -0.1737443001073026, -0.04935342604188756, -0.3048038578960181, -0.042908846621608855, -0.20991867315062496, 0.20446561171541808, -0.0774254362759706, 0.003098017604986038, 0.1476324993935782, 0.23508089220848208, 0.06027693745069106, 0.11763762638072796, -0.1831756903926115, -0.26812848502728565, 0.059303263063042136, 0.09358081512042442, 0.11601276701159059, 0.22288280768182572, 0.22880990196394999, -0.05291336102310643, 0.01994188932914264, -0.13993607166499003, -0.18712093103133465, -0.08196599697018436, -0.22536888930981167, -0.48301483035699244, -0.40834608941337547], [0.5694929395231149, 0.4314295469553088, 0.38592264727738734, 0.1461686965412825, -0.07946831094424409, 0.08011657158223073, -0.022524665360896055, 0.16645800439008468, 0.1429276713865599, -0.02966487108630261, 0.02500185868105412, 0.19749352458648192, 0.07779866480760904, 0.10345338709251639, -0.15551630436437627, -0.002978037810688453, 0.004042613840631574, -0.2141075541837714, 0.08656673474887092, 0.32960064909707043, 0.18272601260486912, 0.020969133872295494, 0.21176702588534752, 0.017490716947936098, 0.15535670657123216, -0.28686459182739454, -0.5606614246110115, -0.6613098968865235, -0.7879320121157234], [-0.25776755355108877, 0.08226771641479425, 0.3739096819144411, 0.6691766312308011, -0.005445865607025929, -0.04475197695292573, 0.1031077688876226, 0.09419165240512255, -0.0903685855176125, 0.0023383748085200272, -0.1983660455700156, -0.2015884354661578, 0.19922003827081028, 0.5282517784591456, 0.3442032775089288, -0.021134490331631155, -0.06258770722815354, 0.1307425254428879, 0.32410690200238734, -0.023034813296707392, 0.11966568390155011, 0.023216604856398863, 0.26283499106686603, 0.17879741574566016, 0.03936536466502314, 0.7299054926760282, -0.7508671114686423, -0.2433513898165797, -0.28383200156261457], [0.18753552551180927, 0.3093651962251761, -0.02595851784852161, -0.054052112758781225, -0.1155777478041314, 0.08097281078801015, 0.22090749939184193, 0.11636614656986213, -0.0730787163708834, 0.056703118604112465, 0.026791527688998524, -0.17497904549686621, 0.07167102902346209, 0.09983033752552949, -0.03655593080048697, 0.34954741020132457, -0.04180570952381723, -0.12958952069537477, 0.10268223795662004, 0.05964495073662474, 0.15787582099763475, 0.30891755158258194, -0.1427364412472051, -0.016132023206859407, 0.14919927832343116, -1.4232787335305388, -1.390219275604101, -0.4841577265194092, -0.3228740629617707], [0.6672203123254636, 0.5644082552784532, 0.22298543956457015, -0.09071316163705723, -0.11625859418249379, 0.12747406663174865, -0.009234850313696972, -0.0030355145040270623, 0.11394029003099627, -0.10125328368319272, 0.12973861744988668, 0.030557555358372138, 0.008945445952833466, 0.02627224527339404, 0.0029917249016573407, -0.0010822511145698976, 0.03572042703333528, 0.030085579923839558, 0.1338577711214061, 0.20357483637395024, -0.06414227250428768, 0.026873744057579693, 0.21169614368399495, 0.02197933602129613, 0.17695948581039792, -0.6644905977428517, -0.7338748653190704, -0.8586516354866839, -0.7232822875612054], [-0.03246518438359238, 0.12205366741275248, -0.1505054479486152, 0.1345268762653966, 0.030749800068940437, 0.029709495440283628, 0.12091549792857356, 0.1510252044137587, 0.10654228316677042, -0.16505826193381498, -0.04520865603735874, 0.05722081194514671, -0.17875752271853299, -0.14965446098013263, 0.10825940844075937, -0.08021003656397972, 0.05713032354227315, 0.06510862527466196, 0.16291741799186507, -0.03456611993763067, -0.18028802928040838, 0.03452607798426242, -0.1025259024785606, 0.037410884146197115, -0.05579180115811934, -0.19068197615671675, 0.041304371131316193, 0.07596037507237394, -0.11628132963997419], [0.4191691380013073, -0.5011068761969418, -0.35672270091562147, -0.18665532088127454, -0.09751381706614372, -0.002527847011238832, -0.1423088299946235, 0.4293365272819901, 0.1794032088157244, 0.15325575263489885, 0.21472809280045704, -0.14459487611113156, -0.23455608251757268, 0.18727500282255916, -0.15968498316141913, -0.513575908559652, -0.20444674781583339, 0.13881883910149886, 0.2613760416585685, 0.4004506052260991, 0.5683506253507088, 0.27007440962844836, 0.4109769725946127, -0.2706558104952395, -0.42820431431003536, -1.1000958879060758, -1.0333449047785355, -0.9836514037986683, -0.9543151682942665], [0.04547390234593634, -0.1839687068429926, -0.11294203682749106, -0.11050247335398296, 0.07260449490471439, 0.03398205529550266, -0.004144440408697456, 0.13473664684764416, -0.12826700614992942, 0.008273541878510534, 0.22094945699184462, 0.035994314030455325, 0.053027614927630445, -0.10809106052856704, -0.07024690571699903, -0.11083821405835455, 0.15680104495412642, 0.1435870939689558, 0.042793719318684836, 0.25653941362161925, 0.02448185187068835, 0.06609751003257641, 0.06370445105945102, -0.30544609807064343, -0.05878127557651783, -0.2262183483427572, -0.28137018158214877, -0.2417810520597639, -0.2049821866802932], [-0.11502949893474579, 0.16748888790607452, 0.08982010185718536, 0.04099375009536743, -0.020005851984024048, 0.05641591548919678, -0.18468448519706726, -0.17459504306316376, -0.1712377667427063, -0.013678878545761108, -0.0052559226751327515, 0.15708880126476288, -0.1628817915916443, 0.05195818841457367, 0.02755044400691986, 0.17804335057735443, 0.1399974375963211, -0.1710337996482849, -0.1222594752907753, 0.010445356369018555, 0.1736852079629898, 0.07398156821727753, 0.14048902690410614, -0.03163233399391174, -0.10916489362716675, 0.11946059763431549, 0.12189947068691254, 0.0837097316980362, -0.0795833021402359], [0.4685023843112963, 0.4683168597873883, 0.14076763862889258, 0.08222593715331024, 0.17243958007616883, -0.06397989927859953, -0.16645644337222723, -0.0038877697326132254, -0.17903398866432987, -0.1086509731548865, -0.16602358743973508, -0.040530016564730056, -0.15677979975069636, 0.08419912511158958, 0.2278419927743019, 0.16269701093997613, 0.10205841175698145, -0.014403289661171954, 0.0390498129382569, 0.04457123293607902, -0.39453091556112135, -0.509683312233164, -0.07564593924613325, 0.16635446245052962, 0.03259740004737467, -1.2926618370978602, -1.1964713799356108, -1.1213079390299332, -1.080779145296692], [-0.2314034681980377, -0.14652711817638656, 0.1221167566326627, -0.12127532144907985, -0.12145246553229894, 0.009335180886950416, -0.07119537230304862, -0.13783560278099594, -0.16835476457024182, 0.076983113803208, 0.008535808128489975, -0.18624388320592294, -0.08068147486181809, -0.15584389671274335, 0.05418844376763511, 0.014540644057560621, 0.10359321552868189, 0.10858324781112287, -0.044813636356722336, -0.013685745612427075, -0.16116286783061784, -0.18116490117013312, -0.03764860964389698, -0.04753550310992468, 0.06580573960019741, 0.31649369698680296, -0.28864823792316374, -0.3788333060522013, -0.44192599908896113], [0.1510756401346674, 0.3962715978499982, 0.014017890284213897, -0.17286554429494344, -0.04454799327333558, -0.17761099927208862, -0.0006575016755808438, 0.09078871943433413, -0.15587645043139114, -0.03173206378363918, -0.019619235165400727, 0.0754227960581152, 0.05895019093523418, 0.14161190460504858, 0.11915926238031632, -0.07369548852674492, -0.002332758512554321, -0.021133429858515195, -0.05606711047043086, -0.1582489013222261, 0.042399532184299926, 0.025308592893990556, -0.11107895991995045, -0.06963233943849344, 0.30109473314540225, -0.8393810702916812, -0.6872552659582986, -0.5407693990791149, -0.48075086023011526], [-0.3721010944441759, 0.15309884894120285, 0.1004366229776367, -0.024745535767646053, -0.07903370625924394, 0.17269209935503757, 0.06118831190731946, 0.10964305571591282, 0.18404584288179243, 0.04002319173716878, 0.1665550588313772, 0.19811220888121628, 0.04537450190110517, 0.25615317038932833, 0.2746548438165629, 0.17158594659827184, 0.05020895068795633, 0.06539229636647598, 0.18442669950893323, 0.22099144150400912, -0.03001947773551175, -0.10043483558650634, -0.11570493077890463, 0.03189070158069411, -0.01429392775757214, -0.09880292627744852, -0.06925749245812753, -0.3962585469213828, -0.363431428483501], [0.2663700511727842, -0.3791372983996137, -0.3528441352940131, -0.12931572637263214, 0.12526056699201676, 0.3981395804598038, 0.12640258773277963, 0.028591342353790492, -0.33456758203433923, -0.18546235255193397, 0.022701717373183748, -0.06328741901338211, 0.12999397346620467, 0.07654071704037223, 0.06081728241724004, 0.08667391279890144, -0.05208865548661063, -0.0651936339790094, 0.05472044934328732, 0.06423221596618381, -0.43892521321151007, -0.3327521788357186, 0.47768363346008014, 0.31860144834823984, 0.055535492725780324, -0.6545508246041559, -0.6520962989115202, -0.6375425569685805, -0.6854128274099345], [0.17407595556053637, 0.59688018229745, 0.08808654705460707, 0.21738432835678415, 0.20252436706198162, -0.009777278602700994, -0.17997108222948463, 0.07183279984038407, -0.17236274540652144, -0.06445270269334827, -0.3751379110270386, -0.1919164552148271, 0.0266112115932622, 0.011441878438100855, 0.07466865569310777, 0.3451751640587455, -0.06081046316140968, -0.07955453070444453, -0.2097641907269716, -0.27722540532130324, -0.26938741303133207, -0.5997196021526064, -0.35824549142148315, -0.1450272729182559, 0.05515185388376313, -0.8375229537927051, -0.6636595414377834, -0.4744143409067174, -0.3874967230787325], [-0.15514983791230916, -0.029743421642752343, 0.11264427308290964, -0.05406000631500136, 0.04816003891355097, 0.2107498432078884, -0.1474191277923631, 0.14424332059524775, -0.002711197056037478, -0.14539311184181875, -0.11251781469690712, 0.09590493198316463, 0.007955566572429022, -0.11607440373912968, -0.10394857306127994, -0.034309703086845375, -0.04884231752181014, 0.01930605653461655, 0.16288943244200557, 0.08579286301137562, -0.009513429750864161, 0.033748986413260046, 0.031839157797014066, -0.041016050817034036, 0.03697287802283542, 0.16911854353353584, -0.28136814729791176, 0.006364980083897895, -0.0797296009690908], [0.31689043489261004, 0.5780397859886082, 0.5262880014126748, 0.5532768494531345, 0.5625805785932435, 0.28194029905994916, 0.3781678187812135, 0.1080710821003442, -0.1412829448502909, 0.10582702640453026, 0.2834465951157708, 0.32514469768728144, -0.3047376141391713, -0.7214747960431677, -0.4012168251490783, 0.49141886344530805, 0.3367247751776283, -0.016522677575102996, 0.29788915285709494, 0.04392060403913889, -0.4694102529102129, -0.7791554541270996, -0.8437684927659845, -0.8593176729779529, -0.3577132177590766, -0.969379376362696, -0.9106768560812849, -0.8481472649095522, -0.8149173535920414], [0.36663902548307375, 0.3871070186168591, 0.16061751583305756, -0.22071395227404006, -0.021532860765019077, -0.04777906288551368, -0.18201317017983473, -0.08042486938162263, -0.04592169541170597, 0.19289942614167552, 0.07121502841938121, 0.22402329509251476, 0.18445349353044377, -0.12266534674956173, 0.0440713664131853, -0.01134082817041851, -0.15404371838465178, -0.20159745892800376, -0.006874502343997311, -0.040585253301453426, 0.03555536018902291, -0.1924142303990488, 0.08260842280568086, -0.02590448845236248, 0.28110397817499855, -0.702490315965841, -0.8535131210754185, -0.9453909736047006, -0.813071459090408], [-0.23490093558950903, -0.13602611683844862, -0.12867964484455435, 0.04464403966831822, -0.06885841970954855, 0.024831861874940627, -0.016323116215354525, 0.015457661287069146, -0.018462791025984523, 0.06904796244894888, 0.016748732736251947, -0.11159441836803015, -0.01659121440128381, 0.028269036470961725, 0.14768542980076252, -0.14586076012753973, -0.03165555753685266, 0.11336816229081757, 0.08572210278235275, -0.049088576650365985, -0.19088352053529123, 0.07980595466492219, -0.05304203105111267, 0.08683824992667492, 0.029256968916599305, 0.15878602516578805, 0.28173564923698435, 0.6775160637299594, -0.2927758193401052], [0.33762764687132035, -0.40175047958883076, -0.3955753476213597, -0.4462013048179698, -0.2241509668384739, -0.17154774191653868, -0.2954753482929409, -0.16303280908252224, 0.10750079384053644, -0.184020107574899, 0.19125529188890086, -0.11542348637592043, 0.010528914923889531, 0.06330764201856576, 0.14978237580306697, -0.19555510336411772, -0.07957895770833638, -0.009518291688456384, -0.42009888911913806, -0.4969430697092717, -0.15702173718837145, 0.5718382165134008, 1.563228789115702, 0.7598475241645154, 0.24812682032153502, -1.0328680672496966, -0.9730998230161738, -0.9169595310123838, -0.8910840406988338], [0.04085608943769007, 0.10751113336284428, -0.07138489555947841, -0.00406859923887364, 0.01820196775206334, -0.037297737898940614, -0.004183119203593695, -0.15410699307723208, -0.08924637890487658, -0.17207354102118527, 0.06383428436096963, 0.0679618968680158, -0.13695121586091563, 0.00899639811197518, 0.07136211146027788, 0.14570211355368276, 0.09765659175824365, -0.09338437687619322, -0.20614208286458358, 0.14798716261724082, 0.13880023637127614, -0.10676280768809165, 0.10913062652508783, 0.2299724100995511, 0.04784259368385881, -0.358021623891973, -0.3101632648428797, -0.12900733922935825, -0.21433385350088294], [0.30773264265526373, 0.20130020186530687, 0.1184693386378951, -0.02034693281603643, 0.13702989492015766, -0.14553352694374616, -0.241202686186545, 0.16879595107828135, -0.14676016785830526, -0.10231939738630515, 0.002726411224393967, -0.11404066288719752, -0.026220049074271026, 0.027145395908259866, 0.16327699989852806, 0.09675449717530832, -0.10666778766284461, 0.0032926579163616793, 0.1315513801676459, 0.050763440532595974, -0.23489531220873358, -0.3359916871648412, -0.15976052001569652, 0.12104273480657957, 0.19507057878286901, -0.8571451390605769, -0.7825143106077411, -0.7118613259967608, -0.6784922355076517], [-0.41658356785332046, -0.12361330672744983, 0.025213192706168952, -0.11454525914230974, -0.011075872820408067, -0.166262091396957, -0.13248261241028603, -0.08006105398756089, 0.012961578566763925, -0.16213228249308717, -0.13671890699259015, -0.15753946683791717, -0.1365814894264716, -0.17313365491035815, 0.15247853755004048, -0.15256636610377952, 0.10678083842144634, -0.052105983338428766, 0.03198420600812234, -0.11761923981403, -0.16471512939252966, -0.1793252363055513, -0.05718222646251771, 0.14163341431145882, -0.024054809484208354, 0.03417569398880005, -0.0701919385031207, 0.028037544258810575, 0.15003222400131558], [-0.19329932592223673, 0.03865348866170718, -0.1038336020159858, 0.044865740520295384, 0.06526513311139347, -0.06708473283809978, -0.08966475702274528, -0.1360601113228716, -0.18914251212446878, 0.027415186398332, 0.04862408335465059, -0.08176741542027044, -0.05341197626404392, -0.07004856510398988, -0.053261907749112124, -0.07605972988699523, -0.2129201210331162, -0.0006133250494947602, 0.0753306117207949, -0.09601808529092677, 0.08059132875657898, -0.1683703256219938, -0.18433418097326598, 0.0297124729387001, -0.2275862480552655, -0.20348165185619238, -0.08274508206400996, -0.26563521022293085, -0.19246092739446852], [0.4839698134279616, 0.3748837053309257, 0.05637902676852608, -0.2486285574969599, -0.08283576816842597, -0.1653876632482824, -0.23126552181543442, 0.11956771724508072, -0.018939845485698745, 0.09767233415312553, -0.09804700177024495, 0.20719298237991443, 0.2709351920695712, 0.007140675689074147, -0.13485409578920582, 0.24244069703183183, 0.020734307254919905, -0.148962466130587, -0.056340798474029126, 0.032674222645229845, -0.09552819111736686, -0.15227051003711728, 0.13790398908625626, -0.126659969222288, 0.38304091520335676, -0.8167981589869293, -0.7173714833774342, -0.7171505182996879, -0.7389431836311312], [-0.19350464356545138, -0.0808877514594279, -0.11734894001783, -0.058782083148222954, -0.004306454441232051, 0.0022872043867838768, -0.07416205705650156, 0.10312221107838823, 0.09358787493632115, -0.0659259635086343, 0.005665419593661247, 0.043247654155358584, -0.020770570205697052, -0.13665435530027828, -0.03839415109057992, 0.037009487426600846, -0.08785695878550903, -0.11269608441277747, -0.1262809972894826, -0.16908412956596322, -0.10840806388300477, -0.13542210989563583, -0.07700077488669001, 0.021485661295519105, 0.004651735152593594, -0.0983414913848168, 0.06743233145962356, -0.16572178900241852, -0.1662039424613244], [0.47123966016975055, 0.010192052026013993, 0.1805097968792908, -0.00018954435268546358, 0.09202401375402108, -0.15487761181518864, -0.10474800271594378, 0.12879563073837927, 0.14140076660220444, -0.14313337689378006, 0.11447871667505446, -0.084082043604624, -0.23948473673002277, 0.18590716541889374, -0.12420352630333302, 0.03902153873569309, 0.002354299141877558, 0.047392865859206434, -0.011641889889256886, 0.18012430809043084, 0.17071887528197824, -0.23686723804371126, 0.1579925673442152, -0.2210246400574323, -0.13798141702361638, -1.2083180396840076, -1.1352712361375206, -1.0964547833346592, -1.0954503603389696], [0.6579565004905843, 0.460303856907098, 0.3043831999409256, 0.021497912331492123, -0.04273123418318019, 0.067345581041401, -0.24349217889267843, -0.07136735379903322, 0.17080645301935296, -0.13218081738114473, -0.12733775983278575, 0.04775098831943534, 0.06961782762559693, 0.17433558211182876, -0.1519604466807841, 0.015685625415928682, 0.011117765783245555, -0.07106682312387182, 0.08898104877465314, 0.08669305334370783, -0.1497477402752408, -0.053493991605950884, 0.19468127005366584, 0.0973140385062778, 0.19585198582104435, -0.5514880382409426, -0.6076893326413668, -0.6069942733120417, -0.7087035617989147]], "layers.0.bias": [-0.6728910338781999, -0.3178830331363018, -0.5756740139739089, 0.016487370531006424, -0.6672860283827111, -0.6121776833324639, -0.06594885914877618, -1.1304227512669538, -0.25011569744815915, -0.15325669944286346, -1.3227583418304771, -0.10283468086976147, -0.6370409021999911, -0.14339073211537903, -0.6298634236722654, -0.9180411889741753, 0.09116705422835004, -0.8436102391969433, -0.8239149365370542, 0.2696493411227753, -1.180729676943442, -0.3361436004829071, -0.9656282845920171, -0.26620471611777596, -0.1733767852581823, -0.7225418248047588, -0.2862326966874871, -1.2641038411790402, -0.7682773733026563], "layers.2.weight": [[-0.2799210700351185, -0.02634824601246952, 0.06623026970921322, -0.0936749130487442, -0.05891263516539515, -0.22055454734741164, 0.10935260355472565, 0.0679345802704232, -0.12356292640898285, -0.05913099646568298, -0.05479136109352112, -0.1657130867242813, 0.02262634038925171, -0.08709434419870377, -0.2383232307983675, 0.008853316347674703, 0.06391742825508118, -0.25982953874616727, -0.2005514957779898, 0.11086298525333405, 0.08518756926059723, 0.17844374477863312, -0.1184629557854876, 0.056924089789390564, -0.07659196108579636, -0.21907295450371927, -0.08925695717334747, -0.11752898789159918, -0.10899986145836271], [-0.2237619184921585, 0.04132304749038654, 0.005415257576912975, -0.2539494304147607, -0.341983563682675, 0.18679081687851581, -0.2164538318466428, 0.11305985573111907, 0.01956786503886288, -0.060107484459877014, 0.3842066354992355, -0.039693076838747496, 0.09529850634584591, 0.08191536600909023, -0.27954157032150073, -0.0983316093889868, 0.06538778806808006, 0.2992975030584055, -0.09854121933756727, 0.079421309162741, 0.8457426868533178, 0.07997852559578246, 0.14423540405644522, 0.04157335966244818, 0.08470326769506413, 0.15782643619552286, 0.13327787882629827, 0.25809410770364444, 0.343590973670947], [-0.05776317983580506, 0.061734491478132515, -0.0003668945290850603, -0.014033854007720947, -0.21298938648679672, -0.21847627815375736, -0.1280919909477234, -0.2523785328315106, -0.01039150475012634, -0.07512509822845459, -0.27800424726667694, -0.1364733874797821, -0.1130312673517475, -0.018079429864883423, -0.20293760892473447, -0.05151343822960426, -0.16758641600608826, -0.05126279709761254, -0.1191185349606101, 0.013107533922930207, 0.019419625401496887, -0.1137026995420456, -0.16808112968940048, -0.027021244168281555, 0.061655282974243164, 0.013255528245482758, -0.13009068369865417, -0.25442182169180616, -0.26374857132803564], [0.25134378660040374, 0.04604149166510103, 0.4231376848778318, 0.07670163386389964, 0.11881853388901667, 0.5814193094840979, 0.023348558700079333, 0.37768129729898203, 0.09173771374527634, -0.14599663019180298, 0.5992009040417821, 0.13076417219413375, 0.1530053404195654, -0.1342100839848483, 0.0044916116952281445, 0.11684732596890701, -0.1099015697941376, 0.3045619298716451, 0.04417603827542858, -0.05498650097294132, 0.7341216200098782, 0.06840232782175241, 0.33981072612531393, 0.04060763595130576, -0.22307389069271558, 0.3791384782576805, 0.003590295619454821, 0.5618668980760989, 0.6057984291983092], [0.041202714532657794, -0.03649343825009502, 0.1535216889850957, -0.27158666804369, 0.041607099954329575, 0.002732101657829174, -0.14246910985712694, 0.4057089827429605, -0.008342563089310412, -0.00873538851737976, 0.49452912827362766, 0.06071782745925028, 0.0014461687934310147, -0.2361961273818083, -0.6249744819909829, 0.10122040344076519, -0.02967917657749095, 0.04141995044567375, 0.07720487526260512, -0.282811373125919, 0.9674677342300185, -0.0707346928111592, 0.29531008694821587, -0.13766635669540206, -0.008483363028200052, -0.17917499618495292, -0.2457023578226608, 0.4881091664827883, 0.04271138113705121], [-0.07111635744732264, -0.13693273790060484, -0.2568399134785584, -0.023988425731658936, -0.1926776079281527, -0.02540220511037943, -0.04762183085778798, -0.15952445285034023, -0.005309506090046407, -0.015681996941566467, 0.06394300897296402, 0.08782584965229034, -0.05272585357080905, -0.045327831880628826, -0.017880062138063393, -0.2745809959755095, 0.17503775656223297, -0.003447796923230985, -0.09865811629856991, -0.07180693623730362, -0.14777514655192198, -0.1082472483663999, -0.13564921252895545, -0.0659680888056755, -0.00632786750793457, 0.018978857542823784, -0.13539467751979828, 0.03103159749838987, -0.2856775017093953], [0.20074767660091952, -0.1588857934197042, 0.24505287811902027, -0.005368202590161482, 0.19306349675290868, 0.3623687234508094, -0.15200446735715792, 0.2622856611780801, -0.061208912715812455, 0.06902705132961273, 0.33682235805666855, 0.10465953593397823, 0.1336766471811597, -0.02899605133326199, -0.41512222018390327, -0.10983422941613659, -0.1454505563049853, 0.43304220132469556, 0.24934517674008153, -0.11789906879692412, 0.6527037594949889, -0.13748127086079578, 0.49545368141827384, -0.10056393659963112, -0.12302010367992135, 0.28655579060258474, -0.0013360505835286098, 0.31804909366633893, 0.2988652441542779], [-0.03170061953287495, 0.1252575506386583, 0.3832139824746851, -0.21427596977347035, 0.21233832479228149, 0.38652575904439435, 0.14595317525946203, 0.33312487934648055, 0.02838348166483668, -0.13186345994472504, 0.3464744914195662, -0.11188567660526275, -0.1150844858189948, 0.12863930198245266, -0.09468199236170337, -0.018914342765683018, 0.07393087399536807, 0.10177000300546962, 0.18176209283308195, 0.07117999803632401, 0.6929013565516805, 0.05114862367470948, 0.525297857275497, 0.15017984676095592, -0.051393679185680614, 0.259159439839604, 0.11785441488966375, 0.21138484750729636, 0.2648426955238402], [-0.19546964087445667, -0.19121327165077986, -0.02166707950189144, -0.33767255755617537, 0.19622889478415098, 0.02357265390490202, -0.05929771462775663, 0.5120694357991281, -0.009214170906894747, -0.08082370460033417, 0.7635282890642865, 0.017971801400428554, 0.16302882622764323, -0.07141260601770662, 0.25176153833307513, 0.3951264370858392, 0.033991149433108485, 0.0010375690681356212, 0.07582505133560727, -0.04300205510856333, 0.3153887303912281, 0.17367831295559077, 0.8328863464403204, 0.04354838028764714, -0.06885441288630226, 0.059164582590577, -0.19820487946275167, 0.35416753372473525, 0.3079805029421226], [0.03340398801630046, 0.038218550868721585, -0.11931209120615462, -0.06957116697171484, -0.06440812808032477, -0.1274613101030475, -0.008356494220099913, 0.05880805271645302, -0.1851527528381244, 0.16060270369052887, 0.2912756767890881, -0.07927521952861902, 0.0036661250343451514, -0.10420193889269319, 0.0032244559564986713, 0.06486022136962699, 0.011665482224949815, -0.08130579133894246, 0.10765124928667726, -0.08207399616346066, 0.03661156461226391, -0.017778791449297573, 0.051527525440706226, -0.08276623077979196, 0.010251475956481714, -0.14986347699087885, -0.03817259530757739, 0.08747438112422007, 0.09421617208449244], [-0.18138566218779348, -0.08641915023326874, 0.04285505960218383, -0.06797663122415543, -0.264920409141514, -0.21058575263509982, -0.00838392972946167, 0.020349416740974683, 0.10391069948673248, 0.11055518686771393, -0.04510992528080787, -0.12460772328888406, -0.26603139583721397, -0.18206213400986287, -0.29786796852306596, -0.00767444219900607, -0.15662913024425507, -0.1049214250174823, 0.033651589528401436, -0.2329895343828279, -0.1492849594145246, -0.18296081948482026, 0.012725761755632262, 0.01030451364583749, -0.12685751477384502, -0.1494442035640594, -0.08270158750759764, -0.1490601385274037, -0.18474666949776897], [-0.26834577539136695, -0.13922137395834847, -0.05764675015465276, 0.0182369202375412, -0.11654383444215748, -0.18217130187683395, 0.06344866513733725, -0.10567549592287574, -0.10813402800815305, 0.050434187054634094, -0.1642959598545735, 0.0997210294008255, -0.06040642234629157, -0.1404509020175485, -0.2903052882640651, -0.20220013439704818, 0.06637667119503021, 0.0074754828412448866, -0.15326166355710333, -0.08123118494155138, 0.00522106884863933, -0.06698718081361495, 0.0243441120762304, 0.08863990008831024, -0.11966110020875931, -0.1731810283410713, 2.6807188987731934e-05, 0.045649193178489055, -0.17171891240117726], [-0.03662440245859821, -0.1064733324037179, 0.08984474780484714, -0.10253874889587551, -0.05240973417796873, 0.02457276083314681, -0.052606208884621045, 0.42927877205935294, 0.041797279431448876, 0.17545945942401886, 0.3429051660856256, 0.05459199012907376, 0.04790159457368731, -0.12660299588135235, 0.14494120687327397, 0.041215371788895165, -0.0969393993506914, -0.0269588528970076, 0.0895068970107568, 0.016378272720009353, 0.2608921994572059, 0.10158818757203329, 0.39651629115882564, 0.09258848927646765, -0.19673826656582907, -0.23607405936129394, 0.06902176782433278, 0.062151313938528484, 0.2970111018804163], [0.0021118590483912686, -0.14945689769874154, -0.18972093468807438, -0.15141268074512482, -0.027856414370334655, -0.27078743953308243, -0.11475996727414499, 0.0272000579920207, -0.30351853994651423, -0.03209348022937775, -0.11615406211705377, -0.08771763146431719, -0.23594768415717535, 0.019880949057472275, -0.18196874820795167, -0.14661944541616803, -0.1720298897157065, -0.11399846211748901, -0.07759062626531518, 0.03395211986984974, -0.11546708985104205, 0.012370001879713885, 0.022949583649615416, -0.15569632201389633, 0.029318520197015696, 0.020632970409748732, -0.06311078105036722, 0.051496025637991494, -0.26074254120129187], [0.07615421019700747, 0.15140333846993942, 0.2873373788160385, -0.07272234980506732, 0.30756863928709427, -0.01574219229022746, -0.09012210236286892, 0.5387075994849875, -0.33908937010141293, 0.07611380517482758, 0.7036300490834345, -0.05817476749235779, -0.3111085200433821, 0.04317325484560038, -0.9451730934157292, -0.16272294399580198, -0.1717353047685148, 0.2564879157701964, 0.195918276229547, -0.08233230566286426, 1.4557587410339277, -0.074850712072805, 0.25950791389578076, -0.12172833836216032, -0.09799843128002625, -0.11790955195634387, 0.03291935929871351, 0.8758031795201625, -0.023269308153072075]], "layers.2.bias": [-0.08504513780479857, -0.1841979095406189, 0.009569826820144524, -0.21300386706776467, -0.30737124175390823, -0.2932832814212164, -0.16819589393335663, -0.21808569105688413, -0.5867555679112237, -0.20233140156706286, -0.2819369637313167, -0.1942746556197538, -0.5160034523705026, -0.027040595711552352, -0.8751752896510906], "layers.4.weight": [[-0.026509923716193047, 0.25849056554780286, 0.2825925043168966, 0.39309361281381977, -0.20486378181878165, 8.597409242747785e-05, 0.43498958739365967, 0.38153183481300207, 0.11604489795823109, -0.005392302354358512, 0.20234182181785104, 0.22502725311350041, -0.14923550830833196, -0.13369352951889948, 0.11635798156640688], [-0.18712857365608215, -0.25190222715666016, 0.22255781292915344, -0.20267215951307652, 0.08659734940547714, -0.19768630188373873, -0.16777896610842927, -0.2673716283994272, 0.009474882622526342, 0.09079151224048482, -0.30417575669713787, -0.20793474062194334, -0.2351275095285376, 0.006429763774770076, -0.34356960622147376], [0.2431507187888194, 0.14082755094665933, 0.10377016766550366, 0.5669656486244544, -0.18232630162178146, 0.022356281737864976, 0.16568422891156506, 0.27648037742203846, 0.2988686225613263, 0.030527714439516032, -0.10986610429045862, 0.08413179069155959, 0.05782406119088806, 0.007795573178386386, -0.282244640576587], [0.11779755743025956, 0.029352150079906138, -0.1263892431532413, -0.09097821217674701, -0.18701444251765947, -0.11108799278736115, 0.08945839643184013, 0.13028459174459017, -0.12319263710052848, -0.08989150524691925, 0.140057772397995, 0.09123682975769043, -0.07868599240311393, -0.025309113955015658, -0.23682508111763168], [-0.09691037692938326, -0.16609652961172233, 0.014978728123500882, 0.12384064557865322, -0.16378805145011896, 0.21894686364898874, -0.29153406976409824, -0.018019491977285126, 0.07489799691182615, -0.12648569636552492, 0.37574233003935775, 0.1616556531874479, -0.33477785197557874, 0.24255618193375805, 0.18050014058231517], [0.06682785932284493, -0.163829780107277, 0.05323225660619897, -0.10676100526549616, -0.11210921890840932, -0.06113326019791326, -0.1746705367279279, 0.2888449183559343, -0.07726050853761972, 0.10415483993255119, -0.08568309324038544, -0.14889682829380035, 0.26787810257675415, 0.06954557253339329, 0.19866769847968524], [-0.247933030128479, -0.24510711431503296, -0.21087878942489624, -0.046674683690071106, 0.17977091670036316, -0.18272516131401062, -0.20226603746414185, -0.030248329043388367, 0.09191936254501343, 0.14015460014343262, -0.06430388987064362, -0.052051812410354614, 0.14673662185668945, -0.04280899465084076, -0.2286839783191681], [0.13427739912706915, -0.2809018742559569, -0.12637404038062006, -0.03793167261924913, -0.5667329843800125, 0.24427751490539099, -0.020684782602873993, 0.14912741793755324, 0.40981327288308556, 0.19568422607454397, 0.2878848091981679, 0.149671051664396, 0.08952843030505307, -0.10150498729851261, -0.24483527666112695], [0.11095276474952698, 0.11356702230243736, 0.06149560213088989, -0.20735749455096633, -0.13451381027698517, 0.014248847294765407, -0.22681348053414768, 0.06180642015683345, -0.053828346392936315, -0.05817798798493698, 0.13071084075039133, -0.17189331841230246, -0.18301425943974312, 0.08090678939177967, -0.06826331530201059], [0.03482083124096987, 0.03765053168927125, -0.12692998863293906, 0.5469069179428007, -0.22449051558218078, -0.232187882065773, 0.2964283750650963, 0.2186865959916687, 0.0927687355722838, -0.1869045741319119, -0.25642508268356323, 0.1004931628704071, 0.3172280596010701, 0.04672110766008537, -0.25830274651865603], [-0.07284841165422803, 0.020439873089410435, 0.09890067996101427, 0.31258075242988315, -0.24906539031979807, -0.0444054154237456, 0.021762015999448738, 0.08367999593153173, 0.1619539426972389, 0.07712648990263166, 0.25869663703163737, 0.12645962834358215, -0.03049717078841491, -0.009479396179461596, -0.2069422717662025], [0.2372407615184784, 0.1557381868759938, -0.060694560408592224, -0.007189982411988117, -0.24955745645342964, 0.3041085081670356, -0.13814797970860543, 0.019088310329385162, -0.11026655393209125, 0.16157829090139264, -0.012905427804141811, 0.34872199621869787, 0.21878367168264984, 0.21184433168661204, -0.20489558731912627], [0.02324489443570456, -0.30878229644521227, -0.19433981988735832, -0.34492083102511967, -0.0339215220783473, -0.04275764003407565, -0.13840227823645612, 0.02391197604147126, -0.3779006035712901, -0.16326868808286402, -0.035528897242708676, 0.14109405875205994, -0.12658712873917338, -0.36860989321095183, -0.13300720907362826], [-0.08954002844224669, -0.025639794701155412, -0.033924469914355604, 0.07385391181220635, -0.1450545631338366, -0.13505859351957292, -0.17951078299127277, 0.038920112982973536, -0.3205295450965873, 0.01833815090230512, -0.1078806511368972, 0.08351800354734053, -0.3919918689081398, 0.07824115617123244, -0.2976063468965698], [0.04797661304473877, -0.44738454427562957, 0.2458312213420868, -0.11672865674972623, -0.22963818907737732, -0.23548506200313568, -0.42270371405039064, -0.4187522526927244, -0.22342628240585327, 0.0320931077003479, -0.021013453602790833, -0.026199251413345337, -0.4470113950202124, 0.04790371656417847, 0.24814626574516296]], "layers.4.bias": [0.3161292275493327, 0.02447021533612129, 0.2916813600403069, -0.26540811535287206, -0.003507629706571468, 0.11864925555511066, -0.24608586728572845, 0.007124606377620658, -0.1783709805498571, -0.1364538658224215, -0.3294291863667861, -0.0044987147223034575, -0.20383845216716548, -0.32496120956884034, -0.3952941843572788], "layers.6.weight": [[0.3150650171063084, 0.04207576452079023, 0.395548159273615, 0.00378550694044792, 0.021967761565309628, 0.0059810575347699685, 0.2132323980331421, 0.3154937659147425, 0.06268215022714876, 0.3350530243531027, 0.08780377951118515, 0.00018933918303159545, 0.08635571254659996, -0.041662659811479034, 0.023626417145367895]], "layers.6.bias": [0.620507742564893]}