{"layers.0.weight": [[-0.11451126474737514, -0.047403188920569335, 0.15854818265991327, 0.21257332914297347, -0.022161646818939163, 0.03365300532314593, -0.07117155544008703, -0.1409788805365321, -0.17601333830180185, -0.1286882531988784, -0.026329340119726413, -0.21469861799248577, 0.019715613025414313, 0.008299783794807126, 0.023142614171949908, 0.09083643443729605, 0.19308601233399256, 0.05407901441248122, -0.2020655377327543, -0.06203268393566772, -0.16015902941826937, -0.07994851550759283, -0.010474992441909605, 0.061229253804875344, 0.008480440217702164, 0.13531399909422157, -0.3729735146780406, -0.08402197974377289, -0.7754647696029817], [0.521545058430221, 1.188749885857024, 0.05973708659231913, -0.8866456939767073, -0.3895565313976805, -0.18727718994812045, -0.11885677553692846, 0.01967116840916309, 0.11232647902191889, 0.22345887792343216, 0.1449904008536031, -0.25963645863908047, -0.09792817498586863, 0.39608612329022447, -0.21950756691223733, -0.33929896458489334, -0.13028543889400504, 0.11190339158419806, 0.08959231059345013, 0.006977766261208824, 0.22051454222830433, -0.22346575393702173, 0.0007341334033813037, -0.48381713540491583, -0.038821465675998416, -1.2884032761707958, -1.2053466246738789, -1.4797744841761544, -1.4426622178921815], [-0.1678586370637359, -0.019347243734945636, -0.142986040690123, -0.08608573688564833, -0.08697655491405253, 0.09377771247726431, -0.049946165848551896, 0.23718415445567742, -0.09724117671571694, 0.2145924428287729, -0.08654660353353286, -0.029445240783241077, 0.11241648224669964, -0.003795663015302452, -0.059101607252782046, 0.05215120994442483, 0.1372821672269514, 0.19468241643738468, 0.2140766156992969, -0.11520152431966134, 0.09465843682224899, 0.07588756627330659, 0.00636303459720223, -0.07416353500425266, 0.11693102151066394, -0.06353984240822728, -0.14024096727371216, -0.06704725325107574, -0.17379966069440977], [0.47986867968401226, -1.832901951354478, -1.496648651511268, -1.316947452654812, -0.6133760987467897, -0.2702238458060101, -0.3722420161989828, 0.07960976222782065, 0.10787662114408825, 0.05705121669889091, 0.1651528096122741, 0.19615959722252949, 0.4175381576544384, 0.15356421880503976, -0.3997709147555638, -0.43550333454043966, -0.3545890990075191, -0.5336735738308467, -1.2110820490748009, -1.1912840849468411, -0.6821260556601161, 1.8265142947136466, 4.271812136545118, 2.8541084951239664, 0.6609456148491085, -1.2887400265648332, -1.2817271047808232, -1.218945208534124, -1.1934920097946997], [-0.17102419898803697, -0.07772491262533424, 0.16734429929521003, 0.007011774608675661, 0.06364397075205902, -0.0024457890640039747, -0.10769051567002404, 0.18964358034898643, -0.14260830231981564, -0.09353116398967946, 0.06442236419298525, 0.03733366386136392, -0.053767959017204575, 0.15894421759718974, -0.10830653680256669, 0.08570655552512933, -0.08652278271720691, 0.17013574624132777, -0.15858651437961785, 0.08219556285284702, 0.11061715564806511, 0.18479610238130154, -0.1666576938075604, -0.08688182781786673, 0.05270595272935264, -0.21160072901859642, -0.2876974547226897, -0.25776835834816103, -0.2638847035588112], [1.0030919364966786, 1.7168369065336466, 0.3337900320248115, -0.40494212133012336, -0.20357717654768534, -0.12405690062061245, -0.13713041491569627, 0.08388545366086927, -0.013688286903561237, 0.07279106338791254, -0.08295897924911207, 0.23042284210281358, 0.24435449533503745, 0.03220755312147939, -0.0776142361627292, 0.016924803069208905, -0.20134312004643892, -0.11025801287812925, 0.3923580570216863, -0.07420566508564623, -0.1354977583855917, -0.09637400433942635, 0.3292754083562208, -0.5864220178174997, 0.6705112616351883, -1.2366493403871304, -1.3467828744692183, -1.445210531402635, -1.5051288725404381], [-0.22096657247853596, -0.20643636629577608, -0.22111336888684135, 0.009663482701065863, -0.10630227107019867, 0.025983553681574147, 0.04140907289752822, 0.018829110638046185, -0.13143803451853459, 0.13922758711935604, -0.18422701721445528, 0.021356345055891065, 0.12880882416993472, -0.1314972508673287, -0.06901242797234104, 0.06956631338507911, -0.10509799158396778, -0.22383412447373074, 0.0666966649921086, -0.02490359145932267, -0.05885963566200531, 0.11800873757495194, -0.09593989968442836, -0.06374283947780322, -0.13382659320456153, -0.07366712685102474, -0.03550649937500787, -0.20076513181216998, -0.24003419578151852], [-0.01264864206314087, -0.17577554285526276, -0.009934529662132263, 0.001176983118057251, -0.08357280492782593, -0.18431304395198822, 0.13281981647014618, 0.06481648981571198, 0.07741950452327728, 0.1162986010313034, -0.1467169225215912, -0.14119961857795715, 0.05717264115810394, 0.15214501321315765, 0.12139220535755157, 0.0841381698846817, -0.07551618665456772, -0.17346598207950592, 0.029273897409439087, -0.05488777160644531, 0.1740608960390091, 0.00602896511554718, 0.09277807176113129, 0.09738387167453766, -0.13899563252925873, 0.06926964223384857, -0.12540103495121002, 0.06649790704250336, -0.023175552487373352], [-0.09789127423098287, -0.3394767956493527, 0.0009350816911531421, -0.19107750770532708, 0.12394691860941223, 0.06557024381626186, -0.03510915580137765, -0.1474429440805643, 0.0720111039454866, -0.12771340830973665, -0.004439034362223138, 0.1505764536739557, -0.04473613143957079, 0.2098029258485988, 0.051600154030247106, 0.039513240509741664, -0.07629574061272028, -0.1667140411851403, -0.17366202552314505, -0.027605924453085084, -0.014333902621169528, 0.12150622367281903, -0.23801506486012558, -0.11456016333297481, -0.19792434114559487, -0.03417444478709286, -0.09477717504376501, -0.27144441951974807, -0.33191316182234476], [0.21224233409008567, 0.9103903907173774, 0.10132430227743583, -0.01610530447298282, 0.3640566549395841, -0.11988574038014076, -0.2328015054004143, 0.14613126470462215, -0.07892196007608185, 0.2786785073263203, -0.12349293125149567, 0.17271450707786903, 0.5835149932638417, -0.1399243966281097, -0.3267260656932677, 0.2243502472392686, 0.212179405398782, -0.09653963840357077, -0.003381344504957057, 0.11779923628594953, -0.5899957901562836, 0.4478914703417189, 0.3203606921807551, -0.27662797725684707, 0.7383014752979294, -2.38829402989997, -2.3748865805569768, -2.3343003042251937, -0.11163118616321904], [0.9451509033227361, 1.46511747858189, 0.3228436828294321, -0.3592793844328101, -0.02162578972626909, -0.05198711623564232, 0.17294213028883354, 0.03222362504702774, 0.2193631837385583, 0.2540201870856713, 0.0018970502108031438, 0.27094584697790647, 0.27788298243993725, -0.005961876493380137, -0.14658218206260074, 0.2929866709342833, -0.1326275544681624, -0.19879711118879279, 0.2946433871337291, -0.11720070890579175, -0.15750570632634256, 0.32236111374613435, 0.05868813602792564, -0.5698775917619785, 0.3925434014274587, -1.1721471186730874, -1.2568045542797266, -1.3741404869087428, -1.4491968200468284], [0.4600501970015897, 0.017742682244148357, -0.10633009994133641, 0.1334902559619701, 0.1346776057142394, 0.04889886321864257, 0.0398491913421148, 0.017800191780787195, 0.1186260543026525, 0.35176078000750993, -0.08922815063323093, 0.2850128558801851, 0.7979440610548625, -0.7440908932538057, -0.06969466150785988, 0.5752601790328293, 0.2076923732253585, -0.37866438721278434, -0.2966311273534713, -0.3149209839365787, -0.37649959981232944, 0.7963326039154309, 0.7911993539826842, 0.1440926145351328, 0.28272689829854925, -3.28513110532507, -1.3761922445438626, -1.2395974908784733, -0.8854800919785852], [0.3957665341347543, 1.5618946362011947, 0.2852906592416835, -0.8192685310898866, -0.05948345901101309, 0.24699893403319853, 0.1105007400317364, 0.29634646174698814, 0.07900940129145671, -0.3014347435444222, -0.2199645948634772, -0.6547291298267984, -0.32316898485133205, 0.7059648739719244, 0.4600390257147319, 0.8410827068697578, 0.1825718531407337, -0.007996010848669338, 0.09616829684139883, -0.34548293170562977, -0.5075859546136945, -1.3222375660742443, -0.9422791523839955, -1.1505530819671022, -0.07332648006188469, -2.1344535945691403, -1.6183678671767696, -1.226999643074157, -1.0333902628708316], [-0.0796167254447937, 0.09240175783634186, 0.07409374415874481, 0.17050714790821075, 0.1586485654115677, 0.14190061390399933, 0.06549449265003204, -0.14468716084957123, -0.10505848377943039, -0.14838269352912903, 0.004466414451599121, 0.15733538568019867, 0.06568847596645355, -0.07733539491891861, -0.16564840078353882, -0.10040915757417679, 0.0003611147403717041, 0.02112288773059845, 0.1302029937505722, -0.18120084702968597, 0.07484568655490875, -0.01636679470539093, 0.07134951651096344, -0.16204576194286346, 0.009887799620628357, -0.1239495575428009, -0.014068618416786194, -0.09776774793863297, 0.03865236043930054], [-0.09889065474271774, -0.1438157707452774, 0.12694032490253448, -0.16806170344352722, 0.1631985455751419, -0.16473227739334106, -0.04641635715961456, -0.04113416373729706, 0.14029498398303986, -0.11069942265748978, -0.0004249066114425659, -0.1542980968952179, 0.15154476463794708, -0.08488950878381729, 0.0547032505273819, -0.16300246119499207, 0.10524146258831024, -0.08311707526445389, -0.10248273611068726, 0.0804998129606247, 0.1422542780637741, -0.17120030522346497, 0.1453796774148941, -0.11962811648845673, 0.09568189084529877, 0.10000564157962799, 0.1319502741098404, -0.015327870845794678, 0.05692937970161438], [-0.06937836855649948, 0.09569965302944183, -0.15863493084907532, -0.08906432241201401, 0.07879067957401276, 0.03980652987957001, -0.037455782294273376, -0.06670451164245605, -0.11812511086463928, 0.13370652496814728, 0.09933601319789886, -0.15441280603408813, -0.019723430275917053, 0.1015181690454483, -0.03464005887508392, 0.06902705132961273, 0.17085276544094086, -0.008541926741600037, 0.0979151576757431, -0.06354629993438721, -0.03635267913341522, 0.06374898552894592, -0.035216912627220154, 0.12277542054653168, -0.06205093115568161, -0.12875114381313324, 0.06792260706424713, -0.15610051155090332, -0.019378632307052612], [0.8453048639702722, 0.01888753870836891, 0.8033553927586237, 0.9417762457468942, 0.20577764637234117, -0.09184205367264613, -0.4228696080440716, -0.21339288112347704, -0.1558209996162969, -0.20165612357294757, 0.24662075232046696, 0.07230899704065613, -0.5770016126930413, -0.1817414269873193, -0.04494815004590055, 0.060393400663767395, -0.09188900919219899, 0.22663183473730927, 0.3445346393632317, -0.13220938794000237, 0.4189792656354538, -0.8495997535781984, -0.1899419542640275, 0.3476227245025723, -0.2900633966005181, -2.13413404543725, -2.05029439087378, -1.9852310568960754, -1.9453767425077608], [-0.17580831255942048, -0.08233128776367461, 0.08529667980256687, -0.15647033475192398, 0.0018546209666726928, 0.06272454066408113, 0.08333901103178659, 0.19287401784290129, -0.018887102015443216, 0.15256471916886838, 0.004399711504585728, -0.016471223988085912, -0.06057941556875496, 0.15028765929572754, -0.04692379715818791, 0.05787801262779853, -0.06404156606491897, -0.05435477411383187, -0.021859436429544105, 0.012459859214126573, 0.001193572886386121, 0.06659855332458132, -0.1420708030482541, 0.0821172861302185, 0.008741174467990498, -0.10873336999488753, -0.11128833487211512, -0.1788317780835441, -0.13668820298953108], [0.4838205741194464, 1.6403537483199886, 0.3395350319610568, -0.4221259984661369, 0.0011993936147733759, -0.17796482272374292, -0.5161529591320153, -0.19328360496086938, -0.0332225165653462, 0.32729815908176435, -0.30894950728355763, 0.1492122852591833, 0.5507980893161701, -0.9277075360484033, -0.39463280458933886, 0.12378970999885935, -0.20287092436186757, -0.5980245404077573, -0.19356604497312332, 0.0052465965955879115, 0.180277041658347, 1.4766527134215228, 0.5659405729664839, -0.5026333254613127, 0.6815265708265147, -0.6229715760304264, -1.1864963392544925, -1.4044975121547372, -1.523480852862447], [-0.07148391753435135, 0.11306269466876984, 0.1095893532037735, -0.044967442750930786, 0.04845172166824341, -0.023695960640907288, 0.007070362567901611, 0.009353533387184143, -0.09847144782543182, 0.07742218673229218, -0.176407128572464, 0.06909967958927155, -0.11533644795417786, -0.14614078402519226, -0.10308877378702164, 0.18026839196681976, -0.15596744418144226, 0.08737517893314362, 0.1682097166776657, -0.0031042546033859253, 0.03532141447067261, 0.04056599736213684, 0.17118723690509796, 0.08458809554576874, -0.13432088494300842, 0.18064145743846893, -0.08846112340688705, -0.10312449932098389, 0.014255136251449585], [-0.0327918232547461, 0.026222761266288964, 0.07871163952067654, 0.12684025537929097, 0.1209328286055019, 0.21107406438976486, 0.019682820798731723, 0.19197078517111102, -0.1269425698118318, -0.08669666342855031, -0.10210278511480797, 0.17988546367938485, 0.08925387232025063, -0.08102426015989384, -0.04858848671001009, -0.11959713708221814, -0.13040074311389405, 0.08657640018122088, -0.028297845813782106, 0.06991353022315501, -0.19393999765092668, -0.10424391232213887, -0.1420750277185271, -0.064640495799881, -0.008923202319081322, -0.15401644118154786, -0.016182709269141577, 0.08114584137273939, -0.031879475862383794], [0.5877513336341871, 0.34291216679495395, -0.8060108285988522, -1.2906856675032987, 0.7713954109380079, 2.0013955416302203, 2.3004409358804625, 0.9331417514557124, -0.5871075067584305, -0.6065929746408268, -0.15494038799223983, -0.45118810830787354, -0.2554913775274896, -0.32124154048989717, -1.013612860966646, 0.1957350274755253, 0.9482659660496646, 0.20681117780006208, 0.42618551802384563, 0.13351759105980154, -0.5099532213539852, -0.6960633558063181, -0.24911751946614147, -0.5159331207613085, -0.5830929449491631, -1.509008735066708, -1.4511500560885566, -1.4191928763750492, -1.3853657216300794], [-0.15388482809066772, 0.17742837965488434, -0.11361174285411835, -0.04854486882686615, 0.024448201060295105, 0.13232283294200897, 0.12226231396198273, -0.18477092683315277, 0.17342375218868256, -0.009146511554718018, -0.07978937029838562, 0.05909097194671631, -0.05774475634098053, -0.06252562999725342, 0.11162205040454865, -0.08004360646009445, -0.1621444672346115, 0.17275144159793854, 0.15337203443050385, -0.0880826935172081, -0.05313335359096527, 0.15561921894550323, -0.1575450748205185, -0.05890528857707977, -0.17017817497253418, -0.1641099750995636, 0.17572112381458282, 0.03812003135681152, -0.05100788176059723], [0.8864393741483516, 0.1528208334139071, 0.74528336226957, 0.3525987733517513, -0.1863265956608151, -0.26648108097524104, -0.5927139388830962, 0.024234763546627954, 0.06136576919304335, -0.35130685612913864, 0.18622703505666408, 0.03376371621271303, -0.6250456671202651, 0.1590891245246291, 0.3679754894210458, 0.26093448122698754, -0.09728281158781696, 0.12442610100691144, 0.2508634222545459, -0.22755943534466144, 0.15227734057955822, -1.161324054384407, -0.05886504950679172, 0.546614525689682, 0.019203417923776663, -2.322335249399141, -2.265167610105501, -2.1830839292406026, -2.1369880615276733], [0.7462153578893286, 1.517213467833905, 0.3867992508909839, -0.2893465847991673, -0.06885882672225967, 0.10138668299977557, -0.0548477054461857, 0.11823941889600027, 0.2571244242914277, 0.04756209262680017, -0.33057827770184234, -0.043448608540523195, 0.42463418404276215, -0.346576420161428, -0.11474814673115587, -0.011042107899331039, -0.0292905787146546, 0.2609144243505202, 0.4495227243152855, 0.06878016066014814, 0.15781971171594492, 0.08372325976938218, -0.014902664861186153, -0.9578655865977109, 0.05216980738628162, -0.9649694187534221, -1.2894748116405481, -1.5718592858018365, -1.807319495693086], [-0.14449426531791687, -0.022920772433280945, -0.15182414650917053, -0.04625563323497772, 0.04076001048088074, -0.05785951018333435, 0.1789897233247757, -0.1488095074892044, 0.0512780100107193, 0.1319676786661148, 0.15498603880405426, 0.17137162387371063, -0.00581204891204834, -0.0205889493227005, 0.04947347939014435, -0.10359479486942291, -0.030879393219947815, 0.03609365224838257, 0.12106199562549591, 0.11516441404819489, 0.08490912616252899, 0.04931965470314026, -0.15231066942214966, -0.018767401576042175, 0.04518069326877594, -0.01636984944343567, 0.023939132690429688, 0.06551994383335114, -0.1753990650177002], [0.347500936162926, -0.6866079478303565, -1.433488329822466, -2.0808314271174204, -1.1786104242661857, -0.6209588963999013, -0.345539543032428, 0.12159377141174946, -0.0024809531934511706, -0.5580885834304004, -1.1899824145636082, 0.4302534050059295, 1.6476862418426776, 1.3546303416809635, 1.3864818834968624, 1.4845302307474586, 0.4901459338641474, 0.07430272969918086, 0.2378106884786182, -0.6263260531514476, -0.844465695489155, 1.0178232997998613, 1.7319030533260593, 0.3985344916475586, -0.3602011012853375, -0.8497699716016834, -0.7589509898323364, -0.8388225921158553, -0.8354165160935034], [-0.3379565388330341, 0.4578126019808405, 1.1603766509257007, 1.3219092135004435, 0.4002652078074778, -0.5372366299376528, -0.4618998624176276, -0.06374324935311479, -0.01870395047345455, -0.4156365860934303, 0.2943944035338356, -0.8793368646118165, -1.3151737206192367, 1.3096455868310974, 1.4519347324276477, 0.4221398190745749, -0.4397433242425395, 0.021054464865137096, 0.5522304364547853, 0.04434128738786592, 0.2859594841388271, -0.9076378707807113, -0.5140625665627923, 0.21038876879579368, -0.048842763747326726, 1.2041994988758764, 0.9385710191911424, -0.4286028800250036, -0.319641010344399], [0.6610409895620166, -0.7577476318548112, -0.7264788634775889, -0.6513727505180672, -0.2669498458174819, 0.10777832845177217, -0.18520584836501108, 0.29500024358510446, 0.5899626331339731, 0.6499922618570421, 0.22145608990826895, 0.09336894067411183, 0.3292497143592089, 0.16004722164866872, -0.62586632638618, -0.7044443101035215, -1.0406061032430542, -0.8921856457487841, 1.0574353593402464, 1.3656190531982177, 1.0440537343049296, 0.8410458571006516, 1.1385932979023659, -0.680467885010738, -1.2626568040259698, -1.5413468671897739, -1.4464193157354326, -1.3358769453725496, -1.2983211626030684]], "layers.0.bias": [-0.15267612955695078, -1.6180633653391305, -0.2948825149275783, -1.5935972514721153, -0.010897497746529648, -1.4896866708040877, -0.025306056916565733, -0.17679108679294586, -0.34939455705815503, -1.4493143726474091, -1.5489913241325106, -1.3550732739219462, -1.4808661932785403, -0.1469392478466034, 0.01189468801021576, -0.12708771228790283, -2.270327631844844, -0.08372785219729924, -1.1525876514551914, -0.15843097865581512, -0.15031660992142887, -1.543074954872984, 0.1460748165845871, -2.322645559213138, -1.209600692773572, 0.0007999986410140991, -0.7580484114563013, 0.5426453839507895, -1.766145807844053], "layers.2.weight": [[0.13482140004634857, -0.1508435606956482, -0.15943700075149536, 0.1559523195028305, 0.07890842854976654, -0.15108376741409302, -0.027494266629219055, 0.03977271914482117, 0.12353123724460602, -0.12805630266666412, 0.01125355064868927, -0.11261289566755295, 0.035086214542388916, -0.027939006686210632, 0.10672764480113983, -0.12119386345148087, -0.02372094988822937, 0.1694188266992569, 0.07761366665363312, 0.008334100246429443, -0.11426641047000885, -0.010938256978988647, 0.10015608370304108, -0.14922156929969788, 0.0076526254415512085, -0.06893040984869003, -0.10487116873264313, -0.18440288305282593, 0.1031997948884964], [0.009946313772934708, -0.036116698773961786, 0.008570077292987307, 0.5841963536574615, 0.28836835313428155, 0.28187984135731015, -0.08269461586083016, -0.08992793411016464, 0.2501476646277693, -0.14012945639991967, -0.018050583536021705, -0.08672880314434535, -0.26334489411589035, -0.1246304139494896, -0.10725842416286469, 0.13675309717655182, 0.8563764568474366, -0.007376665344051611, -0.39612331029112247, -0.17756293714046478, -0.1140736815125541, 0.33268059694104085, 0.07468636333942413, 1.6894404211082699, -0.4934148896667201, -0.1575036495923996, -0.046897242282333315, 0.2867324317091487, 0.2553411619039573], [-0.07038670364781754, -0.13870809109704849, 0.010777954663009444, 0.1119792687716753, -0.018631423602345952, 0.647595493747979, 0.004040022552989667, -0.0026790350675582886, 0.1411666973722514, 0.378486919841214, 0.6170640485695784, 0.2432491780390259, 0.1773178334066422, 0.02259838581085205, 0.1457163542509079, -0.05717872083187103, 0.3918309575160936, 0.03260284174299489, 0.053167953144088266, -0.02628253400325775, 0.234110865209129, 0.10739015988722499, 0.13271646201610565, 0.08742710244859543, 0.2983858307237655, -0.02931821346282959, -0.016547143848505554, 0.017206881280997698, 0.2559848137537083], [-0.14694905281066895, -0.7555405185898312, -0.019953235983848572, -0.27756490130488565, 0.0018533021211624146, -0.5976605847673114, -0.11585424840450287, -0.17165546119213104, -0.1570349633693695, -0.7691131568632498, -0.4149051685887162, -0.56151888583556, -0.6556597481670792, -0.10332490503787994, 0.027751848101615906, -0.029743611812591553, -0.5303350347929962, 0.1388631910085678, -0.5213685098831693, 0.045988649129867554, 0.16453029215335846, -0.7176865402267705, -0.01875358819961548, -0.40980220714212395, -0.714809389061611, 0.04764772951602936, -0.7125417591288974, -0.5048907084554651, -0.49260427026629267], [-0.04681497691424633, -0.29947535714222573, -0.06782819332057721, -0.21530998711222196, -0.27888707663463047, -0.24628858197263592, -0.10893103481343397, -0.17888204753398895, -0.008928998733274053, -0.07704179656443007, -0.20316514894729082, -0.32679767791523634, -0.32801280913243164, -0.1778312772512436, 0.18544267117977142, -0.10896752774715424, -0.027278329915486618, -0.2101728408702733, -0.01078367397317723, 0.11994878947734833, -0.07747096494729871, 0.004533730070069908, 0.05793854594230652, -0.07717009017517354, -0.1987879330230341, -0.11913499981164932, -0.0824195135450267, -0.2873762207020064, -0.3055341803973404], [0.011158394581141656, 0.023386572226963356, 0.24248553464606262, 0.22461150844378577, 0.015433636026739445, 0.15015127070480352, 0.24616793318320807, -0.0870685949921608, 0.2799523565977477, 0.007113766275045377, 0.17946922237607588, -0.3869103575591738, -0.26685603523325496, -0.03097662329673767, 0.05306459963321686, 0.04226693511009216, 0.3252781810424646, 0.20739959242274603, -0.045917479965337904, -0.14615648984909058, -0.14401109098145004, 0.4077394839005027, -0.00842258334159851, 2.089751226392269, -0.9275291036614859, 0.13389353454113007, -0.02291815204159459, 0.49652598982122587, 0.39088686669586004], [-0.18040385467680692, -0.17326888571032803, 0.038318746115525514, -0.23855615192348936, -0.2841797863316284, -0.01793389759945047, -0.2114064400748353, -0.10237439721822739, -0.12249097175605453, -0.024757725505450908, -0.23139530045572426, -0.022679508439994507, 0.04695125065594963, 0.08392538130283356, 0.1395961493253708, 0.18032513558864594, -0.07285137211830417, -0.08853062776035694, -0.30256247349328697, 0.07955442368984222, -0.1292357459911575, -0.1567417794019644, 0.14055924117565155, -0.30344217189672107, 0.05956957481210698, 0.11319367587566376, -0.11844517880685866, -0.07615202920630217, -0.03534679151612553], [0.04292279414240053, -0.23358333513270418, -0.26346716031158735, -0.2798843001016496, -0.011344973788769095, -0.20193790744147397, -0.040723963300265016, -0.062227778136730194, -0.11887664997048529, -0.12100671976804733, -0.1936548838488384, -0.08694303006160575, -0.04361359706910228, -0.17357175052165985, -0.15020892024040222, 0.023197412490844727, -0.1761930939307152, -0.2716188865068264, -0.052026258669628636, 0.12288378179073334, -0.21242216498369512, 0.007921500838626716, -0.051634326577186584, 0.05269904687134871, -0.12025577321189954, 0.11360438168048859, -0.145933733149947, -0.056570619581489096, -0.02180286185813058], [-0.04788613319396973, -0.8154694611788718, -0.037190139293670654, 0.25445559943012536, 0.10928042232990265, -0.583973051805521, 0.03291742503643036, -0.06451231986284256, 0.028437048196792603, -0.16523408889770508, -0.3559185014798306, -0.8312883365904401, -0.846750313686169, -0.0037986934185028076, 0.12135036289691925, 0.09427101910114288, -0.09822338819503784, -0.02706936001777649, -0.6922832225445942, -0.17702734470367432, -0.2917636464399371, -0.6759114749164804, -0.11234380304813385, -0.15203806972735454, -0.5643613487171513, 0.04183487594127655, -0.8177988382657941, -0.06109708547592163, -0.049538317920507315], [0.16050933565144745, 0.29546004075445814, -0.005599260596149949, -0.1045499448754072, 0.03883187502791271, 0.7885225316190052, 0.0729949333519982, -0.019472673535346985, 0.13552633048504972, -0.12107210199798767, 0.6175135023163432, 0.03839706978037493, 0.21778375605786604, -0.09867873787879944, 0.0041845738887786865, -0.0044614821672439575, 0.11296605520520576, 0.024494346048756107, 0.21112235896139747, -0.0036290735006332397, -0.03340695878967729, 0.0871188754542318, 0.12143494188785553, 0.0667649949827365, 0.3979313473852485, -0.12043382227420807, 0.266460023027866, -0.249588684519951, -0.0841905868791978], [-0.030932909988178624, -0.626884948949061, 0.03711709380149841, -0.22754996733012633, -0.056732743978500366, -0.5122718565428885, -0.09830436110496521, -0.14930826425552368, -0.1533733121941363, -0.7078105237334494, -0.5089583217641992, -0.8149386458203816, -0.8311515190494352, -0.07826036959886551, -0.052862152457237244, -0.0961727648973465, -0.8496821478128674, -0.21916131150173437, -0.8773211370745471, -0.007862016558647156, -0.015284026440379147, -0.7098350764637136, -0.13535574078559875, -0.7957483858810691, -0.7227452976787474, -0.12909160554409027, -0.8635294644676583, -0.6245919591576559, -0.7195949642099403], [-0.15347437665251173, -0.275119970322068, -0.014226508914770071, -0.013913638100676171, -0.021639223563075658, -0.26012180217566816, -0.06138438888036937, 0.14168734848499298, 0.01757966517713067, -0.19421857732431788, -0.2095944870534894, -0.024591950148874536, -0.038350479665802385, -0.055297136306762695, -0.09509493410587311, -0.15517087280750275, -0.1547511390577088, -0.2875504241657672, -0.16264650173254633, 0.08110792934894562, 0.026807062475483586, -0.01839543363833692, 0.16653560101985931, -0.2787110714619986, 0.013136086558406283, 0.09769083559513092, -0.13086087334027144, -0.19645070449444205, -0.04820245371476255], [0.1505874136750671, 0.3696745210521126, 0.22647252953310246, 0.9555581960579389, 0.014459507133090958, 0.11946091055881315, -0.07175224513193709, 0.1646467000246048, 0.04513320107070193, 0.05130326986463257, 0.0651084936303874, -0.167022591825303, 0.1611966203059974, -0.01290827989578247, 0.11778996884822845, -0.10455299913883209, 0.8355250753575064, 0.1987287944455731, -0.558375786552701, 0.14382831752300262, 0.03548741502538764, 0.4039465376471367, 0.16748405992984772, 1.6770931835263403, 0.025435445160883693, 0.14947955310344696, -0.09972028274151823, 0.2038446691864649, 0.469299701497251], [-0.2272563410509126, 0.04415847798012136, -0.11230572127154725, -0.20817386324448758, -0.035194933858797676, -0.21223048297272876, -0.07439974912726696, -0.04404316842556, -0.05771100199690584, 0.05073922872543335, -0.22257681653611747, -0.25718716962937505, -0.21633613009206923, -0.08916416019201279, -0.1022840142250061, -0.11467914283275604, -0.2137062171111427, -0.05580360121159251, -0.1374868351270411, 0.12557025253772736, -0.13642749952252703, -0.23748991112435366, -0.04920613765716553, -0.035247835525420115, -0.2175733987056246, -0.14338475465774536, -0.07266876278610966, -0.24989047046604332, 0.003782203702245233], [-0.023069794183394846, -0.18459009684950337, -0.1467972267633718, -0.2761305617362579, -0.1940697786544864, -0.21397695699632865, -0.19426852544100484, 0.09697200357913971, -0.01562445933407392, -0.26324333875864925, -0.0328024571955525, -0.34848018875888326, -0.11886670489992791, 0.12866158783435822, 0.10881100594997406, 0.03192143142223358, -0.2616698157177387, -0.1433746612292141, -0.1459630718899404, 0.0713471919298172, -0.31867338085061997, -0.19131031178911145, -0.12365910410881042, -0.0427063153918042, -0.010264506598870508, -0.00899195671081543, -0.16884858148633594, -0.015061700943593968, -0.02307466887938414]], "layers.2.bias": [-0.06616439670324326, -0.6420887472741243, -0.5217926273584393, -0.7215698968756631, -0.09779520360942512, -0.7811226963420148, 0.06189988091460647, -0.1628344504811314, -0.5793455728019171, -0.13668588375258, -0.5647868587498392, -0.3137209304651152, -0.5869052013157384, -0.08067123866164853, -0.04385439518703292], "layers.4.weight": [[-0.08676937222480774, -0.27042453699119623, -0.09521809569612066, 0.05256735152759776, -0.04656984554996081, -0.016436597983169057, -0.0077050074011716305, -0.06051047518545944, -0.30502081602152004, -0.07639935917123626, 0.13823976063737414, 0.3133178547098469, 0.2009872136297937, 0.34596232850946107, 0.16573895250535742], [0.21673336625099182, -0.03660824904752789, -0.026930970767210443, -0.1756654977798462, -0.3198065945478451, -0.22979626054464794, -0.038911016571721524, 0.028117366556464757, -0.11147581040859222, -0.309524340555806, -0.017412543296813965, -0.2969028077045542, -0.24566386495165038, -0.06615047144416308, -0.02615847435319369], [-0.11098819971084595, 0.045458514618310186, -0.2844756545084225, -0.16723912954330444, -0.03917789934722871, -0.3574837332868214, -0.17304190225141222, -0.3230934998370447, 0.03989306092262268, -0.32980237324213785, -0.13179433345794678, -0.3051474244948285, -0.11582627050399254, -0.3266700942319456, -0.09587252690470335], [0.1449008584022522, -0.10850889980792999, -0.0960758626461029, 0.019522011280059814, 0.04512646794319153, -0.037350133061409, -0.2112814486026764, -0.0840882807970047, -0.11959002912044525, -0.2013167291879654, 0.06918773055076599, 0.1727106273174286, -0.0005887746810913086, -0.08780045807361603, -0.17124933004379272], [0.09089618921279907, -0.16916275024414062, -0.13147345185279846, -0.213157057762146, 0.12665945291519165, 0.052154719829559326, -0.17222237586975098, -0.05753912031650543, 0.03178203105926514, -0.17496468126773834, -0.03975719213485718, -0.0944492518901825, -0.1875314861536026, -0.16797462105751038, -0.022757306694984436], [-0.13138650357723236, 0.10097645930600302, -0.00043766075551125244, -0.6634189914357135, 0.1189105889770839, 0.1469420724955932, -0.03359900414943695, 0.13801220059394836, -0.3138657160084399, -0.09104643919145969, 0.1656465339819301, 0.08422624683443136, -0.18947200077796492, -0.07859142124652863, 0.30713492666502956], [-0.03132349252700806, -0.7740165680739807, -0.4729481413552859, -0.2542377710342407, 0.08692279454892526, 0.31657036300560876, -0.06639684736728668, -0.09507755935192108, -0.3011557520698246, -0.5551232363132923, 0.283469669732178, 0.06620318816773692, -0.3228741639288681, 0.2267330288887024, 0.21377770836919296], [0.10251638293266296, -0.1632020420164874, 0.006751077473931304, 0.17251169681549072, -0.15032747387886047, 0.11935509806477992, -0.1144612580537796, 0.10348278284072876, -0.16629186272621155, -0.26572480405321086, 0.12670302391052246, -0.08448776602745056, -0.2692134691413097, -0.07629883289337158, -0.20476789772510529], [-0.16030572354793549, -0.276259065997512, 0.18257220928623752, -0.574332484884952, 0.3108696785018001, -0.0754760577272388, 0.11134806735012535, 0.08846047663779835, 0.24678382117630587, -0.19873926541488984, 0.294075616714906, -0.1008624852900253, 0.17844218559476843, -0.08329690617687005, -0.06650353095732836], [0.026010632514953613, 0.2843966223498747, 0.38225422007626964, 0.49484067999161585, 0.08828230345162123, 0.22712139313936336, 0.07961672313103871, 0.22159001893112873, 0.48693955209154727, 0.5338484822814586, 0.6380345470000565, 0.10091718046454895, 0.039557394294647226, -0.03860539421952007, 0.1330495570490382], [-0.13138821721076965, -0.40276359253245686, -0.050889555611893164, 0.027547776699066162, -0.3393617799315564, -0.2446849199273136, -0.3042772521136734, -0.045505658331519185, 0.2524835765361786, -0.25140390764829956, -0.2302665217040289, -0.1280313540770431, -0.04269719375995093, -0.3435023951626196, -0.27918034460934743], [-0.02221694588661194, 0.15381652922743327, 0.36344354546454255, 0.4918975992389017, -0.07919648048252144, 0.09671796479746597, 0.1898861213449601, 0.1367652714252472, 0.0864228390650871, 0.42458133611956017, 0.631700061178428, 0.06490940804097302, 0.29138965618450285, -0.2252529412508011, 0.06090756167032031], [0.1915360987186432, -0.2795734623763639, -0.25766774686507216, 0.10913664102554321, 0.022088470654844032, -0.3817852303556389, -0.2591649263973317, -0.04945818325514961, -0.14083430171012878, -0.31042065622575854, -0.15971069037914276, 0.05872309285849127, 0.012469206961551198, -0.1353435136544461, -0.09500248843095255], [-0.1745903193950653, -0.2270013329745818, -0.20369569838437385, 0.21726542711257935, -0.26964054136660254, 0.025357354829097494, -0.04306351747734992, -0.15060080493735883, -0.14114058017730713, -0.25511307395234617, -0.25133956152777814, -0.03992556499583223, -0.0293575629265127, -0.11949589511334159, 0.08372163492903062], [0.2493201196193695, -0.04816634531358065, -0.2502196794293487, 0.32558738048119706, 0.04499517870938773, -0.2709433623023849, -0.07119100997816767, -0.10983525794426895, 0.4803516026369165, 0.07648869234679778, 0.5517507602674138, 0.030049626631528284, -0.1933245035379957, -0.08153379207703558, -0.05644563481995631]], "layers.4.bias": [-0.0776841799799448, 0.001050483293290209, 0.05979036144196079, -0.1436396837234497, -0.11010584235191345, -0.2741297902772835, -1.0566304139695102, -0.3530243316688285, -0.15493469613933622, 0.7493232404975061, -0.08330831295936389, 0.37422906740307094, -0.015571184779256841, -0.32221177120446226, 0.8119384930014469], "layers.6.weight": [[0.01676131834085737, 0.038419751661887644, 0.03407457894017781, -0.15148429572582245, -0.034870728850364685, -0.012013433563004895, 0.49896791862861234, 0.10271536821117136, -0.006378607012025461, 0.4375603760039492, 0.0825767805308056, 0.3356025144331727, 0.04111455204259089, 0.09180894097520001, -0.1636020903819616]], "layers.6.bias": [1.6492304343845132]}