{"layers.0.weight": [[0.4433226518531759, 0.26922316169949106, 0.2590126642988514, 0.07059167859496056, 0.020266585134391855, -0.12920950549958848, -0.3996719402518238, 0.06695668832416493, -0.11726270002088036, -0.23795789916092422, 0.0504566761408766, -0.14212627970220293, -0.09420024007130946, 0.3142949876686685, 0.2303482108182606, 0.12262768564632423, -0.05922309800567246, -0.008302423580297737, -0.17685900966752097, 0.04597477100767066, 0.00038235043000488597, 0.04762882900266239, 0.3681758211502351, -0.2550346879309346, -0.139283292492575, -1.347065913986389, -0.9125428561222073, -0.9194032945488828, -0.8053435479018451], [0.5373035659763329, 0.5570775270825171, 0.04851028057712495, 0.15660708889778552, -0.05526848279843773, -0.17863276324331, 0.11157503313242037, 0.09151653253867405, -0.2152119811140353, -0.16182620013180635, 0.034118612046581426, 0.006537948522003009, 0.22193135617552753, 0.026540466025734122, 0.04518373539660413, 0.06156891109419571, 0.0415650590193413, -0.2104211030434392, 0.1012393492385552, -0.020643500131846217, 0.008098486558652506, -0.07310264206715232, 0.19527739022166044, -0.10018304738056412, 0.31330648476166634, -0.5023051058700445, -0.5503591812320177, -0.8252319706113013, -0.7318298502302752], [0.36276645299243737, 0.10209567040176067, 0.1509032062479785, 0.25738217335690355, 0.15392344108923342, -0.3055764872038109, -0.3227314716423351, 0.030757171658441655, -0.05498822152014448, 0.0529643697880794, -0.07758063768746777, -0.04800098258097524, 0.01760273181525402, -0.024154566726779864, 0.0003468116846634691, 0.18521802076043184, -0.2857772505873208, 0.1813174051633397, 0.12670272648624523, -0.31469481076353045, -0.006083732766898922, -0.21143335063196153, 0.2762702993989662, -0.12774620951327703, -0.14929325325788353, -0.8764168569728611, -0.9143997729470468, -0.8367989385683057, -1.006488745134134], [0.5280170783932971, 0.41889670698414666, 0.3308345281129202, 0.009755826198646378, 0.262237047340022, 0.010147518743805097, -0.14706960643848607, 0.12565177487587648, 0.07197565911703752, -0.11213366610108308, 0.04628182677468395, 0.15560595460276858, 0.198420664259977, 0.10445089748258775, -0.2473957195649056, 0.04801356137312708, 0.0836239448414955, 0.12312296227034776, 0.08684021330051032, 0.012116903547782767, -0.1697850567129845, -0.09645145685643557, 0.08608706738297663, -0.23653888232914239, 0.3126605387183844, -0.5141887973168018, -0.37432770198665893, -0.5233614569479589, -0.6620551405861734], [0.5723074872436216, 0.6855839959243119, 0.317866553686072, -0.09125961637002131, 0.05679736479940881, 0.03235140697790221, -0.2496711476323588, -0.028653592039344956, 0.09120808794460701, -0.0827911622080986, 0.0764495187629529, 0.05830254134679391, 0.2619217751129829, 0.04118632022098735, -0.24266628523175746, 0.04099831220019238, -0.1477175821497659, 0.010146840674319198, 0.13296380268102054, -0.04880348243221385, -0.017719767050807744, 0.13726515904476796, 0.17234841164713174, -0.0689768136070251, 0.18828026565899586, -0.4390869021694535, -0.5129759133079055, -0.5208725871301925, -0.6776111413736755], [-0.1753288209438324, 0.11961729824542999, -0.1794673055410385, 0.03604504466056824, 0.14480207860469818, -0.09396855533123016, -0.1842447966337204, 0.1470767706632614, 0.10941483080387115, -0.15613225102424622, 0.008096247911453247, 0.09846450388431549, -0.1252501904964447, -0.017375797033309937, 0.11163799464702606, 0.08746342360973358, -0.005147024989128113, -0.005241036415100098, 0.13934443891048431, 0.10626806318759918, -0.18123503029346466, -0.16780206561088562, -0.05027070641517639, -0.10117337852716446, -0.08631159365177155, 0.014927029609680176, 0.023127645254135132, 0.1419985443353653, 0.0892825573682785], [0.19303078282646408, 0.14403121381526268, -0.3859217295036007, -0.2692843881401963, 0.46415132741080295, 0.5437242364503029, 0.8365254315546518, 0.8336914008404904, 0.5193854127162548, 0.2943415569489433, 0.6063719917273026, 0.23042871711979557, -0.37999396761852045, -0.7424816522723172, -1.0342915468029197, -0.380667408025783, 0.40127721107524805, 0.4786012934303754, 1.2003404808969245, 0.7535119722912623, 0.0721834932174541, -0.5120655122419636, -1.1706030139680645, -1.7408968746073776, -0.7184116000702812, -0.38114947588051457, -0.3333971654367496, -0.32191500588851163, -0.3037790387167318], [-0.18468448519706726, -0.17459504306316376, -0.1712377667427063, -0.013678878545761108, -0.0052559226751327515, 0.15708880126476288, -0.1628817915916443, 0.05195818841457367, 0.02755044400691986, 0.17804335057735443, 0.1399974375963211, -0.1710337996482849, -0.1222594752907753, 0.010445356369018555, 0.1736852079629898, 0.07398156821727753, 0.14048902690410614, -0.03163233399391174, -0.10916489362716675, 0.11946059763431549, 0.12189947068691254, 0.0837097316980362, -0.0795833021402359, 0.14987994730472565, 0.16114328801631927, -0.08449158817529678, -0.041421353816986084, 0.14579041302204132, 0.08439166843891144], [0.4543565076592802, 0.42663365022152927, 0.14925079903102, 0.2808941509617123, 0.0822775625165355, 0.04301610099659425, -0.2562317244039866, -0.0314153675452037, -0.10989880652234554, -0.3469722012328842, -0.05584806218918137, -0.19670777911610116, -0.1746535805969373, 0.3097214634794806, 0.13071927048425888, 0.03385132399537269, -0.23512410204297013, 0.18247129035160792, -0.02443573792468847, -0.206874658851019, -0.31952128684863523, -0.17674360273580506, 0.3691584735960892, -0.24755284057125046, -0.05178355865202737, -0.7740003291553029, -1.021411720129898, -1.001849749846816, -1.070889893194632], [-0.05989179015159607, -0.1199747771024704, -0.14924313127994537, 0.09457851946353912, 0.025938794016838074, -0.17209836840629578, -0.06604335457086563, -0.14092320203781128, 0.07113511860370636, 0.038596928119659424, 0.1365767866373062, 0.1460440307855606, -0.00822746753692627, 0.02188071608543396, -0.12612749636173248, -0.15368486940860748, -0.018939435482025146, -0.03948274254798889, 0.08421461284160614, 0.041015639901161194, -0.11403419822454453, 0.013699188828468323, -0.12664511799812317, -0.005214780569076538, 0.18092049658298492, -0.04881775379180908, -0.1710098385810852, -0.04091334342956543, -0.11223344504833221], [0.48534329716930075, 0.5612033563660551, -0.017573673635334314, 0.007442624045179745, 0.07248284056553798, 0.1052932420632779, 0.040375744044498965, 0.24751906615336236, 0.09411145758461453, -0.06466712469097495, 0.04806153407232315, -0.026608894146190512, 0.05313060516365168, -0.16016400875797573, -0.08211843823797257, 0.1057852867363492, -0.04686761693417349, 0.013643402418202473, 0.3701128757394672, 0.0483037284037417, -0.11124905517994148, 0.0192603254102196, 0.42789197682390473, -0.15218804655463464, 0.44149479964251964, -0.4535774622372927, -0.6601897832675943, -0.7322259611962824, -0.5929419160885684], [0.25144384403541764, 0.18404617860431188, -0.038509856397037766, -0.2516438386451286, 0.12070209694967214, 0.20739797153495404, 0.1708336845843674, 0.526739135991381, 0.41000846311668254, 0.3974192626272377, 0.06746038007653628, 0.05902183262312604, 0.374012229012877, -0.01915071869505864, -0.39029442426440614, -0.1528906609026786, 0.023483539615801654, 0.04785251263482014, 0.1657933416876986, 0.26572191185013166, 0.02767201943359193, -0.01358623005444969, -0.2682321547043101, -0.4816616604678735, -0.1125197925424991, -0.272904820094084, -0.33314149477973604, -0.3751367210894091, -0.5471603055327205], [0.19342287249748502, 0.3360342531981269, -0.08753737408449894, -0.4147369114714838, -0.03830015502977881, -0.04713224300783537, 0.16172100456092026, 0.35627064289643245, 0.316257573856719, 0.24070633773863945, -0.06908871283680441, 0.22416519153709308, 0.43910912593084434, -0.26469079560436676, -0.5493820002301617, -0.26778318186304056, 0.1507243915222544, 0.06676400194931471, 0.19768810750367438, 0.20586919768356027, 0.16553530723207477, 0.03730090696158815, -0.28100895936992704, -0.29605402412844317, 0.3270469714258913, 0.0748083719667016, 0.029450249451846454, -0.43905829875295, -0.6138958970298554], [-0.4090601961016168, -0.047052209160632935, -0.3100043830459726, -0.10289041688776375, -0.2399903034552087, 0.09549330510362278, 0.28212182629632326, -0.08987158104750709, -0.0009006540055373376, 0.22020315194350912, -0.15914533073980858, 0.12933494394868694, 0.13954837427392527, -0.2597189329005899, -0.000441576498839286, -0.027470815520428574, 0.16806293783582352, 0.030710087722605677, -0.28490556191665073, 0.12669467272806645, 0.04635567818989904, 0.14519874163837418, -0.09232990004273295, -0.03955635220881979, 0.03240124594088321, 1.3027551573010585, -0.09935808480033527, 1.0695767526659181, 1.059626408198032], [-0.18168067932128906, 0.11102093756198883, -0.03505958616733551, -0.1773679256439209, -0.1444617360830307, 0.06416070461273193, -0.023716405034065247, -0.14779263734817505, -0.13563157618045807, -0.0662042647600174, -0.08120394498109818, -0.013614639639854431, 0.12910567224025726, 0.05078713595867157, -0.0460648387670517, -0.004217490553855896, -0.00836847722530365, -0.08273548632860184, -0.005293101072311401, 0.13233186304569244, -0.1764335036277771, 0.03907310962677002, -0.038675352931022644, 0.08141817152500153, 0.05364358425140381, -0.08929666876792908, -0.04411536455154419, 0.1292671412229538, -0.10629552602767944], [0.42702623429903386, 0.3308101936056033, 0.18811613678917896, 0.1461626802318258, 0.058025825373123036, -0.11723002110002623, -0.43312786230845157, -0.211813806663642, -0.3410697542004298, -0.06708021925850104, 0.005194594051674399, -0.27544823645089966, 0.10442091677124313, 0.2588573139256214, 0.22108448467844513, -0.05339575089072572, -0.3026102834878164, -0.24314509826051123, -0.08605442545901623, 0.009807126522758296, -0.19881775245778796, 0.05980606641390485, 0.2962242404338623, 0.050664601533056235, 0.20016329752141268, -0.7482754332075653, -0.8641220879665303, -0.6663406520552576, -0.8127103774357755], [-0.0631115287862971, -0.07298376255171618, -0.030373611683444275, 0.19100311864146774, 0.05864996917318194, 0.17015263366320726, 0.07176362635985861, -0.09974005393190685, 0.15791939239133257, -0.060431745554330875, -0.1278885713356576, -0.09807776562786755, -0.0511074916602439, -0.16864226707006086, -0.04250492001748499, -0.11967281056506011, 0.11112372006559236, 0.1784899003350692, 0.07261802313620418, -0.01668543305611717, 0.145630117487772, -0.17118197819272035, 0.046373246849519906, -0.002314090569010969, 0.07359638588240734, -0.060469542281711294, 0.08240659053803188, -0.0035908943506864914, -0.01136722027030608], [-0.492555969811254, -0.26510794325065273, -0.37979908668265355, -0.21182860550635038, 0.05885115346399963, 0.07867886000344806, 0.37454985079927927, 0.1555474154719607, -0.03085415853532658, 0.05781045061188339, -0.2002892348308823, 0.06007637817408888, 0.4938691693632153, -0.16947612916005333, -0.4404946164319587, 0.12647044448504624, 0.026000170150917167, -0.247049558388228, 0.047582986213771196, 0.16228538004110812, -0.13305666581248413, 0.4352196644102926, -0.14865225259135836, -0.12241413864562711, -0.22706532770428325, 1.5043371597531525, 1.5612031174767087, -0.5397969369439328, -0.49302686052479294], [-0.24224689163555493, 0.24866219991450683, -0.017409247516458656, -0.5232464236941784, -0.17614728010033104, -0.36889094269366896, -0.08239876269712162, 0.002794156401556172, 0.3612188697452089, 0.16546447526162425, -0.07664360072594095, -0.01049472335540082, 0.07664851664850862, -0.03143740372537662, -0.05394015958399158, -0.006294799192761493, 0.26321014103845264, -0.11513934961818525, -0.09986046913534621, 0.19787617399688573, 0.41129824067989496, -0.06367896077635503, -0.3990283281339559, -0.28350041594031233, 0.11312081411837498, -0.16869148851512153, 0.7503646275934137, 0.840434798753691, -0.1964794717063248], [0.22702591687706697, -0.41365891705901653, -0.5397176907203618, -0.5534572981548767, 0.002411005396436178, 0.03595194433870208, -0.11573279598449879, 0.2350002567226262, 0.24079775265209166, 0.22164125547984526, 0.18839651466771865, -0.13851075245417008, -0.3536118184456666, -0.11975751620823924, -0.051552680159161014, -0.1949679121954607, 0.0049576908347862625, 0.15157660855633484, -0.20821551428169657, -0.2908500380550493, -0.16823995839981296, 0.19157351343713866, 0.4802414952926434, 0.4069445503451551, 0.16378261303494748, -0.44923938277010195, -0.5202820523965699, -0.5488019938428919, -0.6734926350569373], [-0.37949946202907114, 0.16643713119186024, -0.13177786481711543, 0.00041702450790882583, 0.167095386245708, 0.0809521806450898, 0.059218855258937664, -0.0036629438527931266, 0.21580350457162076, 0.07191579628972139, 0.011463240690890037, 0.16243639204886073, 0.08043170701658668, 0.08663111379951935, 0.11069619672254312, 0.12042960207757139, -0.08057380336441008, 0.161653716547007, -0.022777090319262592, 0.06321416395699446, 0.13567857910637637, 0.21534465631415425, 0.14703383630943206, -0.126697674657159, -0.0641935906846281, -0.08340800058768141, -0.22596938720481016, -0.20477222344359544, -0.27752960317737985], [-0.29911457078292136, -0.09664233968892882, -0.0006512424833366587, -0.17356153607407782, -0.1465147177494668, -0.16615877770171947, -0.14443225412619626, -0.1805952382822804, 0.1451314404958615, -0.15792047292615283, 0.10235906329922934, -0.056493327785442055, 0.02672229154762907, -0.12500353355080104, -0.17250933252712922, -0.18757082209379045, -0.06621917488114543, 0.13137780864291654, -0.03602753759317403, 0.002414302963191464, 0.028882995136000917, 0.1139963489976965, -0.0034731169037472203, -0.06160173241670958, 0.051398695004372344, -0.057549938559532166, -0.02382035158726118, 0.006229058858725154, -0.022835463285446167], [-0.15731572612436445, -0.03308225449817849, -0.08298898903802011, 0.13505581384562465, 0.1583418561117385, 0.029458693236284538, 0.059488479902176775, 0.04427959654412336, 0.06131469851680674, 0.038808628695097734, -0.09873017983648938, 0.11342589056818032, 0.18930002621551692, 0.017225572044489754, 0.1942192337916561, -0.05520593538473987, -0.07151981194660446, 0.14151615243740978, -0.11716012979256847, 0.028912466038710793, 0.06230556739574408, -0.06323005116041935, -0.027330733975133928, 0.18874849597217247, -0.02594774017547533, -0.12018738423046328, -0.2125019824839627, -0.2270576311640543, -0.3378886374206757], [-0.13720127940177917, 0.07058613002300262, 0.0021487772464752197, 0.0832924097776413, -0.13762588798999786, 0.12258841097354889, 0.09942050278186798, -0.04795229434967041, -0.05953988432884216, 0.14973272383213043, 0.049138620495796204, 0.03128159046173096, -0.004623517394065857, -0.015228703618049622, -0.050394654273986816, 0.018920674920082092, 0.18546120822429657, 0.11576159298419952, 0.18090225756168365, -0.1152523085474968, -0.1256079375743866, 0.13926000893115997, -0.03845399618148804, -0.05072663724422455, -0.059539660811424255, -0.09621915966272354, -0.03781557083129883, 0.016517117619514465, 0.02297903597354889], [-0.22030899479211713, 0.061020064929120266, 0.05841807878540545, -0.09355606877123301, -0.00969456228547953, 0.034471215122916024, -0.021918382237181854, -0.12963731714312107, -0.027754189335516818, 0.05710809840083064, -0.0632541316273933, -0.0839873233030892, -0.09235064252316974, -0.1330451809599757, -0.07058626397735651, -0.09952012905960443, -0.04415492605721334, 0.04963273338687818, 0.027202730036749116, 5.303444106199007e-05, 0.13581888272230344, -0.18574637296560692, -0.09445811485789668, 0.11140966452995943, -0.01399559857644636, -0.027606513344221248, -0.15283693305459506, -0.0030055761926760503, -0.13677623344420642], [0.19913359350219537, -0.597073982760649, -0.5991651391534887, -0.5342263796923507, -0.2589129801848902, -0.48830609206413905, -0.5385132006497364, 0.09325671633374667, -0.02491650536479493, 0.13971894643930113, 0.0072230517867083645, -0.1282220600369491, 0.0037303926469651003, 0.4968191132886205, 0.41230072698849124, 0.24713729661085912, 0.08214227455573062, -0.04681270625044733, 0.2530693728085645, 0.178898059392691, 0.09211893645765133, 0.41348271114759266, 0.8451745642402763, 0.3220448114711957, -0.2798760038049019, -0.3404384150344601, -0.5468723360666188, -0.5618631732155355, -0.5696359401674501], [-0.14927726984024048, -0.13070914149284363, 0.17046569287776947, -0.1614610105752945, -0.18377217650413513, -0.05694219470024109, -0.11391182243824005, 0.10798005759716034, -0.09096634387969971, -0.09569357335567474, 0.024091780185699463, 0.09039540588855743, 0.1056126207113266, -0.00041669607162475586, -0.1658741980791092, 0.006895199418067932, 0.04497213661670685, 0.15384165942668915, -0.1560259461402893, 0.0251140296459198, -0.02572271227836609, 0.09438596665859222, -0.13993817567825317, 0.048055946826934814, -0.0005697906017303467, 0.09172593057155609, -0.027333557605743408, 0.13748691976070404, 0.06320178508758545], [-0.2367332115617387, 0.16497823415731006, 0.5196442215243168, 0.443923085635415, 0.18858595026790392, 0.22661391323317023, 0.020516201235622658, 0.10314625311090518, 0.10655517479756399, -0.23804400228832573, 0.10333306539965943, 0.029541220576466427, -0.07349957924126317, 0.4844599324721341, 0.4544992881434618, 0.11826791291275336, 0.006890465522618887, 0.1897190879173519, 0.14552650510961923, 0.16551627078496992, 0.23864173335106587, 0.250696400434682, 0.21833689970049786, 0.2391938305075849, 0.2603382444519711, 0.7197287402803662, 0.2854313791531699, -0.934247466011236, -1.2331720087318077], [0.511954115451323, 0.5046407309525441, 0.08615017870846103, -0.06335952945898109, -0.06402758624031576, -0.3409321111337728, -0.1953721655545357, -0.04484018448071912, -0.1847894246845049, 0.04546385516448071, 0.07777315097062487, -0.19429693671427833, -0.096621764412266, 0.20668657865963505, 0.11404102891250152, 0.20906429167173732, -0.14228977285032332, -0.04432003768948109, -0.006790376958069221, -0.12451397385797867, -0.18386107123033646, 0.07452796712021834, 0.4823306948449727, -0.20739771764178364, 0.37991284512946505, -0.9076872089303432, -0.9412383640773687, -0.8001652107566662, -0.6180562104415664]], "layers.0.bias": [-1.1644440707226271, -0.7318934006324281, -0.8360160973691081, -0.6248098512136159, -0.5553356364986567, -0.03809000551700592, -0.33524813121788866, 0.12771724164485931, -0.9886905211412901, 0.05062653124332428, -0.44681241990236575, -0.29026106618897923, -0.3602939451570137, 1.1897451339246665, 0.1267954558134079, -0.721053797093577, -0.18165840499739805, 1.1648648855712918, 0.6252147406994076, -0.38180269078250184, -0.07864414741805396, -0.14670358195251199, 0.04263693996369408, 0.053405582904815674, 0.005527275744613736, -0.40487069774749695, -0.014033854007720947, -0.17526432681977766, -0.8896576125827986], "layers.2.weight": [[-0.21098120592874373, -0.11510617317469818, 0.10950171636527965, -0.05102174515037372, -0.15485429038943666, -0.1364733874797821, -0.03206982952722972, -0.018079429864883423, -0.12018404182244612, 0.05966170132160187, -0.1520472343585963, 0.07531468252294095, 0.006190900551479286, 0.0873842834167675, 0.019419625401496887, -0.1070736478702239, -0.18194106283771416, -0.1610009926731648, 0.06480112491249966, 0.14547053845534727, -0.025766894769010812, -0.029099632391720205, -0.0726944857449356, 0.11492876708507538, 0.17435150926797696, 0.08560283481848259, 0.101507768034935, -0.0749093734098619, 0.16775882939524342], [0.8285512019451181, 0.10478686993886759, 0.161800457201808, -0.09123690275391869, 0.07717013393215298, 0.13445769250392914, 0.6022941532925082, -0.11424282938241959, 0.580658579002809, -0.0012796968221664429, -0.04938461222886915, -0.19841353622525634, -0.21260903017920377, -0.656732233304078, -0.013225674629211426, 0.35472182102640815, -0.2426542873754184, -0.7631153241896342, -0.2261579641211086, 0.06300465900393415, -0.08467181156856494, -0.047227729332763715, 0.029716844672134476, -0.05058440566062927, -0.052592200890519074, 0.08600060059752518, -0.10235892981290817, 0.1766281633413578, 0.5774310812654315], [0.15046761160117608, 0.16035327625118387, 0.566381518405055, 0.042586995386439536, -0.10236703453783663, 0.06349080801010132, -0.022579993929960327, -0.15156829357147217, -0.819854811298188, -0.08187209069728851, 0.2522141804374619, 0.12078504765979842, -0.462519082596071, -1.4971556495988574, 0.12182225286960602, -0.3001794304850978, -0.03640456761757884, -0.46918152873436597, -0.35095457332400315, 0.4782673414842735, -0.1798630748843545, 0.06276259346871572, -0.06388387251578728, 0.0489935576915741, -0.0269496423605205, 0.07399682691181798, -0.023988425731658936, -0.02962810528108838, 0.2812508548730561], [0.3414080429888592, 0.3405475309737684, 0.22621732372863076, 0.3283762961978139, 0.5557037533057889, 0.08782584965229034, 0.21609494352261202, 0.07478038966655731, 0.36934553395124237, -0.15447120368480682, 0.47443303848935886, 0.2692270844978676, 0.19808925892194554, 0.057516625473696716, -0.027666181325912476, 0.23449139904933822, -0.06422591122921116, 0.16441115075631832, 0.14397718434872533, 0.2608312064767585, -0.15974095295819232, 0.1947876346897682, -0.004415948313653282, 0.1682233065366745, 0.06830462106977105, 0.2639727029430487, 0.10101224482059479, 0.1810636645656918, 0.417748002522455], [-0.18760969458115123, -0.07923591867214984, 0.11045633998873981, 0.08493812991904812, -0.1634917016889711, 0.10851483047008514, 0.04695574892573261, 0.003938809037208557, -0.2038319630121277, -0.1785421520471573, -0.06715269083389487, 0.15846887843029708, 0.16749414443286031, -0.1830953189840988, -0.027177542448043823, -0.1558751837471436, 0.05517342744711563, -0.1262008632310325, -0.054516943330562395, 0.15826219500219413, 0.25390269317334635, 0.013405364571755932, 0.050204082474235176, -0.08449918031692505, 0.3104483980396408, 0.1415193214397311, -0.09009549021720886, -0.30369626158152485, 0.11796406222515221], [-0.01330438356855267, -0.1313230627946847, -0.0439600174363309, -0.26811393431299196, -0.2148657485088584, -0.10793241858482361, -0.35196508376255237, 0.16868223249912262, -0.021432709268264946, -0.12536633014678955, -0.005766403595304116, -0.2437407531690572, -0.014920979861202369, -0.015611197236251905, 0.11563591659069061, -0.13282430539992854, -0.04497711271737223, -0.12329568705816066, -0.14110470865253233, 0.01950401489693252, 0.14652858674526215, -0.25178638748395404, -0.17649298748407408, -0.005055293440818787, -0.18497550837617288, -0.15078637344962695, 0.09341548383235931, -0.2369748735364608, -0.21738028398897474], [-0.16257772901006315, -0.3270006396427346, -0.021751568587987692, -0.26568930675507196, -0.013147380951613823, -0.004498153924942017, -0.008749642983130497, -0.03593382239341736, -0.2923340363576567, 0.10010935366153717, -0.0458140750941583, -0.33870256937226, -0.1867113085245723, -0.14488836877978156, -0.11408829689025879, 0.0011440360845170502, -0.08377892401007961, -0.1896230012946679, -0.16046399217762053, -0.1299980014216705, -0.17139309644699097, 0.04186159372329712, 0.02425227084460909, 0.12398286163806915, 0.016850490592801835, -0.24353429231569934, 0.0370110422372818, -0.1539102239352115, -0.30471501572124604], [-0.2594541388039171, -0.0062596662485258775, -0.2177211969197694, 0.19110375642513802, 0.2250544245723952, 0.05980125069618225, -0.09346288236187025, 0.07291464507579803, -0.043289308761259984, 0.11524669826030731, 0.018558518997207386, -0.193625739323401, 0.22165360202141532, 0.5074269480283532, 0.044690027832984924, 0.019065638526036106, 0.0038519694658027993, 0.22678874734866247, 0.33192942907870127, -0.5580012895193135, 0.08704357067325863, 0.019378578040963868, 0.11259850540517856, -0.061275728046894073, -0.18873217100732814, 0.1234131301732053, -0.06797663122415543, -0.23351552344370066, -0.13482470281423672], [0.05235465060860866, 0.3881464663230896, 0.15665187516883314, 0.3282637477343674, 0.3089049417530704, -0.004503518342971802, -0.016866527108562006, -0.06215275824069977, 0.02539954981978815, 0.11243529617786407, 0.009044258115162318, 0.039663483249896, 0.208271057705155, -0.07071701477989507, -0.029177427291870117, 0.046475200477688175, 0.08010815056691996, 0.3260138732686818, 0.07627865689333556, -0.06916353593954701, 0.012006992911596768, 0.01667616540836431, 0.013339207217083739, -0.1482425332069397, 0.11803771669883428, 0.024443262386046882, 0.0182369202375412, -0.14057608857416454, 0.1363338530715797], [0.06280508755587273, -0.1057610880839601, -0.10817143101922531, -0.06967580306949826, -0.16430773296137904, 0.0997210294008255, -0.06059195144223802, -0.02036251127719879, -0.29031441753110554, -0.08209989964962006, -0.05373336896971299, 0.007465840226236932, -0.15326918946899656, -0.08123727847785465, 0.12529356777668, -0.06699975309848348, 0.02433725224157399, -0.03146984822026849, -0.2397673958321153, -0.17318719173681396, 2.6807188987731934e-05, 0.1657559722661972, -0.05162784457206726, 0.10051538050174713, -0.12322867359154119, -0.08319978294583277, 0.16120363771915436, -0.014155164361000061, -0.19458290933009575], [0.32017136736524404, 0.24609191520833165, 0.3788481670054535, 0.17531270599279558, 0.08616286668791907, 0.05223049223423004, 0.7874496036682344, -0.07900834828615189, 0.6730185154176134, 0.014042198657989502, -0.08228723982513025, -0.39777718173403204, -0.34446193887447923, -0.8420846900585409, -0.03378517925739288, 0.32646254037975314, 0.0031230349910418213, -0.7354052708435527, -0.3853264162941338, -0.23604967497714505, -0.01936386078167233, -0.18061674718025073, 0.28879528005675303, 0.12442286312580109, 0.08079975697056288, 0.1831624901073963, -0.15141268074512482, 0.1280347442544957, 0.1911227332259026], [0.01149208082195422, 0.16922561793513263, -0.15527422854101283, -0.023486706968721443, 0.004804747668489766, 0.03239153325557709, -0.18100234539834828, 0.13999058306217194, -0.07209238806710513, -0.026496097445487976, -0.07652016167036525, -0.04701943497842759, -0.015990218026358003, -0.0032172072473901255, 0.006127968430519104, 0.11317632261230118, 0.036543594853462195, -0.07644695097366724, 0.09997404747558788, 0.07719291035265541, 0.03148843276234465, 0.21561406496677318, -0.06425887404077606, -0.1379038393497467, 0.28180959343609796, 0.11969979510244817, 0.028322085738182068, -0.11316376557377605, -0.04998674518156643], [-0.23595739257145468, 0.1299715269071066, -0.17667758940687425, 0.18647946772299803, 0.26875699611745557, -0.11895976960659027, -0.11811219621263269, 0.09723688662052155, 0.06247739941996481, -0.09925807267427444, 0.029146766920125973, 0.08547117847240038, 0.13551396953990882, 0.26043355173835475, -0.04013563692569733, -0.006103772221431671, -0.1846673600918051, 0.16361805079341543, 0.2010321716371567, -0.4735225097246008, 0.09752578779458566, 0.20445575915447614, 0.024192718097807948, 0.02189500629901886, 0.2731947307410363, -0.1273571849317519, -0.0309942364692688, -0.13370656313838905, -0.09707519046810589], [0.3284096723614813, 0.30960599728879534, -0.07554983347811088, 0.2979120063644374, 0.10750152416466625, -0.07416946440935135, 0.0029122101403709372, 0.0945153683423996, 0.01035803959647495, -0.09597417712211609, 0.3485457234287811, 0.19047936402252866, 0.1626102659428848, 0.007516820337719562, -0.08632053434848785, 0.31455317612555744, 0.07760771963101452, 0.12076099451164948, 0.08501845334981911, 0.129125750705117, 0.05216661395521401, -0.11812958312937948, -0.10463404644117934, 0.146651491522789, 0.007870879963679172, 0.13429210936361893, 0.16006244719028473, -0.15338498004441373, 0.4246208274825807], [0.06447752653632947, 0.2719654124087745, -0.0283402712368155, 0.37964251324062614, 0.43947026374721254, -0.1323799341917038, 0.07953896442549899, -0.04812699556350708, 0.3089773561593196, -0.1576480120420456, 0.30448351948032754, 0.08643044044987692, 0.08050606335574848, 0.2030873527368613, 0.07529358565807343, 0.06970992491977185, -0.0999831981602036, 0.19696407033288413, 0.15373640932037955, 0.011035291944401036, -0.18961156036892132, 0.01740784460956181, 0.11196030060958935, -0.08079395443201065, 0.0014694056844353944, 0.05806903151101591, 0.07580713927745819, -0.24239016475193242, 0.2099809556752723]], "layers.2.bias": [0.009187753569716982, -1.4028912936454982, -0.21326676997111943, 0.10894452583794705, -0.17343606581753407, -0.16342567767946195, -0.07989066060874839, -0.1688751564492138, -0.12723220082871053, -0.2177426239151371, -1.0338910196533746, -0.34262677606853914, -0.19930856278490006, -0.2155876515773258, 0.022407995979572], "layers.4.weight": [[-0.1319371727424715, -0.0793901578046327, -0.3395355271141002, -0.12524511224462842, -0.012831946543325243, -0.24110538910146245, 0.09116889168828957, -0.1489990592805476, -0.44393392554632216, 0.002296048660537698, 0.01915648969848121, -0.1908494662459991, -0.36237924729313625, -0.2485372490556341, -0.4198765420055055], [-0.07393263280391693, -0.2924164351938137, -0.22305594384670258, 0.12022658775777408, -0.08474880456924438, -0.015257200873745621, -0.31696737139087955, -0.26007319200370216, 0.12241457924276967, -0.05064678192138672, 0.05825099291959608, -0.247933030128479, -0.356248552850757, -0.21087878942489624, -0.15785135644949033], [0.1373156434322352, -0.29133615982109645, -0.2184175763700004, -0.008365015851035135, 0.10686451972726861, -0.007575129851484492, -0.06430388987064362, -0.05389329204942913, 0.16332925863866368, -0.04280899465084076, -0.23310040812926172, 0.02229289605143176, -0.023677557103163466, -0.22461659927607341, -0.049890400477436966], [-0.24725793769200993, 0.358360912007591, 0.22274354043922537, 0.4106198067311511, 0.11394946842079619, 0.2726521462826885, 0.34318673138379613, -0.01655187325468068, 0.19795933201689483, -0.1015360655717095, 0.35856532966078813, 0.08315312904404165, 0.21742736443229502, 0.18646438770064525, 0.05335278424614953], [-0.2654369465842761, 0.08413644146545396, -0.20965841982654188, 0.11274765499475886, -0.06880568018878942, -0.04520728863044543, 0.28142450040498446, -0.11855017215593502, -0.14639730147273297, 0.08094461429436257, 0.044695424438887556, -0.15068122973327133, -0.07729513816779121, -0.31653203702459326, 0.17861540988471383], [0.06729646693469242, -0.07922429268949206, 0.2525879900443147, 0.22157293384716828, -0.08592510735048119, -0.18116036037212338, -0.07892731657488429, 0.011817909332213343, 0.29457053792087085, -0.06424672901630402, 0.019164311758970355, -0.20098713717222005, 0.14125322339229024, 0.08956692016689319, 0.3406745942984045], [0.04733637432627491, -0.2845346322109211, -0.11817752661589263, -0.08420324090463616, -0.06867486340465083, 0.016765578499531763, 0.01848054123098728, -0.03137842847292268, -0.1576136028045627, -0.24981737642384702, -0.1425590561403513, 0.05162344335011794, -0.050822782469105314, -0.2838659831748288, -0.26992764633152566], [-0.332980661041871, 0.05894503921951222, -0.2956688254142241, -0.1599786168812567, -0.27632029885531323, 0.0552189023968938, -0.269715086684826, 0.08281748068974776, 0.05584715132974687, -0.02842316249564393, -0.40711929996355284, 0.019096893011688872, -0.2219123195121728, -0.2211217500111253, -0.2979174787818576], [0.1303201756331346, 0.321741248454796, 0.25900580874656465, 0.5292301623972316, -0.16327931790111005, 0.051381999911788274, 0.26040404511495624, 0.11330141703565945, 0.19995564764352824, -0.1283915534846286, 0.3613157158594439, -0.013768605744101771, 0.1626658180865108, 0.23187003093272698, 0.4237913154914222], [0.020873934030532837, -0.1662515292469553, -0.12431011575037969, 0.057086011491887016, -0.28456885665171106, 0.013629023435696847, -0.12838008728464304, 0.05560187844698659, -0.37763849667412963, 0.07824365512726603, -0.3054467797178183, -0.08791729566092386, -0.36201799177616073, -0.01303356221856741, 0.008363086894621941], [-0.2892642453641485, -0.05722621317641814, -0.12212100644538877, -0.1005559056960479, -0.21437941863414398, 0.03367928114143164, 0.17601218502295682, -0.03560273723896576, -0.1414366003965575, 0.1675885691774061, 0.28572934232233504, 0.16892258624164122, 0.12097066084680948, 0.09557619985545669, -0.14572958195754054], [0.13874194725079425, 0.33474313497684205, -0.0926832815084105, 0.3942486466195021, -0.0652208053576201, -0.18575140821900146, -0.016825563319690474, -0.016665791763629475, 0.06056953339054722, -0.03641833709168893, 0.14385961788806878, 0.10734375959404953, -0.10940046273808735, 0.35761575408004753, 0.19790544145808087], [0.025128155946731567, -0.0072826309546328806, 0.09312233916981377, -0.052930311327664153, -0.1775378726043835, 0.09686434646429729, -0.08793136879118926, -0.1026852220100656, -0.2457531153627335, -0.3009407526856527, -0.3085772030579064, 0.23366820812225342, -0.34271446429308444, -0.2849567746509221, 0.09719368498274214], [0.15113470812217525, 1.2136938896452298, -0.7448057786498552, 0.18894876230617738, -0.2704154347860274, 0.18988434752984848, 0.05288522931018827, 0.4301420546980031, -0.2529950860127431, 0.1087985634803772, -0.3628729195007273, -0.156243955120687, -0.26299724813658415, 0.18743139043115786, -0.2035411463346587], [-0.1486684292576932, -0.29746003418426803, 0.00012041938035190508, 0.2349799454768916, 0.1952820607640155, -0.20936297764328227, 0.292666991472388, -0.5777778135382438, -0.18199584502082616, -0.11294422672399772, -0.3494303606550225, 0.08368831140111344, -0.35806930501146095, 0.10688631238308353, -0.18579903063613376]], "layers.4.bias": [0.04870959698771594, -0.36143250078913386, 0.13982917516735294, 0.054975943231932355, -0.2418904733592322, 0.13068709761687902, -0.3428096079372189, 0.057130745779022635, 0.24861729362225143, -0.3824296376947278, 0.14535320066000326, 0.3120704270430027, -0.15437205731352302, -0.29838729229640415, 0.1291401788976288], "layers.6.weight": [[-0.019151219721312517, -0.1246020053044222, 0.17977116880086486, 0.23456430841350673, 0.0024821205367513946, 0.2327401394350101, 0.15799021306919853, -0.002082415386562041, 0.3293953120838297, 0.04669019445649898, -0.009389538144379282, 0.24945339621375434, -0.12977847804978823, 0.19416936103991403, -0.16483694660517986]], "layers.6.bias": [0.5815601240235]}