{"layers.0.weight": [[0.536671887628585, 0.34522196385889753, -0.017646940047818603, 0.07863786582023126, 0.15200077177612922, -0.05712455147592825, -0.07227288821179652, 0.054473534380533796, -0.011672396907738105, -0.046863664634689176, 0.28915339213369634, -0.03071890900557277, -0.013716799570963098, -0.10872704388416153, 0.0021729657993163213, 0.02187279868421641, -0.07310988353250841, 0.10933607141778941, 0.09351015201275172, 0.13251066136463538, 0.019013067746205026, -0.04604766110142597, 0.19900081459204816, -0.10470469171122339, 0.018190616290010935, -0.5129160381671789, -0.23023634238217575, -0.2966346942059436, -0.2804433575761632], [0.27772064547590153, 0.26083714803089647, 0.031874001999419865, 0.12330654096685238, 0.19685783473898621, 0.05878929365966975, -0.005176663525305445, -0.10993108719685676, -0.17389388129999112, -0.24903890218477556, 0.05833176637773497, -0.034918362501771535, -0.14181668913110515, 0.023934361773082037, -0.14312634049231907, 0.09673708134242905, -0.29767075540185656, 0.08086081952782483, -0.005915051982213423, -0.052597182623834594, 0.11517298384057131, 0.07546514476808927, -0.05616973568898063, -0.1617379732103273, -0.03470221984828793, -0.4756023509144145, -0.4778946727072928, -0.4124045831655402, -0.5546499761483211], [0.46232809363141886, 0.20557519326424065, 0.2753247202533346, 0.2702462723206451, 0.1457747843908783, -0.07609642971969523, -0.10442989014558714, 0.24946432495875545, 0.16238067577999526, -0.17448169540136121, -0.01800402177312623, -0.06629625615301066, 0.057582656933105665, 0.20557116660749386, 0.23335806273829257, 0.003575594894755196, 0.05029200798736837, 0.1126126892798618, -0.07546007038752645, -0.14942920933734188, 0.08280326199797446, -0.03260876737304181, 0.19160120839927733, -0.00031934739380969047, 0.28603246385531095, -0.306498549804998, -0.3824325318174377, -0.39640789394478343, -0.18292547587640318], [-0.1566280871629715, 0.08963195979595184, 0.12362049520015717, -0.010906398296356201, 0.04550667107105255, -0.14514020085334778, 0.16162686049938202, -0.033352017402648926, -0.14397510886192322, -0.12346040457487106, -0.0344139039516449, -0.01028113067150116, -0.10826681554317474, -0.07817474752664566, 0.12151248753070831, -0.06363692879676819, -0.14817892014980316, 0.08925987780094147, 0.004669651389122009, 0.029720991849899292, -0.13759136199951172, -0.15604999661445618, 0.002257928252220154, -0.0020678192377090454, -0.1495385468006134, -0.11971630901098251, 0.02311122417449951, 0.044739753007888794, 0.01500217616558075], [-0.23494762461781596, -0.09458299923007502, 0.030950205337692743, 0.122465264023217, -0.2546659643369832, -0.018462982611223075, 0.08487720506122094, -0.3111332038756346, 0.029722061059949397, 0.16606181347088209, 0.03843018059889052, 0.00668972010377278, 0.009406056806794958, -0.009337757730737103, -0.1856935158596115, -0.14085497504874755, 0.15604250805591385, -0.04877287494661424, -0.0036208375723316404, -0.08015140634807093, 0.11508673056031621, -0.042928380951235606, -0.06573383788114646, -0.030312464103218327, -0.008288882786506347, 0.7603426918673118, 0.6179430157122274, 0.48489553767923876, 0.3496382506507906], [-0.18451596796512604, -0.13230325281620026, -0.10402067750692368, 0.05311594903469086, -0.013440176844596863, -0.006897464394569397, 0.13557003438472748, -0.11010173708200455, -0.10201215744018555, 0.12554918229579926, 0.1483660191297531, 0.14154063165187836, 0.16334976255893707, -0.09275772422552109, -0.014151453971862793, 0.17981861531734467, 0.1374218612909317, -0.09990108013153076, -0.142849400639534, 0.11488886177539825, 0.10458718240261078, -0.1474921703338623, -0.12353669106960297, 0.11798091232776642, -0.17526352405548096, 0.028509050607681274, 0.099246546626091, 0.010933533310890198, 0.003382965922355652], [-0.1709000133024438, 0.10208998258979055, 0.014413153842456684, -0.04039620898171067, -0.05203597623771529, 0.1303104086028188, 0.13358413632624094, 0.206636040059117, 0.1465556490936346, -0.01994258112035914, 0.163888173911409, 0.05369332274334851, 0.031319530558897926, 0.22407863997731295, 0.056750590358069036, 0.04545799867719449, 0.1184615331164827, -0.10975018446897915, 0.0951630937671375, -0.04915269330732071, 0.1316421275821115, 0.18726477931725832, 0.03441428990504893, -0.10360595749543566, 0.005349267115613096, -0.4474675540326382, -0.16925039688356522, -0.12858729795567816, -0.22881696311730754], [-0.1764775663614273, -0.08798038214445114, -0.01889459788799286, 0.12624295055866241, -0.0001615583896636963, 0.08266572654247284, -0.017390236258506775, -0.029085740447044373, -0.05694761872291565, 0.09527872502803802, -0.16680647432804108, 0.003504142165184021, 0.16122497618198395, -0.16931502521038055, 0.11366064846515656, -0.15927013754844666, 0.1382184773683548, -0.1492125689983368, 0.13974060118198395, 0.14639173448085785, -0.1590273380279541, -0.18011777102947235, 0.07073836028575897, -0.077627994120121, 0.09800542891025543, -0.09852121770381927, 0.03854063153266907, 0.032660678029060364, -0.07892797142267227], [0.1286082367466836, -0.5894705741560511, -0.7711887163756955, -0.8531990893306279, -0.45290375536046945, -0.07059199376628597, 0.17849411577085092, 0.2756989013287848, -0.10039825359195895, 0.04882477902167971, 0.15146425136439842, 0.16851433523191253, 0.20223434927708278, 0.0420484647704237, -0.2197965263104859, -0.5866371269043907, -0.15317682069473382, 0.10517821782384516, 0.10179706267252746, 0.5638626807610473, 0.6895303844935363, 0.5778085839675678, 0.6305973361072966, 0.2875474582352242, -0.20691895803806648, -0.1549887651555023, -0.1539623765624354, -0.15716478498920045, -0.15166313514450033], [-0.16443553566932678, 0.14703302085399628, -0.04709847271442413, 0.1129758208990097, 0.05311645567417145, -0.036312222480773926, -0.10289516299962997, 0.029492035508155823, 0.09803895652294159, 0.12389229238033295, 0.14448119699954987, 0.13931424915790558, -0.1760229468345642, 0.17813022434711456, 0.04057192802429199, -0.11710146814584732, -0.1576324850320816, 0.18445582687854767, -0.08891704678535461, 0.04893350601196289, -0.09707354754209518, -0.18401582539081573, 0.10577596724033356, -0.14602532982826233, 0.02196270227432251, 0.18486367166042328, 0.15593402087688446, 0.04912671446800232, -0.0867260992527008], [-0.16594760119915009, -0.08709482848644257, -0.0786411240696907, 0.17801131308078766, -0.06653166562318802, -0.1826249361038208, -0.006396502256393433, -0.14781884849071503, -0.017713844776153564, -0.10486512631177902, 0.14393942058086395, -0.07324005663394928, -0.0759846419095993, 0.18102110922336578, 0.13298793137073517, -0.0033283084630966187, -0.15852028131484985, 0.05636337399482727, 0.14379017055034637, 0.1321578174829483, -0.1013379842042923, -0.1744987964630127, -0.10471140593290329, -0.1632559895515442, 0.11667187511920929, -0.11185774952173233, 0.023915767669677734, 0.1613030880689621, 0.058373525738716125], [-0.1509145200252533, -0.0036208778619766235, 0.1711733490228653, 0.028162851929664612, -0.022691190242767334, 0.15011171996593475, -0.16458557546138763, -0.08653081208467484, 0.026041090488433838, 0.14326398074626923, -0.06232832372188568, -0.11060377210378647, -0.17592233419418335, -0.17092549800872803, 0.09598012268543243, -0.106449194252491, 0.023207291960716248, 0.06013958156108856, 0.07110662758350372, -0.18122746050357819, 0.08390246331691742, -0.06052561104297638, -0.06633099913597107, -0.03491124510765076, -0.17542144656181335, -0.02812202274799347, 0.04920877516269684, -0.18068325519561768, -0.09036487340927124], [-0.13102219998836517, -0.12087148427963257, -0.10326719284057617, 0.14253921806812286, 0.049390897154808044, 0.0839029997587204, -0.15222179889678955, -0.08824601769447327, -0.1469360888004303, 0.11226098239421844, -0.1821170151233673, -0.16932758688926697, -0.01052267849445343, 0.04485486447811127, 0.06019414961338043, -0.03003665804862976, 0.022690892219543457, 0.027638912200927734, 0.04326184093952179, -0.05398775637149811, 0.12436313927173615, 0.0077238380908966064, 0.09527672827243805, 0.04939691722393036, -0.10740990191698074, -0.08795339614152908, -0.1135660707950592, -0.027631163597106934, 0.01348017156124115], [0.19416641634636275, 0.1677373422148653, 0.18870140363168106, 0.13056959334166507, 0.06492624674311745, -0.18622437336033779, -0.019809347848296237, 0.01751056769126567, -0.11900852398604628, -0.02665791322804243, 0.04817533011489508, 0.021614935169118898, -0.08142460853585208, -0.0922188747017375, 0.09231156221308932, 0.07277523241400811, -0.04483146633419195, 0.12592764798084857, -0.0977452860551201, 0.026654216977743825, -0.10435547001775274, -0.15854429791987376, -0.07037021543193242, -0.2523635218695159, 0.1056042727540091, -0.5076618763521149, -0.56165695023181, -0.6004377805706931, -0.43754251120434867], [-0.20159574967353647, -0.1496437189059904, 0.15792427436697468, 0.0756069147527065, 0.06577118434804513, -0.031530340046744224, 0.18175215555298002, 0.019433288000742708, 0.012762278120658733, 0.1042216173475372, 0.012011019130629448, 0.0582676807081409, 0.025794532590427674, 0.0637760804398025, 0.023182603008031377, -0.10372659835650155, -0.042145740880408324, 0.17211463182714942, 0.1301876958867212, -0.010151569217229749, 0.02239414446095597, -0.11279699428449147, 0.14028826399093244, -0.17746984040559505, 0.0874784399376411, -0.09659759924513014, -0.2150060260119927, -0.08645989132720648, -0.392981630863294], [-0.2552455955670988, -0.13655462835275978, 0.027938588967793332, -0.2121277299697867, -0.16476807564021229, 0.023729656825383465, -0.002904363236633243, -0.22348930019827282, 0.08726295978318387, 0.06563567298777362, -0.014938417135729324, -0.036274039810834074, -0.197925764453392, -0.23291665216510427, -0.19225479881579813, -0.1828821513059639, -0.17054892301593633, -0.14654952002594407, 0.12528744786848553, -0.2326914344857698, 0.1106502566956651, 0.1094561236112364, -0.022424547152831563, -0.04032285754033475, 0.012445173054231403, -0.11282727377198574, -0.24704678484065073, -0.25240313723619284, -0.01944869717920575], [-0.06542344391345978, 0.09855501353740692, 0.06910721957683563, -0.09353465586900711, -0.015926629304885864, -0.03514109551906586, 0.1743593066930771, 0.016909673810005188, 0.05940280854701996, -0.11277472972869873, -0.0948483943939209, -0.13906875252723694, 0.08470471203327179, -0.15189816057682037, 0.08969716727733612, 0.09309537708759308, 0.03129361569881439, -0.05810295045375824, 0.10989938676357269, -0.13910090923309326, 0.12593452632427216, 0.006154060363769531, -0.14950188994407654, 0.06186133623123169, -0.09030468016862869, 0.14781661331653595, -0.15152637660503387, 0.12344242632389069, 0.03800368309020996], [-0.18477268517017365, 0.06333175301551819, -0.062457114458084106, 0.06478752195835114, 0.017608851194381714, -0.09897895157337189, 0.041047289967536926, -0.10328029841184616, -0.03753899037837982, -0.004396721720695496, 0.08884336054325104, 0.022768735885620117, -0.1786816418170929, 0.07430614531040192, -0.027689114212989807, -0.11420675367116928, 0.1744142323732376, 0.049581289291381836, 0.08847184479236603, -0.0016813874244689941, -0.16676826775074005, 0.12443564832210541, 0.05696535110473633, -0.07856132090091705, 0.1620355099439621, -0.15462133288383484, 0.13670213520526886, 0.0923755019903183, 0.12413935363292694], [-0.17702161932473562, -0.17274119611336647, -0.011186164818599083, -0.12442572027571766, 0.004399112506011007, -0.0035169803732856353, -0.04779737234961274, 0.2540377412403403, -0.056140921699843985, 0.2372735419747415, 0.04910868502074425, -0.021941457776195373, 0.15975402320124957, -0.010550468873066855, 0.2161370703773256, 0.17067963592458604, 0.2212178763695279, 0.053547128206817465, -0.14731687698319265, 0.06985347596607548, -0.017972405181344374, 0.07905920987141843, 0.04198719216925414, -0.15936856235548622, 0.09556998697569762, -0.2966453574003914, -0.33599525103387606, -0.19096179581800932, -0.01878950506048239], [-0.12017670273780823, -0.001913711428642273, -0.11296968907117844, 0.10941319167613983, -0.05813203752040863, -0.15058007836341858, 0.07582046091556549, -0.13751666247844696, 0.1475401371717453, 0.08780764043331146, 0.01758939027786255, 0.06799618899822235, -0.105756476521492, 0.16215290129184723, 0.007693573832511902, -0.14565043151378632, 0.035108789801597595, -0.13996046781539917, -0.026333868503570557, -0.13635939359664917, -0.18396608531475067, 0.04890044033527374, -0.15216904878616333, 0.11517618596553802, 0.14279820024967194, 0.06076478958129883, -0.023527339100837708, -0.05421377718448639, -0.06556002795696259], [-0.1447888886506046, 0.07654422853576887, 0.09137245047498545, 0.03757521606331208, 0.16354065773687385, -0.14953494472085663, 0.028341891927882282, 0.19887541236659823, 0.006702218187841765, -0.009560925794751741, 0.05482088564587877, -0.014354700170845301, 0.20824744083562796, -0.1378092623907771, -0.0808837877753488, -0.030571008091206584, 0.001349732623206619, -0.08303566815862884, 0.1711668193083863, 0.007950313563781846, 0.17523524980834576, -0.11108858010376461, -0.07514450094146444, -0.1673334754270618, 0.05058288407091212, -0.06607351273484666, -0.3002583798290737, -0.3484609342376465, 0.014256602301599608], [0.13648780899543445, 0.40053088564747075, -0.052043794118060406, -0.3382625065836023, -0.14414626282191134, -0.28478282777292263, -0.4516511697070255, -0.11033387959969318, -0.0523332915022948, -0.24442894078744998, -0.25343347579384407, -0.18970596810987528, -0.020558156195967132, 0.4648747501499411, 0.541745219856797, 0.1014060711383032, -0.21447242821560733, -0.1336113912562393, -0.4425333284307766, -0.6041810871562532, -0.5316564986266669, -0.270463067204415, 0.6963153394769261, 0.998574022384446, 1.1538799324920932, -0.6153125548553857, -0.6677716375967254, -0.6781075263840216, -0.6748608780281808], [-0.09710557758808136, -0.1615680307149887, 0.0010895878076553345, -0.16133269667625427, -0.02652585506439209, 0.08052913844585419, 0.01180228590965271, 0.11516468226909637, 0.1604626327753067, -0.03164838254451752, -0.12223707139492035, -0.17308025062084198, 0.02010372281074524, -0.05725671350955963, 0.16814924776554108, -0.03621605038642883, 0.001672506332397461, 0.08818180859088898, 0.050108522176742554, -0.042170241475105286, 0.0961696058511734, -0.10613425821065903, -0.14530952274799347, 0.12564031779766083, -0.034448057413101196, -0.015785083174705505, -0.04617320001125336, -0.06827660650014877, -0.1136985793709755], [0.3663300514505906, 0.26189216899206247, -0.03965625560367712, 0.2264274307795981, -0.00819539729226344, -0.19945721938264144, -0.08068090609057174, 0.05386096141840158, -0.1645423066370488, -0.24533731376540657, -0.06940581369414833, 0.006891339211100593, -0.2317531816368215, 0.058155973844496146, -0.13742769118827108, 0.11957192483572734, 0.08459130252370844, -0.006721590104935371, 0.04389685935154844, 0.08078017441477706, 0.16147468931603393, -0.16073299237331853, 0.10550171807201718, -0.17082665338050312, 0.024647598425757093, -0.322781403571514, -0.2072233868790577, -0.22049760577818853, -0.3360820875262433], [0.4199926329274377, 0.10480494093555316, 0.10039847095575019, -0.05792677767015159, -0.021154288693783944, 0.04105699168953921, -0.038752660028769335, -0.056190906697735535, -0.13135845510962893, -0.19086327688955115, -0.03015834257447248, 0.08660935617689011, -0.13896990728866385, -0.06857464532892495, 0.02589452361279936, -0.23641657742350583, 0.05889939778857442, -0.14994943381896006, -0.26587515469504247, -0.11720302652822534, -0.18180436334236436, -0.007849262264049426, -0.05139273115825948, -0.22078725059443624, 0.027756622606329967, -0.29269297088061735, -0.4573840070679717, -0.5152936776047141, -0.577402740111265], [0.5020385040993394, 0.19512555746284388, 0.04046927382331618, 0.06217401823044664, 0.1954602867157978, 0.1700507867462697, -0.21386138560513332, 0.12383180207318768, 0.18865189260853088, -0.19104137996452172, 0.21457874802897098, 0.1276095118756651, -0.055350623790316085, -0.07995674274949639, 0.1302580938441503, 0.1412731142816635, 0.11279074011132313, 0.24954975470997554, 0.026455075208160858, 0.049767961142862, 0.18204861587018734, -0.11474642337245027, 0.10938564864737622, -0.13224370763955653, 0.2963077155979662, -0.6011541531476592, -0.4655729799745808, -0.3748915518253829, -0.4254381589922323], [0.526789145611807, 0.43300700352704974, 0.17565863048567612, -0.06259569983270101, 0.04653498062124285, -0.07023845904703613, -0.07715249524762496, 0.11148100483105616, 0.18485926298618974, -0.2456527544360596, 0.018161277401164917, 0.2126569984918585, 0.052976547671301374, -0.030874735420886763, -0.05149699576269275, 0.1623443765971871, -0.16211428123270308, 0.14880628140576574, -0.06940095085238115, -0.03598651368055639, 0.0190525327397295, -0.06553160495377358, -0.1279179138673796, -0.21031892264494703, 0.25780560935526986, -0.8324705888640966, -0.835345644597347, -0.8314196470772455, -0.8511499291568926], [0.2401204078115392, 0.06734342321724163, 0.21064857513490878, 0.03271457302752295, 0.2601280603648439, -0.05031839011947501, -0.3422064172799068, 0.14474300102824175, 0.0030588417091802693, -0.1911184632985345, 0.07277348814334673, -0.05480978630110941, 0.08312511782611201, -0.09472768338158197, 0.03561679445799016, 0.11044561936250732, -0.036855838329576084, 0.1331052517357161, -0.11923509593414867, -0.05415121573034495, 0.019279895803441856, -0.21837619037901676, -0.05627710339300509, -0.22689624036000028, 0.0705591436053642, -0.5317549466510385, -0.5343005407176734, -0.5561696559651778, -0.7617739543088917], [0.39436938116570724, 0.12927283207627324, 0.05577225634977393, -0.027703117296713285, 0.1720208344876062, -0.12402140268598287, -0.046312122935649506, 0.13527670688682714, 0.016002743408822403, -0.11773607388044491, -0.005280466475886883, -0.0727287209524816, 0.08174394592301232, 0.01391379777262513, 0.0090746644001156, -0.1304165014022824, -0.029394146761946908, -0.06012794678098306, -0.0564731829851238, -0.18934296656429822, 0.08127407209051779, 0.18050577888432945, -0.141228378900255, -0.08453108650671108, 0.023548061067701846, -0.45192766154048697, -0.5205571343138958, -0.3608258222210852, -0.2848718959889843]], "layers.0.bias": [-0.18889939197461666, -0.5107205051675389, -0.3744729757808528, -0.12960198521614075, 0.7635989063957764, 0.0076359957456588745, -0.12518531062630037, 0.0926252156496048, -0.41918242883792456, 0.1653095930814743, 0.0029732584953308105, 0.044257745146751404, -0.12790265679359436, -0.5425424188150175, -0.29110093982105323, -0.25017523055409085, -0.007789626717567444, 0.08464755117893219, -0.13465979836670142, 0.011397764086723328, -0.03246494611001583, -0.4875488860030967, -0.028491631150245667, -0.24937405264528692, -0.43007912030811885, -0.49089710033746065, -1.2038099873905994, -0.6441844604509384, -0.54285920343857], "layers.2.weight": [[-0.22957328816009076, -0.1260463148355484, -0.17704515159130096, -0.120057612657547, -0.17819063812705072, -0.014127954840660095, -0.005191602710288875, 0.05809265375137329, 0.09220243990421295, -0.05244572460651398, 0.027623191475868225, 0.1833280771970749, 0.09075485169887543, 0.11235235631465912, -0.04152005910873413, 0.1546313315629959, -0.0711698830127716, -0.005896374583244324, -0.09831503033638, -0.17950093746185303, 0.11529271304607391, 0.023472237105708182, 0.07625384628772736, -0.0885196768382546, -0.29283734146555945, -0.13428594172000885, -0.11017416644547888, -0.015001222148873773, -0.15526825762991278], [-0.12284476976162668, 0.11991024257794165, 0.09599108725670803, -0.048404619097709656, -0.26689713255265096, -0.07942882925271988, -0.05669193487698634, 0.06554870307445526, -0.6274967084179405, 0.06217460334300995, 0.01938183605670929, 0.16773538291454315, -0.10421882569789886, 0.525541902744674, -0.09657764629672541, -0.0844880579588566, -0.15643295645713806, -0.134127676486969, 0.1544088419481054, 0.18492992222309113, 0.15848783004097244, -0.3506558003436443, -0.17540933191776276, -0.09312069058139559, 0.1835249415982959, -0.01565810590194489, 0.45117746896330346, 0.11254716171560797, 0.08612393841531181], [0.14453972020541375, -0.11391642207209793, 0.12840920562175792, -0.10577870160341263, 0.06594928695025243, 0.048311471939086914, -0.05013895781355003, -0.1289418786764145, 0.16497490301876314, 0.07115371525287628, 0.13200883567333221, -0.12014053761959076, -0.09352179616689682, -0.01080430393280713, -0.14686038247776326, 0.028227156709877424, 0.055666178464889526, 0.1841418296098709, 0.2903913667171635, -0.11704284697771072, 0.18386071016813962, 0.5296612485764944, -0.0012222528457641602, 0.015176389775270246, 0.16004707126395154, 0.11916129998257573, 0.6063402753022903, 0.08033892435388004, 0.03896696252430667], [0.216819871331403, 0.0684690743156803, 0.34615767322178226, -0.10641251504421234, -0.3382126305913923, 0.007565140724182129, 0.04764147383546184, -0.032320424914360046, 0.1800374260187412, -0.13790780305862427, -0.07615841180086136, -0.03151772916316986, -0.049712374806404114, 0.4797151855549772, 0.17581048015938214, -0.19919375564553243, -0.019212380051612854, -0.006308719515800476, 0.03977447768475503, 0.1850646585226059, 0.3633044296515569, 0.14764902376958058, 0.17148981988430023, 0.05134306413044612, 0.033049654178178824, 0.42722948166409663, 0.7676916757338699, 0.2899598982880821, 0.07351900902649172], [0.12043710052967072, -0.09717705845832825, -0.15909640491008759, -0.05595576763153076, -0.09568699449300766, -0.08920980244874954, 0.007765814661979675, 0.12312446534633636, -0.16857826709747314, 0.03702385723590851, 0.08063863217830658, -0.025019988417625427, 0.11120782792568207, 0.11167065799236298, -0.14602048695087433, -0.032427847385406494, 0.10533757507801056, 0.10412190854549408, 0.056365981698036194, 0.13540323078632355, 0.08548997342586517, -0.05185428261756897, -0.13044679164886475, -0.168091282248497, -0.09072013944387436, 0.08588121831417084, -0.00875738263130188, 0.07345341145992279, 0.04623042047023773], [-0.08115389198064804, 0.1666877120733261, -0.13856691122055054, -0.16951659321784973, 0.06206098198890686, 0.04734599590301514, 0.17646314203739166, -0.18031974136829376, -0.009800449013710022, 0.13233278691768646, 0.11265005171298981, -0.09670574963092804, -0.10642161220312119, -0.05272902548313141, -0.09471338242292404, 0.07830114662647247, -0.12867136299610138, -0.1840398907661438, 0.15852241218090057, -0.11622842401266098, -0.021224692463874817, -0.11764296889305115, -0.1020050048828125, 0.02003750205039978, -0.03720653057098389, -0.07015678286552429, -0.16054648160934448, 0.05664663016796112, -0.16830062866210938], [-0.060347720980644226, -0.11139418184757233, -0.06885886937379837, 0.18271569907665253, -0.03392121195793152, 0.035771384835243225, -0.1485961675643921, 0.0203067809343338, -0.002898082137107849, -0.1457405537366867, -0.17885759472846985, 0.07821281254291534, -0.122255839407444, -0.06807919591665268, 0.07063837349414825, 0.09182457625865936, 0.12771011888980865, -0.08508214354515076, -0.09681478887796402, 0.13373099267482758, 0.16157536208629608, -0.16481128334999084, 0.11645205318927765, 0.04716336727142334, 0.009270906448364258, -0.02519795298576355, -0.03421774506568909, -0.13036304712295532, -0.12497583031654358], [-0.10729572176933289, -0.15914517641067505, -0.08495791256427765, 0.18492190539836884, -0.009316787123680115, -0.02749037742614746, 0.036649882793426514, 0.1102733463048935, -0.0013569295406341553, -0.12065372616052628, -0.08030043542385101, -0.15882591903209686, 0.1093694418668747, 0.06181652843952179, -0.05921164155006409, -0.11818713694810867, -0.014865443110466003, -0.037668511271476746, -0.13180994987487793, 0.1096401959657669, -0.1802818328142166, -0.05627943575382233, -0.1845807135105133, 0.15559826791286469, -0.18139778077602386, 0.10128538310527802, 0.1297406703233719, -0.0845949649810791, 0.030803531408309937], [-0.13934878212716564, -0.1965667983407906, -0.16008184663767264, -0.018742352724075317, -0.25890455272343693, -0.1749943047761917, -0.2810931598740766, 0.16920720040798187, -0.07279835279106804, -0.08519218862056732, 0.07476137578487396, -0.12946535646915436, -0.1330496072769165, -0.30115991503113004, -0.09385981913310551, -0.053775005569918516, 0.10112418234348297, 0.14930154383182526, -0.19633561658538973, -0.002433106303215027, -0.033619116399693415, -0.014170967020844484, 0.13378839194774628, -0.14067077158425598, -0.027948089375951737, -0.05651649806442007, -0.28764887467824335, -0.046473486353412856, -0.014753891721361332], [0.14743703521840257, 0.17823127594925245, 0.21096549315279572, 0.1646011918783188, -0.06926969268401181, -0.0733380988240242, -0.08718981255971442, -0.1565392017364502, 0.3131299340137684, 0.15386857092380524, -0.0353379100561142, -0.02315235137939453, -0.0836978554725647, 0.36231059683203154, -0.02950057278340851, 0.003097641618507331, 0.0822799950838089, -0.10192593187093735, 0.037045851385272596, 0.026477307081222534, 0.2357806107779528, 0.2663117622908798, 0.1489894539117813, 0.1605136309448235, 0.13210900987557858, 0.2768303572680804, 0.42714631430465344, 0.3830474657363056, 0.2270343083901654], [0.3868823481578223, 0.05125671595810176, 0.24212135024636566, 0.10571728646755219, -0.059701691700007394, -0.12411823868751526, -0.024669473773327143, -0.03731846809387207, 0.3225334847886798, -0.058462515473365784, -0.1546117067337036, 0.1598242074251175, 0.05254402756690979, 0.16391421451828708, -0.014237646665987482, -0.21725457707443951, 0.05767618119716644, -0.1811998337507248, 0.10832977052656263, -0.14042270183563232, 0.04664010552853969, 0.3325623430877133, 0.08473755419254303, 0.3442284533640898, 0.3802303256991187, 0.3226223010253726, 0.6387397588610543, 0.37371143264315165, 0.23965295345072696], [-0.13271942734718323, -0.1470324695110321, 0.04036061465740204, -0.09696456789970398, -0.15333789587020874, 0.1280939131975174, -0.04364533722400665, -0.14270350337028503, -0.048157110810279846, 0.15928395092487335, -0.14480780065059662, 0.17130698263645172, 0.051634952425956726, -0.15753641724586487, -0.08064649999141693, 0.026664167642593384, 0.10772992670536041, -0.03862461447715759, 0.12612299621105194, 0.08377240598201752, 0.11172370612621307, -0.01726911962032318, -0.04138222336769104, -0.14159755408763885, -0.18398043513298035, -0.11914028972387314, -0.09572487324476242, 0.030664101243019104, 0.1270640641450882], [0.07761401512527229, -0.044241244548790186, 0.03407595318807561, 0.1673625260591507, -0.06296996918170017, -0.16118276119232178, 0.1783689558796701, -0.03754676878452301, -0.5224564428034887, 0.07307805120944977, 0.10464252531528473, 0.17959921061992645, 0.0020597726106643677, 0.004536613969915491, 0.03495909173336671, 0.08703869031356948, -0.12856066226959229, -0.18247784674167633, 0.204937193820006, 0.027649447321891785, 0.2534163725713846, 0.033404189448707156, -0.04047110676765442, -0.13228165853518173, -0.025398875833921575, 0.11062575643108338, 0.26053730895610905, 0.32085515362307915, 0.13648683828716626], [0.14297053653700958, 0.12770761080981913, 0.26383456165322144, 0.17899222671985626, -0.18308486106044256, -0.02845640480518341, 0.09876895497980528, -0.0730670765042305, 0.4148432709642839, 0.01263052225112915, -0.15491236746311188, -0.11872405558824539, -0.07742343097925186, 0.43910525560996777, 0.003536778502714665, -0.018273290365118655, 0.14245526492595673, -0.032256245613098145, 0.14898682140431393, 0.16946326196193695, 0.13999100203352827, 0.43391265929296896, -0.12191466987133026, 0.08067444002811971, 0.265751275360406, 0.04602740724837241, 0.4688872741328124, 0.14552275656526342, 0.008998255690633014], [0.4380776173916197, 0.12647097406644497, 0.3233906002382166, -0.18256479501724243, -0.2379433242172863, -0.05853600800037384, 0.10003821464589017, -0.15352702140808105, 0.14904066999464347, 0.08899791538715363, -0.17954613268375397, -0.13580292463302612, 0.015806838870048523, 0.291146971339555, -0.07159254779673263, 0.007804722874084048, -0.03568089008331299, 0.10643808543682098, 0.05816484099249564, -0.037651628255844116, 0.06668940244661757, 0.210446499959751, 0.12324188649654388, 0.21632754522511424, 0.04587297561891568, 0.3629896382403007, 0.5223870655898619, 0.2268900159617075, 0.3054980380197844]], "layers.2.bias": [0.0009191876140665634, -0.14468934617469414, -0.12187026472707078, -0.13240099222772353, -0.10713870823383331, -0.15903404355049133, -0.06382037699222565, -0.12319797277450562, 0.050405293680883576, -0.10940022093944567, -0.0237679274300717, 0.07243780791759491, -0.09593015119956685, -0.2245530231378637, -0.06701300971306891], "layers.4.weight": [[-0.22798651456832886, 0.11068408071914955, 0.2321511209011078, 0.044785569770578, 0.12406724691390991, 0.13210609555244446, 0.08174526691436768, 0.09188216924667358, -0.021297618746757507, -0.1048218419576824, -0.21526357531547546, -0.04598340392112732, -0.07040144785815065, -0.36035367907885857, -0.23189569840568194], [-0.02056044340133667, 0.09110531567456243, 0.13238884981999166, 0.0662524728384895, 0.0483647882938385, -0.20471222698688507, -0.1839621365070343, 0.05576387047767639, -0.07842342039427595, -0.038028131609272445, -0.4020590635534861, -0.15467913448810577, -0.3279747738716497, 0.08239542320902052, -0.40708098509970925], [-0.12931659817695618, 0.1738130748271942, -0.04489697515964508, -0.19499008357524872, -0.18932431936264038, 0.04357150197029114, 0.20893222093582153, 0.13814958930015564, 0.11131888628005981, -0.1303274929523468, 0.0466688871383667, -0.18524932861328125, -0.15961389243602753, -0.12954245507717133, 0.1370042860507965], [-0.20434260774669719, -0.21115039621511597, 0.25272883322594103, 0.1420761181106352, 0.04389852285385132, 0.1208186149597168, -0.026873692870140076, 0.0857713520526886, 0.2977693951578749, 0.07149404418319279, 0.4262961365823701, 0.06764903664588928, 0.073223316978382, -0.13063199586667415, 0.4168886019798016], [0.05518200993537903, 0.05778309691714523, -0.07140214782947076, 0.0327579266952994, 0.20535999536514282, 0.023821592330932617, 0.028108537197113037, -0.23511619865894318, -0.05724656581878662, -0.28028517747762405, 0.11405622482415886, 0.0551736056804657, -0.300071844691268, -0.17157096995488377, -0.18502395527602009], [0.09639471643243559, 0.18163682617406718, 0.20984478799824477, 0.38782402374725444, -0.1566246598958969, 0.10940754413604736, -0.12322242558002472, -0.03895716369152069, 0.04507894756852358, 0.2498442923083584, 0.49183709024203465, 0.22329562902450562, -0.057112259610106485, 0.3177829439296843, 0.13848945254133635], [-0.03474675118923187, -0.12170237302780151, -0.20729617774486542, -0.08535344898700714, -0.051170334219932556, -0.23783844709396362, 0.1211969256401062, -0.03319597244262695, 0.06519362330436707, -0.21263578534126282, 0.036828458309173584, -0.07052326202392578, -0.18865802884101868, 0.029416978359222412, -0.22114107012748718], [-0.2195856273174286, -0.07502107322216034, 0.2427099645137787, -0.06021988391876221, -0.04470217227935791, 0.05097895860671997, 0.2526223957538605, 0.24876859784126282, -0.08404119312763214, -0.00014662742614746094, -0.23306556046009064, -0.09924955666065216, 0.16579076647758484, -0.25296202301979065, -0.20206280052661896], [0.10516399145126343, -0.3686706010418198, -0.238348048778542, -0.342269529637476, -0.23366229236125946, -0.06313493847846985, 0.06918317079544067, -0.12254936993122101, -0.23866412521560357, -0.19486501947349522, -0.26133434192294097, 0.23353976011276245, -0.11902163154644077, -0.3815161078014081, -0.4013817699334461], [0.13072829177241957, 0.09276960088450568, 0.026722434403824047, 0.44225226942231927, -0.043006300926208496, 0.02851051092147827, -0.25711068511009216, -0.23662084341049194, -0.13380054130453142, 0.269432162414246, 0.41792282791448754, -0.14420858025550842, 0.1895070293392008, 0.37055982105130286, 0.29740574374202755], [0.010453969240188599, -0.1992681856569533, -0.07651840982999114, 0.040350424384229575, 0.16512984037399292, -0.2516081929206848, 0.09894877672195435, -0.13317209482192993, 0.08162946508922277, -0.3135757927890636, -0.41589034847950873, 0.13296404480934143, -0.2405479491395701, -0.12931532528740172, -0.17192843766431654], [-0.08889979766516501, -0.4998462194061684, -0.014157439495885247, -0.09720357895499544, 0.1673610806465149, 0.10311314463615417, -0.14887894690036774, -0.052864447236061096, -0.12053256334032546, -0.11884683702198744, 0.14670230243704288, -0.09785035252571106, 0.13197315156412234, -0.45141049681665923, 0.06196469620684119], [-0.2812048969070448, -0.039422856180526954, 0.15162718273308992, 0.09543041827294145, 0.2138233482837677, -0.05406773090362549, 0.13539433479309082, -0.023025184869766235, -0.06710263851790056, 0.19126225121159662, 0.09153134369603724, 0.1325640082359314, -0.04799960323431842, -0.12552137085674, 0.40735594741669834], [-0.369925406892054, 0.02641351569549224, 0.24699509824173999, -0.19411814364875113, -0.25243693590164185, 0.18034380674362183, 0.030752867460250854, 0.1735323667526245, 0.054888784885406494, -0.003954364966294374, 0.0995712208647987, -0.2556440830230713, 0.09876042642306194, -0.12126050746028566, -0.16392739265963577], [-0.04346280599516274, -0.3350419844563515, 0.270555145908736, -0.2998977187370469, -0.21598227322101593, 0.027936190366744995, 0.02324327826499939, -0.13648805022239685, -0.09326066076755524, 0.20920912221033533, 0.2962882449315961, -0.12294276058673859, -0.16846394254707456, 0.059623654001987145, -0.19403915403432587]], "layers.4.bias": [-0.13615431106725304, -0.0618510369480585, -0.1436249315738678, 0.02302136063073235, -0.3379192188843952, 0.2501323876057079, -0.06741161644458771, -0.16746264696121216, 0.09762739864153047, 0.18197254062768234, -0.011943769504744598, 0.4610232032285582, 0.1343016518952663, -0.03075705404884241, -0.4895292357656275], "layers.6.weight": [[0.020014338973215206, 0.062230411849879694, -0.051461607217788696, 0.28124218181688887, -0.1420147354466908, 0.30496103476492725, 0.1418740451335907, 0.02410346269607544, 0.08148077609627959, 0.3256538792463001, -0.03876207082239067, -0.48915927521332137, 0.1826719108555956, -0.020671241881410767, 0.24713426207831887]], "layers.6.bias": [0.29478756927488897]}