{"layers.0.weight": [[0.6713947396348464, 1.212223739581884, 0.1484433862266031, -0.3125267779076772, -0.1789993798649865, -0.1206115994374607, -0.3118172713842998, -0.26318417382204073, 0.03005668388464993, 0.2685330527763373, -0.5210174834656341, -0.13814728606118115, 0.6202762483894111, 0.0029009739309680256, -0.4950675978655923, 0.11906871855394065, -0.24615362627673237, -0.37136887435405713, 0.3819734365350785, -0.012150116579108208, -0.05742730302781068, 0.4039615342322395, 0.25186115732473985, -0.4162533208058857, 0.5457558694756026, -1.2022054713623358, -1.3237772392351292, -1.7198925775149279, -1.7487196915596468], [-0.18141332268714905, -0.05878467857837677, 0.043983399868011475, 0.1844104677438736, 0.0342831015586853, -0.14842355251312256, -0.14043904840946198, -0.04805302619934082, 0.1827344447374344, 0.014584198594093323, -0.05774487555027008, -0.001753091812133789, 0.14519502222537994, -0.09492485970258713, -0.1554144322872162, -0.18444721400737762, 0.08947215974330902, 0.13763828575611115, 0.18542803823947906, -0.13376449048519135, -0.029008790850639343, 0.03481845557689667, 0.09268026053905487, -0.0010235756635665894, -0.17197884619235992, -0.1222529411315918, 0.08790813386440277, 0.04945041239261627, 0.15900780260562897], [0.2635696242662819, 0.032203449049982534, -0.2458988504417196, -0.2073795131145148, -0.17963092007010548, -0.08400517221930487, -0.2938617258711306, -0.07079938925743819, 0.06079022396389323, 0.24991540275884924, 0.023564794090162353, -0.04333936332468004, 0.15438962148091478, 0.045251452291264434, -0.058005115108214454, -0.05947683303219443, -0.13997977165927547, 0.022682199545417753, -0.02793943590467589, -0.06899515848909128, -0.0979262599840202, 0.07503864628042685, 0.44966454369288184, 0.6610041562054082, 0.26308146181440406, -1.2110398228055315, -1.0583360305430078, -0.886553319239956, -1.0009439878193738], [-0.11684091920919316, 0.7830336907319317, 0.7418701126211231, 0.22088594035842116, -0.06864407680684428, -0.40435786976488386, -0.13216934602047498, 0.5257612442245037, 0.3772246388855129, -0.2605833738197474, 0.6755277607096494, -0.07272247407479233, -0.5397021448381654, 0.8374415542806776, 0.5116702203002093, -0.2991325827694082, -0.5057881295294021, 0.06493851644483888, 0.5958208236203446, 0.28475037165774564, 0.2751252648168717, -0.4309536153958209, 0.2777295795907019, 0.517816603950636, 0.5344889374723021, 0.6330543502079135, 0.5570732760272099, -1.8172865896056352, -1.6589021185381327], [-0.04879161715507507, -0.11391045153141022, 0.014956861734390259, 0.11804722249507904, 0.13045166432857513, 0.083799347281456, -0.10082966089248657, -0.11615804582834244, 0.16422633826732635, -0.11402808874845505, 0.18076010048389435, 0.15906502306461334, 0.15584899485111237, -0.041358157992362976, -0.04147173464298248, -0.17819844186306, -0.1734887957572937, -0.08308745920658112, 0.009679123759269714, 0.18079142272472382, -0.06033538281917572, -0.1589493751525879, -0.05986069142818451, -0.006541803479194641, 0.04204633831977844, -0.03314276039600372, 0.06708438694477081, 0.11095152795314789, -0.15646612644195557], [-0.01531099698649001, 0.19155108823717237, 0.031238425648173, -0.2507518387742856, -0.010083040732036452, -0.18458892891976802, -0.026088817292607154, 0.09521945145533756, 0.07808446547855284, -0.022815781793579962, 0.028159676710913194, -0.022657356198715506, -0.06642667398160608, -0.004249518174059533, -0.10005305240181077, 0.10926247510848074, -0.1505972041089836, 0.07130309017294616, -0.14667048301990726, 0.208183033619174, -0.1439977933924441, 0.07193142210411102, 0.3386717445865972, -0.010807418089592685, 0.11584402177910802, -0.7901829728644023, -0.2996310728626568, 0.2045971519100213, -0.6701920176661873], [-0.16547074913978577, 0.043489009141922, 0.022162973880767822, -0.047398731112480164, -0.12704774737358093, 0.0678623765707016, 0.10911618173122406, -0.14024096727371216, -0.06704725325107574, -0.05369311571121216, 0.0853838175535202, -0.10565103590488434, -0.13807180523872375, -0.14762383699417114, -0.1117427721619606, 0.11359317600727081, -0.02274473011493683, 0.0063835978507995605, -0.11406693607568741, 0.02687223255634308, 0.06935881078243256, -0.0780683383345604, 0.16116191446781158, 0.08592201769351959, -0.1260325014591217, 0.011107951402664185, 0.12053234875202179, 0.08866630494594574, -0.11868573725223541], [0.34225781404839195, 0.14616186225828556, 0.27345292467071025, -0.03847712760872238, 0.022244738877279624, 0.008490639463767855, -0.1535695237113532, -0.06507077236029825, 0.052762902639157484, 0.019858768453340756, -0.025087242513445816, -0.1536268429855909, 0.09781076426496825, 0.05687756372439463, 0.15484289774017823, 0.08264020935976182, -0.11069718106481662, 0.2902683123404149, -0.029639449931783787, 0.04938210459162042, 0.17190361672180085, -0.046763967044893835, -0.027755600463533724, 0.13074726706956466, -0.0843779093614226, -1.5033906778899098, -1.270944275265338, -1.1586186832652392, -1.0995413961073375], [0.8050953441054578, 1.5719911305687313, 0.6671484625618395, -0.3275204714328539, -0.0682450024668818, 0.10452502246452845, -0.16826505587906623, -0.22501763413224296, -0.04719044882365803, 0.08128140096878542, -0.2779665719031347, -0.16187446312832476, 0.395676195864028, -0.12689355171059655, -0.33462330895014486, 0.2800861743983404, -0.08132066575792311, -0.13790099676185766, 0.29502924748454495, 0.07235309290353105, -0.334055589688907, 0.5559008243890194, 0.38101932874086886, -0.4754035507708729, 0.6645053384722768, -1.0115586247152935, -1.2098729212339603, -1.2548357543602222, -1.4589780712985476], [0.8475332845693075, 0.38374380721031853, 0.16637538863577025, 0.3083595536051647, -0.10926441980984136, 0.13532264204776726, -0.2386960450703931, -0.0772752103726656, -0.07304778663523244, -0.11402907731729604, -0.114499761389325, -0.18951482562618988, -0.3677832219728604, 0.11036172459265622, 0.09034593305014242, 0.39266130086778106, 0.07695816465750224, 0.12165341890633465, -0.09704817169956693, 0.23185115192715985, 0.22503029375456776, -0.4024354267064309, 0.09283251376420255, -0.07739246949605805, -0.30666422828312373, -2.1858998487970522, -2.0733376788398337, -1.7764092099682187, -1.5964843518630096], [0.2924448897632774, 0.9295718054559617, 0.41143164395273263, -0.2577767103525752, 0.24179463361858988, 0.2263667296420312, -0.08565965704251258, 0.09553614637908282, -0.030860889405621317, 0.032177898692817716, -0.09690752721888178, -0.07398203343498971, 0.2874921785461867, 0.0641900112012209, 0.13748445579961058, 0.2758805201654009, 0.318200752291105, 0.003658181435224225, -0.3130082984237983, -0.12498505422025628, -0.11851578764888152, 0.40630086668684173, 0.3518459689788053, -0.37317829239323036, 0.41458775738013176, -2.803663574818046, -0.5611135552547608, -2.7248596390057864, -0.2833471404713944], [-0.05488777160644531, 0.1740608960390091, 0.00602896511554718, 0.09277807176113129, 0.09738387167453766, -0.13899563252925873, 0.06926964223384857, -0.12540103495121002, 0.06649790704250336, -0.023175552487373352, 0.11029176414012909, -0.16027134656906128, 0.12229298055171967, -0.09278154373168945, 0.1783195286989212, 0.08892463147640228, -0.04199838638305664, -0.1798606812953949, 0.03309033811092377, -0.18474553525447845, -0.06149908900260925, 0.0958433598279953, -0.09798150509595871, 0.17984922230243683, 0.025790169835090637, 0.033097460865974426, -0.07244046032428741, -0.1485166847705841, -0.13683131337165833], [0.5509294178724506, 1.0011680464528117, 0.5041668623369218, -0.24709532595683426, -0.2335288707657462, -0.27331754263851377, 0.025943268445682115, 0.16179796272971772, -0.06810616353301838, -0.2152681026076022, 0.13958919364415495, 0.29470759341432495, -0.10679037674238345, -0.251713145572735, -0.36378456055592173, -0.40158985140968534, -0.3674112889760937, 0.1902150222333609, 0.7286513385898565, 0.07867149705463357, -0.25948336715623327, -0.5095441817924573, -0.29925067812247835, -0.2492473257354753, -0.12303739414753419, -1.58864201368711, -1.4815640700620523, -1.6142397839897376, -1.5851977009213194], [0.6735631833725534, 0.8675433226085159, 0.060017535450326, -0.2932926370217425, -0.23430934374587786, -0.01845137084600498, -0.048263617183560266, -0.0740722869554248, -0.4096990400510504, 0.16312340958366328, 0.33702621685752, 0.21370329086365952, 0.47952245092327267, -0.31739195819161875, -0.2780503086221204, 0.3806521682916449, 0.13225481375484244, -0.3602143729784497, 0.10737572947154787, -0.3178194235078249, -0.9319752633302011, 0.3317341259162403, 0.5267984252174931, -0.2229085233137604, 0.4695231165857989, -1.5568444059981785, -1.5883228171689443, -1.5785807788370045, -1.561015794793127], [-0.11697887629270554, -0.08934757858514786, 0.16993950307369232, -0.1562797725200653, -0.016304269433021545, 0.038591429591178894, -0.11094261705875397, 0.13789986073970795, 0.04875485599040985, 0.016564294695854187, 0.02795127034187317, 0.11439846456050873, 0.06896989047527313, 0.1380772441625595, -0.14458094537258148, -0.010236814618110657, 0.16605840623378754, -0.16585664451122284, 0.10264907777309418, -0.1169452890753746, -0.10931646078824997, -0.09356759488582611, 0.12748421728610992, -0.1488027274608612, -0.060488179326057434, 0.15589945018291473, 0.08108879625797272, -0.1203627660870552, 0.09918023645877838], [-0.11239053308963776, -0.08002324402332306, -0.004762470722198486, 0.14000080525875092, 0.0024486035108566284, -0.16347049176692963, -0.029631242156028748, 0.07063324749469757, -0.0893016904592514, -0.03377053141593933, 0.1559588462114334, 0.04707731306552887, 0.17021404206752777, -0.07320662587881088, -0.03199014067649841, -0.02266860008239746, -0.17415115237236023, 0.09117625653743744, 0.12938712537288666, 0.07839430868625641, 0.07625336945056915, -0.09926263242959976, -0.07618656754493713, -0.06443838775157928, -0.04105342924594879, 0.1136428564786911, -0.03142966330051422, 0.06973545253276825, -0.16404536366462708], [-0.07549028843641281, 0.18022410571575165, -0.1496226191520691, -0.16653583943843842, -0.17947806417942047, -0.08447442948818207, 0.11010326445102692, -0.0928938239812851, 0.08241285383701324, 0.11339853703975677, -0.0796167254447937, 0.09240175783634186, 0.07409374415874481, 0.17050714790821075, 0.1586485654115677, 0.14190061390399933, 0.06549449265003204, -0.14468716084957123, -0.10505848377943039, -0.14838269352912903, 0.004466414451599121, 0.15733538568019867, 0.06568847596645355, -0.07733539491891861, -0.16564840078353882, -0.10040915757417679, 0.0003611147403717041, 0.02112288773059845, 0.1302029937505722], [-0.18120084702968597, 0.07484568655490875, -0.01636679470539093, 0.07134951651096344, -0.16204576194286346, 0.009887799620628357, -0.1239495575428009, -0.014068618416786194, -0.09776774793863297, 0.03865236043930054, -0.09889065474271774, -0.1438157707452774, 0.12694032490253448, -0.16806170344352722, 0.1631985455751419, -0.16473227739334106, -0.04641635715961456, -0.04113416373729706, 0.14029498398303986, -0.11069942265748978, -0.0004249066114425659, -0.1542980968952179, 0.15154476463794708, -0.08488950878381729, 0.0547032505273819, -0.16300246119499207, 0.10524146258831024, -0.08311707526445389, -0.10248273611068726], [0.8183219337518637, 0.624203994383492, 0.5403085540772801, 0.7474007603200284, -0.18746130486119644, -0.12584099598997356, -0.16346753539278566, -0.04894354457272979, -0.20414860648709976, -0.26753373175808315, 0.00792805548406939, -0.013258572322520156, -0.48160497057920576, 0.12018157036541331, 0.23112501792408524, 0.14067172125176078, -0.13036868888911057, 0.24399567578443862, 0.3248659831560416, 0.22500714087863827, 0.02127876267272801, -1.1452076834488156, -0.4105480382038558, 0.08522519383684093, -0.3964007826796273, -2.1465457865682636, -1.9892543674347867, -1.8947254190073048, -1.8003174050055095], [0.8851960263705045, -1.596380273320125, -1.0814957714706286, -0.7925812163547542, -0.160950151303354, -0.25962462772041334, -0.3154587127741398, 0.011417632316612452, -0.1256688676187332, 0.18891763615746632, 0.35579718062351684, 0.11913289674880687, 0.13355913214404183, -0.0500143241566767, -0.22099521842246683, -0.4577049123141521, -0.572395097771228, -0.2530363835632364, -0.7276831373729133, -0.6706835845415314, -0.5984798889224798, 0.6559501209485998, 2.5895251561039987, 2.666392022727077, 0.9025260202246456, -2.548110635431504, -2.4007672400715308, -2.2065063674434326, -2.0761281929591795], [-0.22204104959071394, 0.01418763183096847, 0.060144383445938435, -0.16167195654041544, -0.12516245051508834, 0.13454921749629453, -0.05713349504699187, 0.11988222604988834, 0.1932059939927734, -0.14120805650907808, 0.0181513413580028, 0.05284149456053494, 0.19124859963943758, -0.07862652679483828, 0.04163336467462974, 0.08458445150179573, 0.08825810580015774, 0.18454243403339937, -0.030175194457867784, 0.13328981691430417, -0.018228032137399413, -0.04173976417594653, -0.08697825961191129, 0.13291000769788652, -0.06599041837152991, -0.08317494426895938, -0.08399496972560883, -0.07152938097715378, -0.13754806085542062], [0.677459700351448, 0.04097106377565951, -0.29717768999568195, -0.62379169580496, 0.1916055907013117, 0.35603131570145813, 0.41989662693650903, 0.3392804533100232, 0.0789652503456351, -0.14709619710193345, -0.034542074576209836, -0.0697876198439061, 0.13516955496053842, 0.04350426611703344, -0.45650154151169187, -0.29445693722732075, -0.21100045149954552, -0.02857553242366194, 0.21312467306195768, 0.39564422971763624, 0.5676192229571402, 0.6370881955497185, 0.9314943942897176, -1.1105808122167102, -1.0732828239200076, -1.6460052856096294, -1.569661916715887, -1.5342247497072883, -1.4671963116438513], [0.4746101705724466, 1.32378113758678, 0.17834992870853564, -0.5329693445890061, 1.0449488887585647, 1.390833925651396, 0.9217078505960976, 0.03706985505268348, -0.6246175064477071, -0.10995612194457256, 0.01830689020844655, -0.19986691656803182, -0.4216887794433478, -0.8890350904144831, -0.5008734444746062, 0.6032343296094855, 0.9831619159976741, 0.5374116416269173, -0.4937113359535321, -0.9707816764575454, -1.7830130537179694, -0.9932886423072321, -0.46166802528039863, 0.031083735583545588, 0.9038494239364293, -1.341038699758185, -1.292673106094541, -1.2731611971751866, -1.2017624569628118], [-0.16624614553089684, -0.027672185310557144, -0.021875141367434854, 0.11126319797564917, 0.03724436812258081, -0.1741369141536951, 0.14663779804088112, -0.11890766055293113, -0.13275958609745164, -0.00860251384847026, 0.06958367580293198, -0.006091782189521892, 0.06622168768770353, 0.10709214231415867, 0.03453947892867917, 0.0963068461278893, -0.07992588579969077, 0.11622724402026385, -0.1854813309650272, -0.13457155116841996, -0.14322784658196472, 0.14460876952137422, 0.054520743533067434, -0.11129911503515796, -0.08455281315976239, -0.22340919576470977, -0.11029481142759323, -0.06370493859843673, -0.1158565398051072], [1.119845477084676, 1.2034875196454609, 0.3094749415612319, -0.35082890666634325, -0.10057697048732649, -0.011391740657964016, -0.08027101803572118, 0.23590969525671326, 0.3364386897910181, 0.41294192034800076, -0.03352707318857132, 0.09551297655726224, 0.6902073546083276, 0.030252469563244212, -0.33550273531253944, 0.23456779106334943, -0.055858370630241766, -0.20751414699950535, 0.4350500829594359, 0.031325452835612055, -0.1231931107821169, 0.31167303982797145, 0.27201369875962245, -0.6927505260135839, 0.18743922690019196, -0.9954574785383007, -1.1741925795976136, -1.3423601818002664, -1.5037523968475488], [0.7000915368529872, 0.8134799322543759, 0.4962920612619111, -0.20839895702521088, -0.22528101905000003, -0.43775234769690397, -0.5014106160631345, 0.1251802372094182, 0.3053969361356848, -0.3008991715083015, -0.32107319705826004, -0.2914510730519856, -0.6893055908006466, 0.293007033425234, 1.0039223686660206, 0.985139086524588, -0.10027648463963398, -0.3001897839671961, -0.24213641161333743, -0.6321091991325242, -0.4076358088426066, -0.6761194857676328, -0.6382587061022317, 0.32014494629858437, 0.9013783724662447, -2.3441942825889024, -2.165047061937176, -2.0225491950457655, -1.8821015823300091], [-0.0880826935172081, -0.05313335359096527, 0.15561921894550323, -0.1575450748205185, -0.05890528857707977, -0.17017817497253418, -0.1641099750995636, 0.17572112381458282, 0.03812003135681152, -0.05100788176059723, 0.13919849693775177, -0.0860617533326149, 0.1630614846944809, -0.17679648101329803, -0.08236684650182724, 0.10366444289684296, -0.14548859000205994, 0.17245091497898102, 0.14672081172466278, 0.043659210205078125, 0.03638090193271637, 0.1374276727437973, 0.08408676087856293, 0.04850451648235321, -0.059621661901474, -0.05443882942199707, 0.0905468612909317, -0.11442187428474426, -0.07423833012580872], [-0.317587301113177, -0.02572175118268329, -0.16491334413843897, -0.0898790278939149, -0.016182680411476243, 0.12766320645647888, -0.005458949270124609, 0.11298006873245856, -0.15404365195619416, 0.11696614350866621, 0.13726741966161035, -0.12045321937239711, -0.10876762770102782, -0.055862382295261435, -0.09325754396807032, 0.02891520076151665, -0.005037079177302749, 0.15117722903560538, 0.11627225784865489, -0.05728037243599438, -0.20174096543283596, -0.1954169824486068, 0.09579002220834477, -0.2164849501534251, 0.12583276525608195, -0.1780775742306145, -0.2707397235957484, -0.18466040880930637, -0.17952941226824537], [0.48015304117380286, 0.427286096608074, 0.10024365698194647, -0.16218584484399778, -0.9676141771624418, -0.7542165801696193, -0.5595662171341844, -0.2851239068377355, 0.30011122772611215, -0.15142649818111115, -0.7531321204589353, 0.25129317373792226, 0.7881248820216122, 0.14457077864269602, -0.24167797618376632, -0.17851176697231086, 0.1737710223418922, 0.23341362864014392, 0.4062094898166419, 0.09579255673375671, 0.14306260326080156, 0.20962157937201187, 0.1810851010329184, 0.3326821574314454, 0.4599410025625538, -0.98605714651716, -0.9656058692302316, -2.051292321614104, -2.073284447055806]], "layers.0.bias": [-1.4125737996313963, 0.08490912616252899, -1.0474455187555158, -0.43120599967789924, -0.018767401576042175, -0.4517216564595713, -0.01636984944343567, -1.3019629513091235, -1.2845593609573154, -2.163469220002474, -1.2121172325930751, -0.14441390335559845, -1.6114162134564218, -1.66550106816634, -0.14239637553691864, -0.14342042803764343, 0.03171819448471069, 0.09960956871509552, -2.3014396416809975, -2.6661448520961946, -0.33637342966118977, -1.871688633412526, -1.422472185827316, -0.33842214111461444, -1.5032221901455172, -2.2503995810517146, 0.032543957233428955, -0.1601696064588452, -1.2186067719642735], "layers.2.weight": [[-0.32066015246954294, -0.15669022500514984, 0.4037235884350496, -0.09085598417274703, 0.15781264007091522, -0.17179790046235377, 0.14483629167079926, 0.6147126956271535, -0.4239426939974707, 0.30742333886720513, -0.1914134964001717, -0.017731696367263794, -0.09578397308411332, 0.0023966105962084086, 0.16853837668895721, 0.0050536394119262695, 0.1118801087141037, -0.18456467986106873, 0.3277275969826876, 0.07169784485688889, -0.1661581459619422, -0.18265175080789403, -0.24610412299645185, 0.2620997743817515, -0.2604339949721461, -0.11969406772094025, 0.11049754917621613, 0.24930605317674023, -0.11741820506800456], [-0.3102097519989701, 0.10517920553684235, -0.23557241991756797, -0.2687323238342943, 0.09839998185634613, -0.3058221360434781, 0.10792426764965057, -0.25879019839920075, -0.24737916983441477, -0.13670982200997248, -0.09421969564009681, -0.021156638860702515, -0.09589236266570068, -0.17594061092064409, -0.18375864624977112, 0.08366413414478302, -0.1655779629945755, -0.1072879284620285, -0.23892851163648007, -0.04386955563134497, -0.28326109391836163, -0.2518346062861355, -0.16484026075458402, 0.003460492219969111, -0.12143258119227424, -0.13967259351525096, 0.02041676640510559, 0.012577041983604431, -0.14500103852300547], [0.16902204267988696, -0.17972619831562042, 0.3661097762672696, -0.2803612065467892, 0.11194466054439545, 0.14422746633111108, 0.0909767597913742, 0.7268281775600047, 0.28882367478696647, -0.02420775453066513, -0.02928061233774559, 0.02490861713886261, -0.21963170486311995, 0.05339649723320214, 0.1509995311498642, -0.09361480921506882, 0.15801472961902618, -0.17679108679294586, 0.03724630997551636, 0.16421374663206845, -0.15672695256290547, 0.3967959507211033, 0.29724782652518383, 0.005735635114178795, 0.7291334808364638, 0.42219142687518135, -0.05511873960494995, 0.27092739608759364, -0.11521385184804195], [-0.3415500188278192, -0.014470145106315613, -0.222948057568339, 0.025970962427418, 0.16176100075244904, -0.02290769512481132, 0.0007999986410140991, -0.015896483682179448, -0.04811267008890452, -0.32372180760147506, -0.05192443041878965, -0.1508435606956482, -0.3286262302610966, -0.01445203489311453, 0.07890842854976654, -0.15108376741409302, -0.027494266629219055, 0.03977271914482117, -0.052341008875903, -0.2647843296462062, -0.10835492089608044, -0.26439471840094325, -0.14742254948770872, -0.14804572569474034, -0.06270784908070912, -0.3046302854859244, -0.02372094988822937, 0.1694188266992569, -0.0954720607772199], [-0.09860136207821873, -0.11426641047000885, -0.11787106874063695, 0.10015608370304108, -0.14922156929969788, -0.0992824664262695, -0.06893040984869003, -0.10487116873264313, -0.2913396341377315, -0.0037353137897488215, -0.19349003823794753, -0.1404927521944046, -0.1597905457019806, -0.25340080224088046, 0.14967624843120575, 0.09194736182689667, -0.08517124503850937, -0.08992793411016464, -0.06727775824398864, -0.1279858648777008, -0.02715301513671875, -0.10579222440719604, 0.023507504370156928, -0.1246304139494896, -0.10725842416286469, 0.02981590813897493, -0.06068982183933258, -0.13463330268859863, 0.04793313165457477], [-0.8909027797011143, -0.16497373580932617, -0.11515486856649114, -0.046779205002716415, -0.04554489254951477, -0.1851524609218845, -0.1575036495923996, -0.005363685304872347, -0.5368688890822526, -0.4587347214248623, -0.8618297860335582, 0.12369976937770844, -0.9315629099908079, -0.6684496836524841, -0.1530894786119461, 0.046460315585136414, -0.11552637815475464, -0.0026790350675582886, -0.8487003915221446, -0.1487110545617492, 0.21558327451556186, -0.7162340257615852, -0.7608821810974971, -0.09750586390759235, -0.5307991768159382, -0.81727522474859, 0.06126892566680908, -0.1553979068994522, -0.6064820742996143], [0.1967548400613915, 0.18472124636173248, 0.4854128447755195, -0.16885825380788014, -0.03858816623687744, 0.03993413707823672, -0.02931821346282959, 0.45869979011345746, 0.09957500796628219, 0.6614924021268952, 0.05450577163446745, -0.12026481330394745, 0.7032099449655761, 0.10067309297866531, 0.0018533021211624146, -0.030537694692611694, -0.11585424840450287, -0.17165546119213104, 0.012001826582389878, -1.5102877674244009, 0.12343375573789805, 1.2935357951910793, -1.2073760151284165, 0.059967999600741125, 0.19984936970277328, -0.6805402672952142, 0.02450062334537506, 0.31295838953864885, -0.6101178316079908], [0.32588233638243863, 0.16453029215335846, 0.38699552403959997, -0.01165078829473034, 0.14164958894252777, -0.14423377713195293, 0.04764772951602936, 0.46698065145075324, 0.5517136531233877, 0.41234490947937097, 0.15307763856982537, -0.14073020219802856, 0.07079393055985919, 0.31886845745127784, -0.16129332780838013, -0.08113434910774231, 0.060560986399650574, -0.17888204753398895, 0.5117136109044309, 0.25055706642664105, -0.06243333721081195, 0.22957590189024038, 0.20001130977603002, -0.002147517099942278, 1.0988906301705121, 0.5483243675246513, 0.14214812219142914, 0.09380634128521767, 0.15057349332382813], [0.0011533298251512208, 0.07140748202800751, 0.047937769273571046, -0.06180994423319622, 0.08632497489452362, -0.029415816068649292, -0.11913499981164932, -0.04040160425306879, -0.2475782096148449, -0.26020253021594536, -0.1677894729723703, -0.14620846509933472, 0.022010837780191667, -0.07289136958249094, -0.09571874141693115, -0.10326933860778809, 0.10300780832767487, -0.0870685949921608, -0.07621295718250985, 0.0052213110140948895, 0.03949802829438756, -0.13182771101048, -0.1575260457763108, -0.15108197870566034, -0.06506875647541716, -0.07784303279643376, 0.1542903035879135, 0.06289559602737427, -0.2474170366379489], [-0.2785684630858668, -0.17091813683509827, 0.6022832955799544, -0.06738156084974715, -0.17772608995437622, 0.058869064306112266, 0.13389353454113007, 0.5124575569417611, -0.7800694802757179, 0.7534731298278401, -0.3546858078566026, -0.05315883457660675, 0.4097239333113632, 0.7980860434660682, -0.16407272219657898, 0.10217602550983429, -0.09129894524812698, -0.10237439721822739, 1.7354181103512685, -2.1080006902733066, -0.13825809763881391, 0.9451572972001966, 0.20731623107838335, 0.215863903656558, 0.3294669777192022, -0.8144029416215453, 0.0472586452960968, 0.2058678528504429, -0.2135631744833749], [-0.06372394420874637, -0.00912579894065857, 0.4439326553484565, -0.08481299053312548, -0.1833321452140808, 0.09482186385313651, 0.11319367587566376, 0.5722849750193327, -0.10592212050159232, -0.016935818565478565, -0.07261859991997024, -0.11347409337759018, 0.04774279533600348, -0.18943664792480785, 0.10875828564167023, -0.08183043450117111, 0.07808591425418854, -0.062227778136730194, 0.5750058090066325, 0.09214676361185614, -0.17580238673152104, -0.11367345907433042, -0.09794050361149129, -0.005569326007999567, -0.13185436646381082, 0.09479954580858459, -0.05608491599559784, 0.02273712814647351, -0.17078131338946287], [-0.1939508001879677, -0.0923144668340683, 0.5809834590760475, -0.19628566966837882, 0.17280764877796173, -0.12837519687598536, 0.11360438168048859, 0.479549671424832, -0.17113031184259428, 1.5089702601597894, -1.0706295317404713, -0.09008311480283737, 0.5425053369740103, -0.06865926127026618, 0.10928042232990265, 0.15082035958766937, 0.03291742503643036, -0.06451231986284256, 0.8996548685071525, 0.8905170059735963, -0.008781652586050528, 1.1386170497577146, -1.43515967818713, -0.028043730419242532, -0.17747986866326756, -1.840891631891625, -0.09822338819503784, 0.14731856368470048, 0.1881885373592693], [-0.2839661898800735, -0.1843302845954895, -0.17977070808410645, -0.11234380304813385, -0.042719513177871704, -0.04552125930786133, 0.04183487594127655, -0.22171937243754178, -0.1680350137692051, -0.1574847549200058, -0.07326716402310994, -0.09273906797170639, -0.2706549906254515, -0.18747390536778094, -0.08959610760211945, 0.11675776541233063, -0.08076922595500946, -0.019472673535346985, -0.19154498552805282, 0.014377363230879485, 0.022491753101348877, 0.04895346366242353, -0.1163416480927003, -0.09867873787879944, -0.1027551960887077, -0.11139761789254053, -0.16085095703601837, -0.1317075788974762, 0.04774194801234992], [-0.13169941843501992, -0.10823874175548553, -0.062021711901382386, 0.12143494188785553, -0.021469920873641968, -0.010677198316077502, -0.12043382227420807, -0.09047320708464728, -0.14662997884200962, -0.24442665713669082, -0.054843812810102255, 0.10876564681529999, -0.07250189031654931, -0.12061098217964172, -0.056732743978500366, 0.16094060242176056, -0.09830436110496521, -0.14930826425552368, -0.17475521138396652, -0.08068850198275945, 0.16624464094638824, -0.19495499075905973, -0.21979688832749852, -0.07826036959886551, -0.15822843646275583, -0.22232892163617082, -0.12058138847351074, -0.11226335167884827, -0.25651150469551415], [-0.13155557163684423, 0.09160669147968292, 0.58695177729896, 0.14282930372589422, -0.06123180687427521, -0.19684277548447432, -0.12909160554409027, 0.5262295563359548, -0.3850520054587532, 0.7810456351985973, -0.28918474891463436, -0.1122046485543251, 0.903278829739473, -0.141793865598707, 0.10219763219356537, -0.0941212996840477, 0.10746268928050995, 0.14168734848499298, 2.042907109756724, 1.6733704515265477, -0.06789356626764634, -0.6795394399271596, 0.07357080894741297, 0.10908546169789764, 0.36629690817331373, -0.015161120461095225, 0.014486953616142273, 0.022322986024542697, 0.2671205443820741]], "layers.2.bias": [-0.6371210167912154, -0.003843213925676816, -0.28686288746048805, -0.01257444940965388, -0.2216936376735687, -0.4590853976776177, -0.9785921005113153, -0.24468070371468403, -0.16492455715754994, -1.01184977215959, -0.38125681148257295, -1.143464794260893, -0.051260709696587414, -0.10628010739677378, -0.9848731897451259], "layers.4.weight": [[0.19306885784873096, -0.09581548158942724, 0.3974610770326786, -0.08357193544128755, 0.08582139750408553, -0.5178921644944208, 0.16075995809606158, 0.704174469421896, 0.10259752597728039, 0.26967624415269165, -0.12406312882507466, 0.11969700974988695, 0.131599239613654, 0.025732128490417516, 0.3034585118995426], [0.18676202915613888, 0.14975913167973628, 0.11940039578789707, 0.1673228283385143, 0.17164992365750206, -0.23751879340553725, -0.20010277758073614, 0.3236382738655709, 0.32579647537350165, -0.17430715639466476, 0.23549796658235336, 0.12288566260985885, -0.01558186570256466, 0.23412277129545042, -0.1846308104785717], [-0.10727656489691904, -0.2078442178014335, -0.07344737268487897, -0.07448259456107831, -0.14248058199882507, -0.3244178368413552, -0.3019715025188237, -0.2919548826871751, -0.26264798274686635, -0.3277493434372461, -0.2867581988977314, -0.07232066757228432, -0.024173855781555176, 0.1745983362197876, -0.16622284788172012], [-0.7673357372739271, -0.06841836869716644, -0.4487578622316053, -0.13552285730838776, -0.1993684023618698, 0.06596198678016663, -0.7474374054802743, -0.3944590095674798, 0.18533632159233093, -0.6077214715418857, -0.6040763302427727, -0.7177187870470808, -0.09978456795215607, -0.07162243127822876, -0.6203494659189579], [-0.07235201536536513, 0.04078414716763318, -0.3377579036798505, 0.039491133409012016, -0.35939933090185006, -0.0843366313997173, -0.025226778408486174, -0.050777907119237145, -0.07605494603689117, -0.3400909567859965, -0.21079462724271195, -0.16846876455482088, -0.007523508301931015, -0.23466214537620544, -0.21145360088763882], [-0.7949336197952194, 0.15990373492240906, -0.41059290185412406, -0.012502804398536682, -0.01766514778137207, 0.17464745044708252, -0.4460535690406122, -0.7211495257270153, -0.10311675071716309, -0.7664900440076922, -0.8448530653709501, -0.5303069836396064, 0.1171015202999115, 0.2530745565891266, -0.6882346007852428], [-0.4169373619614815, 0.251796156167984, -0.4298636416333706, -0.2023645043373108, 0.20464205741882324, 0.05483385920524597, -0.4016972845198388, -0.6542443878950465, -0.2041405439376831, -0.6394743706381677, -0.585345999001151, -0.7658943311257417, 0.059383004903793335, -0.12781491875648499, -0.7498289714734759], [-0.40199926132541514, -0.1760263752526041, -0.1733400681310938, 0.03964130655824672, 0.20562729239463806, 0.09268195695134265, -0.18644906209389367, 0.009280320856426294, 0.0036457901250680565, -0.03286547231540211, -0.377982615138038, -0.33191985013164643, -0.1538838661974256, 0.08119896054267883, -0.03989809381154747], [-0.281050791825418, -0.26343702902730975, -0.17796481411922102, -0.30756458554299115, -0.037684857845306396, -0.0794291110544938, -0.05579233685532668, -0.27907207671171264, 0.057119170049321606, -0.31612134731340563, -0.32293030800988215, -0.08168431029811467, -0.23601841926574707, -0.05293203890323639, -0.3471776206334959], [0.17421593960980195, -0.00458082255169544, -0.5643343377875116, -0.013875785326839998, 0.12306931396415548, -0.043366209596037646, -0.15662344559995175, -0.23185527786424792, 0.012825000049211575, -0.15807486341437238, -0.06158782559997105, 0.09033700215441372, 0.06951533271009006, -0.09536853180017191, -0.09601799940706308], [-0.11959002912044525, -0.2013167291879654, -0.5641472407658654, 0.1727106273174286, -0.0005887746810913086, -0.08780045807361603, -0.8039870316358986, -0.5428160386259819, -0.16916275024414062, -0.7477100147509907, -0.8298726066007645, 0.12665945291519165, 0.052154719829559326, -0.17222237586975098, -0.05753912031650543], [0.03178203105926514, -0.17496468126773834, -0.33171145016825887, -0.0944492518901825, -0.1875314861536026, -0.16797462105751038, -0.41421724100536395, -0.42358108810160117, 0.18896567821502686, -0.30761609974602466, -0.06733353435993195, -0.14647190837959437, 0.12844231724739075, -0.03359900414943695, -0.1382528614691094], [-0.8118466650769967, -0.009421631693840027, -0.5090404793672656, -0.02694930136203766, -0.15959402918815613, -0.07859142124652863, -0.37211368986747134, -0.5989287551452825, -0.17140673100948334, -0.49794713933917706, -0.8231783853780271, -0.594027909489713, 0.2095385491847992, -0.06639684736728668, -0.6645030516492135], [-0.4113114741949585, -0.12569783420596087, -0.038528734370329984, -0.20537504413148427, 0.13251649902645285, 0.07879707208291527, -0.12294457613295953, -0.11600754441544724, -0.20923558199832537, -0.11279134100828302, -0.04432560725380072, -0.3879112177680659, 0.11705309911653865, -0.1144612580537796, -0.10692611536837159], [-0.12218908530316486, 0.0013868856146361506, -0.22120632727893588, 0.07392960683414579, -0.05787897487400292, 0.06595254632522483, -0.4940911005158037, -0.4972595796004492, 0.00475616277505747, 0.28041709862125835, 0.06186714152524296, 0.20000991466321486, 0.06383695358414715, 0.10671418522345334, -0.13293215724870108]], "layers.4.bias": [0.7453342844599012, 0.15760397135561896, 0.021518337110199875, -0.8087202778936081, 0.056925438161107636, -0.8316830796859747, -0.7817028646477401, -0.14715483977569013, 0.09014331083279536, -0.17196266439565447, -0.7054015114818535, -0.31972601805460665, -0.6489397116240555, -0.27387807262840197, -0.3147042700691055], "layers.6.weight": [[0.510430628266161, 0.18757807159065018, 0.04293021504034056, 0.5490487574787504, 0.054564412609118235, -0.499034525093549, 0.5628968012633048, 0.019987812275678862, -0.06703226900675739, 0.0207441778008035, -0.3040844652928541, 0.12707390763449009, 0.563195106291444, 0.030377042975277026, -0.06009538491097211]], "layers.6.bias": [1.5484968225204538]}