{"layers.0.weight": [[-0.17513597011566162, -0.03161543607711792, -0.09178469330072403, 0.03419989347457886, -0.12204392999410629, 0.05577486753463745, 0.011737674474716187, 0.041121408343315125, -0.11335063725709915, -0.18288223445415497, -0.1778179556131363, 0.160972461104393, 0.04731312394142151, -0.09852597117424011, -0.10633186995983124, 0.1342618614435196, -0.03917230665683746, -0.11426734179258347, -0.029088094830513, 0.15755070745944977, -0.003125518560409546, -0.1834256649017334, -0.07382189482450485, -0.04166935384273529, -0.16504566371440887, 0.019199147820472717, -0.07630276679992676, 0.17310695350170135, -0.059222206473350525], [-0.16416491568088531, -0.09365822374820709, -0.17822839319705963, -0.0026588737964630127, 0.026027604937553406, -0.0358988493680954, -0.050866201519966125, 0.030279964208602905, -0.07144630700349808, -0.009104549884796143, -0.026484087109565735, 0.1635311096906662, 0.0800849050283432, 0.08697636425495148, 0.16222678124904633, 0.12151609361171722, 0.09577436745166779, -0.02780039608478546, 0.15844930708408356, -0.06403246521949768, -0.08261287212371826, 0.09311233460903168, -0.17346099019050598, 0.09747852385044098, 0.13438425958156586, -0.16311287879943848, -0.01569749414920807, -0.1019488275051117, -0.09328316152095795], [-0.02888917872588713, -0.028754960633334277, -0.018507935186174655, 0.12985442248059703, -0.005599064211608028, 0.0861990520052143, 0.02441255424162004, -0.007176415958715971, -0.1806933911816568, -0.2565447532235886, -0.04298218375704034, 0.044177542295158, -0.009948274277614383, 0.09788502943690652, -0.03619918097645705, 0.08794812777282668, -0.12042375921605054, -0.0029469511663014784, -0.09952082022253733, 0.06575731536504734, -0.026864747728368082, 0.06977867305974511, 0.15559781762291067, 0.10370682602390949, 0.18372683907854745, 0.09493012401470813, 0.015930332610560066, -0.37282010765102275, -0.663089364938752], [0.6442644158494051, -2.729963499040433, -2.1010305932911972, -1.3189882543843898, -0.3186868494870048, -0.24082946001496558, -0.18110255951674334, 0.017102390772189602, -0.18349948449485576, 0.5329818202949639, 0.7571361174668856, 0.4072444428321727, 0.10326956130321496, 0.40488608054211694, -0.3322216301360816, -1.448499852520628, -0.8738384326794497, 0.7075507667179982, -0.2980072610753052, -1.012075714869642, -0.29744946493682295, 1.3234993692693984, 2.900295161377153, 2.7055715652881958, 1.30616643043756, -1.8029491398462785, -1.6850493071961998, -1.616739554399915, -1.5719534183981194], [0.05833455730400537, -0.05479011385042207, -0.2927270347955143, -0.36944863105905146, -0.11862774707342934, -0.3196647948008984, -0.03518697686683846, 0.08410412348692518, -0.11961304802794458, -0.08851386621565432, 0.12545206826635927, -0.09200960156153423, 0.04366316689021714, -0.35032164885639605, -0.20421992550834717, -0.12828082635878887, 0.03147778355169935, -0.0212906547608477, 0.37456765703706013, 0.6373573352319248, 0.35267998014976365, 0.1867736152185964, 0.32876413341606975, -0.2030234793065715, -0.5136640930207491, -0.5770682617995783, -0.6812324553565282, -0.732731220613204, -0.6339062119085819], [1.020414790857037, 1.0544156374504594, 0.432235219270384, -0.154316674774148, 0.05123527454919738, 0.07366927604116677, 0.11079324014549154, 0.07310258592498296, -0.024425303394076427, 0.21670935257778431, 0.11405509289305797, 0.0017631827000609691, 0.42141327989133504, 0.13147295570953507, -0.28067237368202286, 0.16543862782768934, 0.230246821219793, -0.2149346944163196, 0.34660202205379237, 0.2855735067402966, -0.014376809225899173, -0.08400897169315805, 0.4134682867468047, -0.0027896709326883135, 0.43905693553661074, -0.9568520265633843, -1.2040466017578009, -1.2641092664383202, -1.4231035289531597], [0.8177309000884155, 0.7963802817283953, 0.08426531465820615, -0.32117580170386845, -0.25256050277573644, -0.12574450218553665, -0.02372890515443376, 0.08585539036019893, -0.06592972819485575, 0.13098066820299603, 0.09926629512685481, 0.0028021855293062993, 0.4133011819998185, 0.08743496277380325, -0.1955973650433309, 0.162430555542967, -0.08635756137306108, -0.4658943916742748, 0.23454441141725196, 0.11265672685909063, -0.058858402359985296, -0.1765735679537927, 0.3910423629973744, -0.24368809883686304, 0.34416702840220137, -1.147541160564184, -1.3095407204802634, -1.312453754435999, -1.4329561319155708], [0.5791185418439881, 0.15884593770424332, 0.1496217556103388, -0.14591966228791062, -0.5581967050196986, -0.6788818855393114, -0.4143024784360942, -0.2890903707650014, 0.5228463656671185, 0.049601074307999746, -0.2790577120828578, -0.12205250531461193, 0.11467042174739774, 0.06312833291090576, -0.18406218212133746, -0.24291771705323642, 0.10710386627120921, 0.005143491072266988, 0.2410441478231635, 0.13762698591096897, 0.27829253611633464, -1.0540840684830144, -0.38253005057678263, 0.012871869246229196, -0.16232975364504212, -1.2866878856896022, -0.29771253903894146, -1.2985138125388584, -2.0482516841517064], [0.7134761906616977, 0.8570420516424696, 0.24050205240609193, -0.09789392434640769, -0.03815889265329237, -0.35479810790722743, -0.13632413875825108, -0.2486036043970462, 0.10416905566504961, 0.1855589596808963, -0.24857547920992543, 0.059333340560278405, 0.1753865889127986, -0.16917474965105428, -0.347800062367819, 0.052433998635867445, -0.04214058639403751, -0.35272508840733036, 0.2528802338061188, 0.0697474418172716, -0.08301469803024936, -0.18853172364454202, 0.1987219964466641, 0.026191324981333287, 0.3629251740583966, -1.1984708597301514, -1.548930092473953, -1.4880433536839794, -1.62971950526717], [-0.040347086270442103, -0.08899323306836505, 0.03429383946698312, -0.15030176382098417, 0.08650075557862616, -0.008666899730274402, 0.03276204438429086, 0.008120145598563238, -0.1241937822068611, 0.19687143579546632, -0.024012616580915476, -0.10590753212153824, 0.0004792248452375059, 0.13498570545488858, -0.09356746312373113, 0.08624841539132162, 0.19215117933588963, -0.04747454426678327, 0.03124356728897133, 0.13739553901088655, -0.11824759788032276, 0.08616482369952208, -0.08798879511474186, -0.08141871986509025, -0.15245748434721892, 0.065573821922863, -0.2894368676702397, -0.02726576979956306, 0.12473356018632847], [-0.09272507578134537, -0.07384781539440155, 0.14284901320934296, 0.08128724992275238, 0.16221271455287933, -0.15780046582221985, 0.02044181525707245, 0.12074731290340424, -0.07538753002882004, -0.14314964413642883, -0.17019326984882355, 0.11722509562969208, 0.0037061572074890137, -0.044253766536712646, -0.09431152045726776, -0.09788288176059723, 0.029240891337394714, -0.08490905910730362, 0.18223340809345245, 0.039095908403396606, -0.04379436373710632, 0.1628303974866867, -0.022388190031051636, -0.14939270913600922, 0.16296862065792084, -0.04812884330749512, 0.1436353176832199, -0.12471368908882141, 0.040716126561164856], [0.7584823233413378, -0.034935710462501025, 0.2333662604207545, 0.2991684587030618, 0.011063419845184915, -0.3516651140678929, -0.173919918251409, -0.008000234698787722, -0.03999482363214171, -0.25389618537663233, -0.1987297684052737, -0.5369881269422038, -0.061709654163291744, -0.05221122117415332, -0.06763675856171758, 0.45593313038649996, -0.060815222381500625, 0.07977105182274154, 0.13785641431548384, -0.003550981666407726, -0.029809051848902986, -0.5381978781006547, 0.018400470569740347, -0.5975802187019316, -0.5480199719488177, -0.5038229508914506, -0.6734718795173082, -1.315632645964595, -1.9423075315540907], [-0.2068412709569015, -0.07116079597062629, -0.1891759740858893, -0.07886028575856704, 0.05389551631247716, -0.1656103960105435, 0.08901854453828363, -0.23586060582733817, -0.03459474711114143, 0.04706993421187389, 0.09425254865558523, 0.08226272218304179, 0.09452683316339806, -0.0350235271578473, -0.07919048216654939, -0.009665025602576751, -0.20251746541235283, -0.018503660620869174, -0.24265561130157806, -0.18277011009959754, -0.24831388909069818, 0.04904676258742109, -0.036451757068748404, -0.1710162109826799, -0.20766627931007406, 0.09456563456183373, -0.23029593064263001, -0.17073087999660963, -0.20272780389901038], [0.5685711079618341, 0.8076854098905459, 0.35703761633083, 0.19674107708626834, 0.07586018658426344, -0.23688143989564212, -0.9937090627817345, 0.13152730462341694, 0.7299222138259851, 0.04293157071583761, 0.06840347162872222, 0.5411190562521191, -0.02076529899505841, -0.5400283440375836, -0.720191877395435, -0.7701473049457592, -0.2979819708978875, 0.5499660983058755, 0.5528664578234034, 0.28121823042100885, 0.03172590275901044, -0.3329203426687713, -0.052266644977371726, -0.22830263970008013, 0.17821235500024923, -1.6061827603432932, -1.580019083660168, -1.5182084873888932, -1.548412918037606], [0.5684071264976016, 0.40313360730975983, -0.04243310462953872, -0.18548331304424706, -0.10307093364019858, -0.2665623523492523, 0.24718554133316858, 0.23881589395685998, -0.019075896608076473, 0.22492512289055988, -0.182092602164444, -0.035026023327824424, 0.6116000929503905, -0.15087081345299722, -0.4429914176379181, 0.07944567737089599, -0.2371979985713369, -0.3111306572469723, 0.2443588834537684, 0.502701355324272, -0.36480656405660317, 0.12775641278904343, 0.6414893143608217, -0.14858613350123895, 0.10169408105910417, -0.976321191418215, -1.1516290102229545, -1.4054618410020983, -1.5879960694940118], [0.6084280830353684, 1.2415198830872711, 1.0484433898127887, 0.8174566210621987, 0.9029546831673517, 0.730005610472555, 0.5751944790327186, 0.22166484301804967, -0.2370611695489353, 0.10940871956367178, 0.3919725258202788, 0.35982305184837937, -0.31237376167152825, -1.091527133462046, -1.0422143769732763, 0.7719215479175754, 0.057000685411805876, -0.31263146667113795, 1.095710940444284, 1.1530347950723032, -0.6016658790864196, -1.894457784309695, -1.6763992030264214, -1.9175985362767793, -0.5175248232738723, -1.724905061512055, -1.6085505221921983, -1.5408229024230353, -1.5087821421392844], [0.8431222134017665, 0.1564506666747388, 0.20867650969105256, 0.20974341913714586, 0.16028600437161195, -0.230817194913487, -0.3557836693680383, 0.05110169430061906, 0.15893195683702635, -0.2538829489263308, -0.04540031771747624, -0.17714632564820687, -0.45082902137623904, 0.19629819911217122, 0.2923127836552774, 0.39056732571864433, 0.04965887588421948, -0.17796462495880128, 0.07917621729216959, 0.13927061692794498, 0.3303359678657259, -0.7654395637885792, -0.05529571671711146, 0.3865160665484291, -0.07493787337364562, -2.3270115036368306, -2.17904467732856, -2.031066468608492, -1.8767806513683793], [0.9251880220083784, 0.9107061573822394, 0.32783948900857707, 0.062260368136683654, 0.13138411171420245, -0.13902135605948196, -0.13517118497067307, 0.18127959259069612, 0.1493096554903569, 0.19494472305605495, -0.07061037203493918, 0.038439652136766846, 0.506154068679747, 0.1423365541736544, -0.16856416423924117, 0.19356606135378326, 0.04343300393503744, -0.3269216843355142, 0.3282811569089262, 0.16537724778593574, -0.20255814037953904, 0.014480436429641306, 0.5779710830891865, -0.024160959958823783, 0.40749150333750866, -1.0126678104836067, -1.1764245553185577, -1.2547574935806787, -1.1377797355630628], [0.46814108719585085, 1.7096381150243254, 0.17733754827060633, -0.5335277394988354, 0.8424519064407014, 0.8752413556787509, 0.03318761646674823, -0.36726125120359526, -0.3272423775783052, -0.6213013731485544, -0.5192075909119902, -0.6565025329954461, -0.5985403993984885, -0.053301113483029676, 0.5941931455130728, 0.8356446896447639, 0.2945697977376662, -0.3932926345432847, -0.7917503597521794, -0.2862613469627253, 0.7658895438684309, -0.5184882341628361, -1.6966093798642188, -0.44364571051992535, 1.2097748069191916, -1.505820147225552, -1.2355775880541138, -1.1396387846723595, -1.0822657456426796], [0.7145841259190346, -0.8893376917318198, -0.4211958635909856, -0.21177759489943884, -0.12093425088778277, 0.2554991312500796, 0.2928220077074309, -0.0672190763158778, 0.3969714240214015, 0.11732909047547199, 0.0332097972138848, 0.31081870999574535, 0.6552990221397234, -0.2948399196865146, -0.9132905373977386, -0.48533843960579215, 0.09664935319153387, 0.6723813304396188, 0.4240314001102279, -0.050296124980926976, 0.17806716587858998, -0.2332527938553375, 0.5789955675453564, 0.467845642923442, -0.6850284183832202, -2.281654808469437, -1.7746469840811756, -1.6824608902460763, -1.6303027752425043], [0.8413529697919969, 0.10962772771175025, 0.13613764990203336, 0.276754760739874, 0.1978238343543982, -0.028188634201052495, -0.5879345708402314, -0.2019674109649462, 0.20738669441770344, -0.11897881777819658, -0.15678334550048742, -0.22907803552072759, -0.43272641473893625, 0.3505433652231219, 0.4295989187234938, 0.07719641821176099, -0.382121491045886, 0.33226597363122484, 0.24125810507380532, -0.16355274032648295, 0.18805179464090538, -0.9595637385260476, -0.0632299940795798, 0.5092238218442436, 0.12940137884625116, -2.3296426880691494, -2.1849182721045937, -2.0797508928721107, -1.9777348159282326], [-0.16070434667510278, -0.2676517899904677, -0.16306183760886286, -0.23016627248361374, -0.10941594269741925, -0.024286628357860853, 0.2268908754656453, -0.038677197294857565, -0.062092776594909395, 0.16290117533596343, -0.006315105989157929, -0.0900432858147033, 0.017342315976853515, -0.008954820268107766, 0.06979181929949012, 0.10175849607759399, 0.06440034930421404, 0.029492475517228518, 0.051652010570758425, 0.03867358315291811, 0.09213371157354605, -0.2438456583278344, -0.03782357288722192, -0.2785363538188261, -0.25962631732010394, -0.23116548368362566, -0.13534648468878188, -0.2756482405526706, 0.025133210040194975], [-0.06446672230958939, -0.02069471776485443, 0.05327501893043518, 0.045752719044685364, 0.1060931533575058, -0.153588205575943, -0.1354057788848877, 0.09643332660198212, 0.0410614013671875, 0.1640392690896988, 0.1813347488641739, -0.008730128407478333, -0.019566461443901062, -0.11658167839050293, -0.15814489126205444, -0.17728351056575775, -0.10025285184383392, 0.035044848918914795, -0.1511608064174652, 0.06575153768062592, 0.017014309763908386, -0.025881320238113403, 0.040051937103271484, 0.14965008199214935, 0.014172524213790894, -0.18495948612689972, -0.04879161715507507, -0.11391045153141022, 0.014956861734390259], [0.6857875835037829, 0.763235580244762, 0.18229433490499197, -0.3515552526527205, -0.3298844390110029, -0.1703739040651949, -0.38560836576612567, 0.0829531713149438, 0.17235582015626794, 0.316636667795722, 0.03857472413361337, 0.07041285474085418, 0.23941502281769714, -0.08764991668646863, -0.32177480340844006, 0.016867923676033396, -0.143376563930834, -0.5254961362825897, 0.03079684714741559, 0.17576176222039075, -0.1459305592491331, -0.23237323667569437, 0.17472963613067768, -0.036280426420252955, 0.3495015162362054, -1.3048066867737156, -1.4031186415571488, -1.4881739441359756, -1.5383499181466425], [-0.05596989393234253, 0.08389519155025482, -0.065595842897892, 0.1030646413564682, 0.12425719201564789, 0.14434097707271576, -0.014772310853004456, -0.015707671642303467, -0.05878472328186035, -0.18471616506576538, -0.13098953664302826, -0.13715851306915283, 0.041400328278541565, -0.10429950803518295, 0.1810799390077591, -0.15321794152259827, 0.1566978245973587, -0.14393219351768494, -0.08463073521852493, 0.06041799485683441, -0.049382880330085754, -0.10412069410085678, 0.008927777409553528, 0.0935869961977005, 0.14994217455387115, 0.16687177121639252, -0.16547074913978577, 0.043489009141922, 0.022162973880767822], [0.20690301795766708, -0.10830597922748368, -0.10318812079090946, -0.12533956230139834, -0.34112420352592093, -0.41136807703267464, -0.43126750691628396, 0.11302407270836203, -0.03078112334043884, -0.09104403856037717, 0.06659698547569709, 0.08342599706803105, 0.3427662711870316, 0.27874389315287296, 0.19294805921474473, 0.06467665759870132, 0.05882329204161982, 0.03973458501824709, 0.10132976890769439, 0.44492825217462006, 0.21137253225521108, -0.23107205238823514, 0.101744708904685, -0.10839174794875894, -0.01483668461911276, -1.0027434371014177, -0.7409437447515418, -0.5698708449016204, -0.8526183085320298], [-0.6250150038446517, -0.2676724856642112, 0.16464889007363004, 0.22966578248132924, 0.02510448382494263, 0.1331556344772532, 0.05412320869645068, 0.03627405072872458, 0.323050429702597, -0.09559920743766277, -0.03878617164118008, -0.08784291476065663, -0.4859988502776705, 0.5826686554969094, 0.8747872813213879, -0.3145052100897389, -0.19886762502401428, 0.4451783067048938, 0.0907278167139454, -0.16793432264573196, 0.6819291841680561, -0.5645514251056389, -0.1948457557586404, 0.7153723239116232, 0.3377422865788197, 1.9329743433896982, 0.7782277375633082, 0.9358219125559409, 0.6789129099351954], [-0.4543808950334179, -0.17204848968948097, -0.026806692827258092, -0.12431916080226221, -0.23360202944088698, -0.2010910668776882, -0.20503874634570876, 0.06876246121506259, -0.06766826056977933, -0.23878191031789972, -0.22540852363253622, -0.1166749926209647, -0.028109095973552167, -0.11545241773029968, -0.06508957345697026, -0.17481445072173388, -0.1472313311865688, -0.18270876039719786, 0.08029295555805396, -0.12001824775909026, -0.07518150526612728, 0.06682331021748326, -0.11934666561265331, -0.11626421618837157, 0.025375658603796456, 0.06367563059406174, 0.0007929503917694092, -0.1385558973444899, -0.14163152873516083], [0.5684508649800127, 0.507583632359828, 0.4179994164537822, -0.28300503929146065, -0.14991266718348012, -0.09552868000489641, -0.1368589118172848, -0.24356851907121993, -0.09487569768532401, -0.18031236438300913, 0.08162696163260587, -0.0725989954528562, -0.02528221970951054, 0.09946993819892576, 0.04719244358525202, 0.16675433478989277, -0.03817770872316778, -0.4747345172935166, -0.05458218879507009, 0.34735547449334114, 0.43102831499466987, -0.6602363390579115, -0.38748393320751295, -0.05845689198568207, 0.15571439813005178, -1.8554232454428505, -1.6182506960220506, -1.4999839807066648, -1.2616675519185057]], "layers.0.bias": [-0.04194055497646332, -0.007605209946632385, -0.2763132746788795, -1.932087897109267, -0.565401989857462, -1.2928007588023251, -1.4566989974839883, -1.1963735763834085, -1.6885724236913358, -0.08806251962030964, 0.001176983118057251, -1.2764468470052297, -0.29930217919794966, -1.6810410171255852, -1.3197829290633594, -1.5724190417690322, -2.0795493400642675, -1.3464903647368491, -1.6336858494767603, -1.8957945490203836, -2.192798300711035, -0.023210908567599456, 0.0841381698846817, -1.5046998500058495, -0.17346598207950592, -0.9034302331731364, 0.8583676440839509, -0.09969352486373241, -1.7373422656357165], "layers.2.weight": [[0.09277807176113129, 0.09738387167453766, -0.13899563252925873, -0.050799012009249404, -0.12540103495121002, -0.05361205739777883, -0.143285282721144, -0.009818132367961042, -0.2803811429655548, 0.0021839528549536186, -0.09278154373168945, 0.05820973847271199, 0.08892463147640228, -0.1621084002114599, -0.2999704022386936, -0.08701922960220812, -0.3048552552359328, -0.18160799432969463, 0.0958433598279953, -0.21809138524446642, 0.05973919912023833, -0.09431805268270896, 0.033097460865974426, -0.1925502591204918, -0.1485166847705841, -0.2569337195722372, 0.005483850836753845, 0.03518328070640564, 0.055677751228850055], [-0.16255132853984833, -0.023436397314071655, -0.31751053566304377, -0.02682674267827105, -0.07604292599727142, -0.20867533626630047, -0.3084431356380954, -0.15827591796396764, -0.05014197422828756, -0.34706672074860195, -0.16307559609413147, 0.014626717328403111, -0.05233605934569947, -0.02926027298857452, -0.07538789538821722, -0.11139162981477638, -0.11367929618633553, -0.0474555166612464, -0.06693811570710395, -0.1863119883256241, 0.05094003814874369, -0.0697260330212776, -0.017952263355255127, -0.16359949706722204, 0.09549380838871002, -0.08590987899495936, -0.11293199127951548, -0.2616716469484805, -0.278720693879828], [-0.00010755658149719238, -0.09469255805015564, -0.01689802543603894, 0.08270624801328265, -0.27039620212406673, -0.2503141204374325, -0.228771454090079, 0.07055037089859846, -0.07095127660911038, -0.03831422110944591, 0.029551953077316284, -0.25294708593635157, -0.040130968242191846, 0.17079690421999733, -0.32496008371444995, -0.1557358428942848, 0.6797107509589976, -0.1579856180833904, -0.22506681034611212, 0.000666222281015274, 1.1605461556166485, 0.1717126707789342, 0.17876632511615753, -0.07640010784595587, -0.060893140733242035, 0.03693546523772743, -0.23041486772928182, 0.0003847900222399632, 0.10343000697126041], [-0.1562797725200653, -0.016304269433021545, 0.038591429591178894, -0.11094261705875397, 0.13789986073970795, -0.07135053212312527, -0.10352766595243953, -0.09215282152117035, -0.005695385689744991, -0.05108331415653681, 0.1380772441625595, -0.26468218303625535, -0.010236814618110657, 0.04595160349790465, -0.28588601210532033, -0.017443707021831588, -0.23704058768960776, -0.22925825699860736, -0.09356759488582611, 0.007381740572785941, -0.26890898737495944, -0.18053981818258066, 0.15589945018291473, -0.03901218572288882, -0.1203627660870552, -0.020840195570373875, -0.11239053308963776, -0.08002324402332306, -0.12486776594052139], [0.14000080525875092, 0.0024486035108566284, -0.30594211860208387, -0.16507866847837357, -0.06990885998817295, -0.16563058044241574, -0.11501957605451577, 0.0850556229354468, -0.026839196641533038, 0.11609498032304362, -0.07320662587881088, -0.10617261966676987, -0.02266860008239746, -0.2442116060260292, 0.008795904147554849, 0.07210789763849432, 0.018627517154719483, -0.009374896743359843, -0.23274808505393962, -0.15440875192338538, -0.1301938087880644, -0.04601166229793072, 0.1136428564786911, -0.11294204096048426, 0.06973545253276825, -0.2548307933915587, -0.20757719326000468, 0.18022410571575165, -0.21784268406511437], [-0.16653583943843842, -0.17947806417942047, -0.14628176678134155, 0.08204055075675032, -0.362683720508975, -0.015321165223661334, 0.014122674033139892, -0.23547012885957752, 0.017346236543448156, 0.05076365375788283, 0.17050714790821075, -0.06949936422378468, 0.05892218570549122, -0.08381604730221733, -0.32369506510300383, 0.18215379212264238, 0.11055904127193421, -0.12256288409295475, 0.01927762218223198, -0.017659029045918373, 0.3819355465679062, -0.030382164323504077, -0.10040915757417679, -0.09346683903768212, 0.02112288773059845, -0.1077348600797072, -0.2912724973188706, 0.12947621783067262, -0.18494577698001408], [0.07134951651096344, -0.16204576194286346, 0.009887799620628357, -0.35047957888646014, -0.5534674957288543, -0.5740552982241651, -0.4416302928301953, -0.5438986332745301, -0.6109888891986771, 0.12694032490253448, -0.16806170344352722, -0.1724716939656167, -0.16473227739334106, -0.4730585650994682, -0.5161399150611351, -0.21488428730565715, -0.40911075651474704, -0.4891173975364414, -0.8207023675154859, -0.27155548135226765, -0.4878663466493983, 0.0547032505273819, -0.16300246119499207, -0.36517332798553964, -0.08311707526445389, -0.5162661654105968, -0.5545664110915639, 0.1422542780637741, -0.6283652691560472], [0.1453796774148941, -0.11962811648845673, 0.046174032445822626, -0.022477652028090017, -0.2724028960653358, -0.5504947968086448, -0.411790495926575, -0.6983448468289689, -0.38112839399553, -0.17761723304551003, -0.08906432241201401, -0.3994821136521087, -0.04919731666334568, -0.2176671925419331, -0.4168708080332234, -0.34748502933873904, 0.7285223531031642, -0.4726362229655202, -1.1198297679933549, -0.21319222857531597, 0.8970534056400228, 0.10895790585711122, 0.06902705132961273, -0.23599970299829354, -0.008541926741600037, -0.12689636224103232, -0.361460377812198, 0.036343082753832946, -0.4656849334092262], [-0.035216912627220154, 0.12277542054653168, -0.18215834672918157, -0.24886094179502805, -0.05218662328548993, -0.2762106163296028, -0.13948872904781107, 0.04871561301035465, -0.03107146350289893, -0.02337926827346132, 0.09962387382984161, -0.0845151814081316, 0.004634588956832886, -0.22156157572865826, -0.1404456821473544, -0.12158812556514494, 0.0365631977944966, -0.13819338251455493, -0.1811827544188384, -0.05570047502668032, -0.08918820569345218, -0.20232355091736634, 0.1139347106218338, 0.02347524959780078, -0.04185698926448822, 0.046423228627948926, -0.1586988354812351, 0.011194929480552673, -0.06639229247559195], [-0.1702546924352646, -0.1351044476032257, -0.05339318596930584, -0.2666795133267463, -0.08641409058597678, -0.019183035308757267, -0.3447050222461253, -0.1749350503049308, -0.13824194324697578, 0.03842416249149237, -0.09318826347589493, -0.20577753120094075, 0.07360740005970001, -0.1313415437339664, -0.004486794659344335, -0.1938079057436159, -0.05290275977894877, -0.20816330706953737, -0.21292414022097825, -0.2919757908703932, -0.06701947472344204, -0.20350730612534254, 0.03690706193447113, -0.27932230249813966, -0.07152938097715378, -0.2518051111729947, -0.13988373732957782, -0.11053871099207335, -0.11471533823344197], [-0.12912458181381226, 0.11097060143947601, 0.03933528833393516, 0.6558222815255921, -0.2600317004475929, -0.16652671563742105, 0.30335372781048636, 0.06058842084257595, 0.29860540663054463, 0.019180965399836512, -0.00040505826473236084, -0.2079693158500317, -0.1951104534741395, -1.2429768018803407, -0.4820132557349056, 0.47214439991930407, 1.3051650186738224, -0.16757608737478058, -0.49592283813059634, 0.5406610557491509, 1.3343353468691053, 0.26005688125695736, 0.03189253807067871, 0.6559849124221905, -0.04646304249763489, -0.11696601732716085, 0.5368948858942504, -0.12250224937906795, -0.20217588314657542], [-0.037603959441185, 0.1470339149236679, 0.11833779513835907, -0.03697705268859863, -0.013887733221054077, -0.06139794134474384, -0.0821067779752177, -0.1759921871369132, -0.0006739896081748523, 0.1095893532037735, -0.044967442750930786, -0.07374194629094805, -0.023695960640907288, -0.11225330285914178, 0.009353533387184143, -0.20294154536556477, -0.04616107296710895, -0.176407128572464, 0.06909967958927155, -0.22916276335702943, -0.26721439892858306, -0.10308877378702164, 0.18026839196681976, -0.2604930391266555, 0.08737517893314362, 0.04431204047729862, -0.0031042546033859253, 0.03532141447067261, -0.06718195818582005], [0.17118723690509796, 0.08458809554576874, -0.1796695154863675, 0.08639095863995465, -0.2528508122372604, -0.34612378886400685, -0.16383268655643085, 0.014164752663196889, -0.15711654084362525, 0.03067203123165235, 0.12801633775234222, -0.3366374518437187, 0.013626032439972286, -0.2942177695236548, -0.08658882237777364, -0.9676912232158988, 0.29720743802549815, -0.32260415659058095, -0.1029452806614428, 0.011636360781979932, 0.7349296317687537, 0.11890652012272895, -0.10331111401319504, -0.2820190888680171, 0.1109888106584549, -0.008895686009828723, 0.047294974137861615, -0.32487770073827044, -0.254024817253707], [-0.0793691948056221, -0.008322522044181824, -0.006817380346894642, 0.3913368338894756, 0.021164484811275325, 0.7692560181325426, 0.4492136786843542, 0.10622904281352526, 0.32887618881351305, -0.007987143699770811, -0.17475929856300354, 0.20855018849703336, 0.0010102500926579628, -0.09805294820698807, 0.2570927006377904, 0.34747543751456555, 0.5989468935788699, 0.6362250337661902, 0.31256126789120753, 0.29905498640153877, 0.653295006034594, 0.02413944638209214, 0.020839959383010864, 0.13432333899611965, -0.048407182097435, 0.06450327217117062, -0.2345078772535081, 0.0793035453060351, 0.46251386562065494], [-0.17913995683193207, 0.0354783833026886, -0.23978491049151332, -0.23079801792163762, -0.09911698686998884, -0.12657969722890947, -0.25307409330458475, -0.28891569118613564, 0.04435881045740596, -0.23534552516287047, -0.04854486882686615, -0.1690017153745209, 0.13232283294200897, -0.043327710070749946, -0.3107560441457828, 0.03883140799117635, -0.15021395272994575, -0.20225924191221592, 0.05909097194671631, -0.20631085291462925, -0.2149973220730682, -0.010455050697547907, -0.08004360646009445, -0.3007903057566738, 0.17275144159793854, -0.04608952041841229, -0.2080751822998402, -0.16005246379665286, 0.015777030578198376]], "layers.2.bias": [-0.2776550651472647, -0.17399612384827026, -0.5701074284661982, -0.28421545563011424, 0.10191486512692403, -0.4473879697185582, -0.498689025923916, -0.6424055336454964, -0.20617187695112968, -0.03041149816176117, -0.5863966083625862, -0.20162224579658705, -0.4116599479788422, -0.5039631550754308, 0.026082122088606916], "layers.4.weight": [[0.20400699973106384, 0.06070566177368164, 0.05058559775352478, 0.19108542799949646, 0.11691790819168091, 0.06744280457496643, -0.08290055394172668, -0.07569412887096405, 0.1259002983570099, -0.15909716486930847, -0.10322420299053192, -0.09896515309810638, 0.05237841606140137, -0.15819379687309265, -0.067522794008255], [0.018367797136306763, 0.05568206344575685, -0.12870102030532757, 0.17644259333610535, -0.19633497297763824, 0.040084732852116646, 0.20994853973388672, -0.2827395151469503, -0.1317870020866394, -0.18632224874730227, -0.6522177809845915, 0.06714436411857605, -0.08419590367302675, -0.43009004875988216, 0.062384777879890316], [-0.03998616337776184, -0.22671135790217362, -0.2777589115240023, 0.18906891345977783, -0.1337626077850508, 0.1652381050877225, 0.6330557959917817, -0.1158767326022203, 0.07866472005844116, 0.13199368285217425, 0.4118543027081139, 0.21352678537368774, -0.1828624008686511, 0.1837154259520598, 0.07837024331092834], [-0.23818318759646806, -0.3632584531230661, -0.25767062467603735, -0.028263834807706327, -0.3613461583858647, -0.321020848706426, -0.031870052218437195, -0.3312130415441171, -0.18442590892893942, -0.06343565398644804, -0.20055972417147885, 0.24887511134147644, -0.20691122114658356, -0.0488109195525703, 0.06338357951484744], [0.09538982686268223, 0.04708016515412158, -0.20031167501118055, -0.14870481738843172, -0.09974636540042169, -0.3271881471692572, -0.0429360568523407, -0.1455925449957156, 0.0482197988281899, -0.007690937594085361, -0.0513502200314128, 0.06857618689537048, -0.3663565177568549, -0.2160848336805634, -0.09761554942133621], [-0.02276134490966797, 0.07025112780564227, 0.07811573457252587, -0.24388250708580017, 0.361638345040535, -0.24285201201209672, -0.47523418285033286, -0.032336982668523785, -0.19799411296844482, -0.004863229344275315, -0.045394974336550875, 0.2494051903356464, -0.20159482635155154, 0.008328339792372852, -0.10740608971887097], [-0.16153888404369354, 0.03952925953408774, -0.28588360841265137, -0.15683811902999878, 0.26171761998452364, 0.026256171749498375, 0.1170356273651123, 0.2412148491382209, -0.05335812270641327, -0.025851649607289695, -0.000776863248029249, 0.16391863386629224, 0.1736678222788195, -0.10507254935304057, 0.30595710696090384], [-0.012839136399092337, -0.29815450088444573, -0.15971125275465609, -0.17753214522368657, -0.15112726698393497, -0.04358487984691331, 0.18338873982429504, 0.07866237100992622, -0.11308303273193417, 0.016492466573984652, -0.4259777616012676, -0.11637988686561584, -0.23561896039974742, -0.34054710333678195, -0.2960491573376992], [-0.09191611409187317, 0.13834384083747864, -0.6575693900638612, -0.006657272577285767, 0.15364062786102295, -0.5321152430195213, 0.09443625807762146, -0.7307200597788478, 0.14624574780464172, -0.11234825849533081, -0.7718610669496945, 0.13681960105895996, -0.196870818734169, -0.41454203843083814, -0.08919364213943481], [-0.08481763303279877, -0.14621546725885554, -0.03304055025305534, -0.029417112469673157, 0.14446961879730225, -0.13480058998806782, -0.2555060386657715, -0.038827572309141106, -0.2302268147468567, -0.28647224905487123, -0.24280327417674472, 0.1871015727519989, -0.22774751484394073, -0.2405257418827083, -0.10073242562674316], [0.17181149125099182, 0.15713179487896142, 0.0224037834946739, 0.028388381004333496, 0.1291043938539111, -0.006458709778061358, 0.6144966141221877, -0.43222295378414094, -0.18915517628192902, -0.03151023614235404, 0.09052897591992147, 0.3256399360666508, 0.12442226505357896, 0.03692292912561286, 0.19541155508706645], [-0.035732866381167246, 0.227768535883373, 0.024510762732685026, -0.07401197032072625, -0.021556208634676912, 0.14836658308434023, 0.3889336656293301, 0.0016940032112507913, -0.12570799169998756, -0.017025362306615346, 0.27915910704764624, -0.07318016939341225, 0.22851513325728104, 0.5639135252128444, -0.02813589409684024], [0.016538888216018677, -0.09203131005146244, -0.12436042344839272, 0.1349404752254486, 0.2137745081866483, -0.31836147734997067, 0.4991896288318753, -0.35178536977058744, 0.3232186600886024, 0.40317874187264313, 0.08123753277096918, 0.10418923619093413, 0.21965536954187054, 0.29897816011103967, -0.09359070281323922], [0.18746155500411987, -0.20973947644233704, -0.2216881513595581, 0.216842919588089, 0.10971769690513611, -0.21007347106933594, -0.03822922706604004, 0.0553017258644104, 0.17176321148872375, -0.1780550479888916, 0.015647411346435547, -0.15658187866210938, 0.048785388469696045, -0.03884762525558472, 0.148398756980896], [-0.04840392358877457, 0.075906302596512, 0.22361382011836403, 0.2279834055300113, 0.17789517501935517, -0.24544951428028, 0.5041084941507938, -0.13433657064716487, -0.08737415052670827, 0.18975475338192851, -0.1605027061438682, -0.03637595138844148, -0.24856108375377098, 0.3610471015914557, 0.056428895460213256]], "layers.4.bias": [-0.19534724950790405, -0.5674857308783757, -1.3512041764218907, 0.08800620923380865, -0.06136199863273603, -0.3568664574702305, -0.22743732697624572, -0.09227452495703221, -0.7444578316520529, -0.18510308976432435, -0.6246655603749449, 0.8550289979163637, 0.14747985524304144, -0.14913678169250488, 0.6376451503865427], "layers.6.weight": [[-0.08438576757907867, 0.3461675121000388, -0.11118297456087839, -0.12678113938364105, -0.06099452069288906, 0.05321942442085978, -0.01852106776616876, 0.07034599237235735, 0.474506335957832, -0.0879146464977362, -0.12757100884419711, 0.5378400185248696, 0.2367885455546048, -0.2410087287425995, 0.3477806767713889]], "layers.6.bias": [1.1359333088911083]}