{"layers.0.weight": [[0.30695828166484307, 0.3641240745709393, 0.021409954911664413, -0.4799484714453864, -0.36549569134862586, 0.0357286557516608, -0.2834780846778471, -0.09502779121574678, -0.0453478015972205, 0.0455966972799055, -0.18299715206787745, 0.028709892131047642, 0.28085272304536496, -0.2616809751798974, -0.038617670965021444, -0.006127496982266537, -0.10953045931699988, 0.056020683629982825, 0.16053493885477685, -0.14299980558712544, -0.45914043098459095, 0.2959172895903474, -0.19356962730529562, -0.29918713623952425, 0.5588221465617249, -0.16668573483236293, -0.2313699631716976, -0.2153896634467141, -0.08580404307528125], [0.40841373424751226, -0.283450755744508, 0.24049011033276568, 0.006710248267393347, -0.3977623121411154, -0.17125148771202495, -0.09542604454778339, -0.0391733727258604, -0.03522973728782853, 0.06858470609894211, 0.04044791400895782, -0.009464137841161898, -0.11972749018923022, 0.20286610724389342, 0.12267319237621542, -0.03267586107231692, -0.14624815686959736, 0.4347898005443906, -0.09426545623480241, -0.10197676193385026, 0.08154328419414923, 0.0250785888035851, 0.005792146952256181, -0.30987329371279043, 0.7012391488357674, -0.4583560683410818, -1.1872696693421108, -1.1738355844645871, -1.1706097559078883], [-0.08918173611164093, 0.06476105749607086, -0.041691869497299194, 0.07445286214351654, -0.04159581661224365, 0.052443817257881165, -0.1093917265534401, 0.13014455139636993, -0.0847148522734642, -0.18306544423103333, 0.045348599553108215, 0.06716947257518768, -0.10541758686304092, -0.05713941156864166, 0.15144287049770355, -0.03341229259967804, 0.10656116902828217, 0.17081360518932343, 0.08731423318386078, 0.11338715255260468, -0.13566850125789642, -0.11410018801689148, -0.035771697759628296, -0.04692108929157257, -0.010223731398582458, 0.11587010324001312, -0.18012240529060364, 0.11637197434902191, 0.16783340275287628], [0.42679121966301686, 0.7319769665970334, 0.31311312704760214, -0.21458580171009392, -0.1253516532231874, -0.12551049464871705, 0.13335404477675075, 0.009451201430417867, 0.030622784830773197, 0.03012023474855949, -0.08476146076026798, -0.1113226119075286, 0.17139255895452055, 0.01775508933049211, 0.0035681971990608958, -0.13721189063271044, 0.06938465000340666, 0.14464971716571923, 0.03375019214644962, -0.06884894958467533, -0.26218914248366076, 0.32910842000670587, -0.04630206486028667, -0.0007452150056057355, 0.6758514121744081, -0.05518989288362045, -0.43190911117098574, -0.12738699636919257, -0.11529551471271128], [-0.02960902956657786, 0.12240150279235845, 0.3509603440935634, 0.38703965268643237, 0.43047836869809863, -0.02684112345969792, 0.050926310392905225, -0.2529736211048336, 0.01376340910092123, -0.2856094426229722, 0.0056466965957186754, 0.039407410875021046, -0.19237424546369722, 0.05427309431147087, 0.15350996639663844, 0.32947938256824194, 0.1033049817137208, 0.13696363415995272, -0.145085338531149, -0.21878189944840137, -0.11674141349924028, -0.4449817656758947, -0.25557957342748533, -0.1703739655591616, -0.13057319630211942, -0.23586561472988632, -0.19903103668861089, -0.21713880540197478, -0.032831474022056197], [-0.18697055310668262, 0.11376161631079702, -0.0949698732635824, -0.15335323757203068, -0.04750817690496922, 0.20390244711350405, 0.164859955322138, 0.1883335576358268, -0.1461515884069279, 0.14700082336014594, -0.08368088168795648, 0.15379099751040703, -0.013336400900704542, 0.19558629704379132, -0.08522987366467648, -0.09513990333074789, -0.052988535430857686, 0.03099902988201485, 0.00015822898280232547, 0.15677443771226002, 0.15516077600454387, -0.02498072562364644, 0.08351317601374861, 0.10894959757410275, 0.08862159701349145, -0.2011801254657523, -0.2935339893416699, -0.06465313003908246, -0.017758086860772113], [-0.24846484874972963, 0.060201191728117935, -0.10449280870226618, -0.055777409572681555, -0.11762888662853178, -0.07683338141368622, -0.05533205241467822, -0.17809008101867205, -0.019229373365833705, 0.004148524776217894, 0.06346855635006257, 0.0336909099341979, -0.14890122167801015, -0.263941957344903, -0.051194195357301735, -0.11106796151152987, 0.07622213543908418, 0.08013715909844431, 0.05144786557305167, 0.08055382045977504, -0.05130758434055896, -0.0682455190101156, -0.23220919793472417, -0.11956755976260057, -0.041406266607458955, -0.18066935241222382, -0.03361218104275684, -0.05992881286832339, -0.2708656546227864], [-0.1219595604161754, 0.014107788238055967, 0.1333838956485465, 0.04415807848624426, -0.06069509962133301, 0.14839558753363905, -0.10204974120560668, -0.047273108784367635, 0.08071431932676634, -0.03872007386739866, 0.16650082016153003, 0.1386387702605969, -0.010322607344815963, -0.10972072751227811, -0.09265515190225262, 0.06953884337672972, 0.06337992272171798, 0.06779040979110455, -0.12274252887003564, 0.10863027284829546, -0.12672302488455153, 0.0510555152023302, -0.035256234391060036, -0.10587001147948472, -0.10100232376111913, -0.21124670552520286, -0.22405583472602067, -0.228208652354541, -0.2877305707410262], [-0.12209083884954453, 0.06848858296871185, 0.11488111317157745, -0.1354287564754486, -0.11478936672210693, -0.06577218323945999, -0.06033200025558472, 0.006931990385055542, 0.06219784915447235, 0.12525849044322968, -0.02772536873817444, -0.12174876034259796, -0.12238594144582748, 0.04663568735122681, 0.031006768345832825, -0.0862736701965332, -0.0011706501245498657, 0.15483339130878448, 0.16707564890384674, -0.024436846375465393, 0.1290147751569748, -0.004309862852096558, -0.13195295631885529, 0.03456047177314758, -0.0040649473667144775, 0.02565881609916687, -0.12390728294849396, 0.004989996552467346, -0.12331846356391907], [0.2893462458452427, 0.30400470581266653, -0.19963892705489875, -0.3077399087266779, -0.2499038468301295, -0.19931698539924766, -0.0401033262586581, 0.058621464971305846, 0.17415980900875375, 0.1856665098420651, -0.05099081874595968, 0.20305859899826792, 0.6221769670828317, 0.04239910965598406, -0.05028981136124684, 0.04275931278647161, -0.08203188533163763, -0.10815316244288137, 0.21477926784232865, -0.20024043793358942, -0.30075967653908303, 0.2021591482418103, -0.07168699539035278, -0.4731330175904934, 0.7477619539308179, -0.454089697925147, -0.5971687957736589, -0.1107899922592901, -0.5273253194245148], [0.44657140558864183, -0.4323866510595568, 0.4277671366717834, 0.18967939842910642, -0.02792338463736948, 0.0732968649961755, 0.03779367940855026, -0.11510291050195955, -0.13405814436626845, -0.23966241588410683, 0.08681534469058964, -0.1943884986568144, -0.20704388345320543, -0.05605194601183109, 0.27949959030681787, -0.003783039560366307, -0.10148569812594586, 0.21315107915043843, -0.16281442027362392, -0.08333086374149207, 0.14109784263685166, -0.31655077797918374, 0.2533984912082327, -0.12924937793683203, 0.33439829429469076, -1.2101574566790487, -1.2009137640671461, -1.1789177728226616, -1.1579318678563875], [-0.13744859372963114, -0.12191760848238344, -0.20486424679805776, -0.15456654267541164, -0.2202193434758954, -0.027176731429146585, 0.07457537654272905, -0.056695381258749476, 0.0694946749386877, -0.09237398722162667, 0.019656506498915195, -0.1329200946215464, -0.08641286105549598, 0.09764744311868663, 0.12618096796922215, 0.023653872728455365, -0.061751636554647785, -0.058629945592601526, -0.1931372426953857, -0.05941630037269339, -0.10405454611334848, 0.059135566627597, -0.1909442193407784, 0.029632761476266534, -0.016914783071560194, -0.3885288272668084, -0.29548102012128147, -0.06280403221139948, -0.2152468037955633], [0.4534811284817427, 0.7887969667870292, 0.06840811908992998, -0.08644778554191246, 0.0938660658404461, -0.03683634522695806, -0.08746353263884005, 0.0411109482627745, -0.03483280768483319, 0.15999937132038825, -0.12407707372908937, -0.1115240664904757, 0.48548038794107523, 0.1947410542718681, 0.15179386100236023, 0.016482381018366223, 0.13250646046237322, 0.04282522608472921, 0.3077017686969899, 0.16768309656122357, -0.09476283156324201, 0.2507642391052361, -0.017916783415096872, -0.298894926514874, 0.9097856450033291, -0.1606548734225623, -0.20815308884042658, -0.3374201305694219, 0.07813820934750969], [-0.10179225355386734, -0.14636267721652985, 0.16523964703083038, -0.047003552317619324, -0.029046878218650818, -0.00929926335811615, 0.13172106444835663, -0.10945742577314377, -0.06802500039339066, 0.006370320916175842, 0.017054662108421326, -0.14614161849021912, 0.08300067484378815, -0.16680759191513062, 0.18117018043994904, 0.13490216434001923, 0.03225478529930115, 0.1447686105966568, -0.1747656911611557, 0.09946809709072113, -0.16217724978923798, 0.1603325754404068, -0.08180107921361923, 0.1124616414308548, 0.017903178930282593, -0.10193397104740143, -0.06509185582399368, 0.16450046002864838, -0.09064111113548279], [0.3820927519674092, 0.18371518873765857, 0.05201893441130383, -0.00702115596510685, -0.22034701021290504, -0.2363274679923608, -0.17619667285305976, 0.024849736174264232, 0.0551177312625993, 0.07143628584197548, 0.0631653848685707, -0.025227846953845712, 0.014481845291757204, -0.06964222383237353, -0.03320630518454533, 0.2297992672815278, -0.1960689017872377, 0.295165215409388, -0.17121506338191772, 0.12117803144352618, 0.018254490284651023, -0.023193026528780226, 0.17896184523703898, -0.15903392837683494, 0.24619081685488214, -1.2292530062560327, -0.18659646867569746, -1.1240367838926504, -1.1062238976697614], [0.11265078909434413, 0.5970793505160611, -0.13486895003529725, -0.3749298453028251, -0.3103968489255056, -0.12090650560185108, -0.028518748730303183, 0.1190691464777005, -0.09957223182606624, 0.1540944506516704, -0.2258499932589332, 0.0019528816173917136, 0.3289223817741272, -0.025104912911891365, 0.020178887789984622, 0.25015696948259514, 0.1349092578288026, -0.021314462753220995, -0.07833578904853114, 0.008571384397596114, -0.265987105455722, -0.11810128579936809, -0.22360830076626792, -0.2687895344546854, 0.7369443667228106, -0.39109111372730276, -0.38271574828402455, -0.08585117499000762, -0.20116960420598132], [0.41691184997391106, 0.7131358205320328, 0.15967813440893985, -0.19216797219937098, -0.368685333181869, -0.20523857150388924, -0.1904417361827404, -0.08867347300059715, -0.07853352148043172, 0.09058133557786728, -0.11382752781891363, -0.13852698319923196, 0.51855204781599, -0.17646221474107962, -0.010085362787261326, 0.0546509326795583, -0.1729434220778812, 0.10671775194756004, 0.14861838784056994, -0.19322949248643115, -0.2658863056804161, 0.027127516175688777, 0.01854429835419001, -0.23572588325844665, 0.7893522766732092, -0.4794164278923335, -0.31013082637580375, -0.1270113881913912, -0.02084498740546829], [0.49807631334813074, 0.5866089917234576, -0.0208460312062603, -0.326619980916223, -0.09810384115739307, 0.04065428747345015, -0.20836440236576528, -0.2757398013103412, -0.2086960176550156, 0.1807391219678037, -0.03501118296117679, 0.13167133919680202, 0.2962488803503184, 0.058701891260602615, -0.09349697051220361, -0.11728672644115361, -0.3561102433044129, -0.002763797014026288, -0.027196339200741496, -0.0063810277707270265, -0.13306514462645408, 0.2726599944598995, 0.16196195297619834, -0.24493657333133143, 0.725048294329237, -0.11969142409013453, -0.4555511123938132, 0.08764414246795399, 0.12110838152987062], [-0.17292025572047875, 0.07638711569439875, -0.10617293431181397, 0.2066055905373973, 0.01827386859404595, -0.08866417038566565, -0.06599023678562518, 0.023737900989575324, 0.046924483420569006, -0.04989458195678425, -0.019653337374249888, 0.17977462860708113, -0.006690427136340779, -0.09395034432706206, 0.14158924770786174, 0.05277194693233662, 0.07644339352060202, -0.09216286274914788, -0.11305707780710825, 0.044690840797206005, 0.03780920389847198, -0.10955959912812768, -0.08086411421303805, 0.06168891997756933, 0.08047880946295333, -0.10510122835560111, -0.14065930272548072, -0.3016417648591446, -0.14249938180553964], [0.25635461332087073, 0.5258806951387701, 1.127837292018709, 1.033458829066277, 0.38812230840739287, 0.5951494315897164, 0.40457876056171366, 0.2629911494687547, 0.34828097906614003, 0.2499408544048559, 0.052530191201324974, -0.2718654241584914, -0.3419883827978402, -0.6472535240553015, -0.6901353491586198, -0.48474794639324403, -0.6246487493482088, -0.25987582725607994, -0.050579186800267316, 0.45782707851918186, 0.16222021449562649, -0.21441709221876454, -0.7216388900766725, -1.3897323788669977, -0.030681472279061095, -0.7507461843271794, -0.7509944883023802, -0.7079277627012677, -0.708944799337568], [0.32147210651723784, 0.4139018320397039, -0.23680782038172482, -0.4892535744720939, -0.2937146026136755, -0.004245470997926519, 0.23007557977904536, 0.1646471032260678, 0.17720047337316475, 0.41284224781519835, -0.14104499036973134, 0.02490784755363484, 0.5758979369110312, 0.0008832823419278346, -0.42516837060246343, -0.39999731109248715, -0.05324442522831761, 0.3343739050527272, 0.37144846669239007, 0.24177273409141425, 0.4040393052936312, 0.4704506530152797, 0.23502212705698908, -0.13283375190238406, 0.6459370955058481, 0.02073444804705387, 0.047592069027317455, -0.12620972976414518, -0.3427245680085226], [-0.23938862825060528, -0.15876545715924767, 0.02970901744932799, 0.03670844460787104, 0.07079085094751558, 0.012202466954503487, -0.1549889193127134, 0.030076926504020263, -0.08088566379284719, -0.10456047260725282, 0.08956049592801445, -0.033626536820592044, -0.03849581175140345, 0.037284355789340154, -0.18688445604529172, 0.01868012348008214, -0.12791397664725926, 0.051843918464667266, 0.10772950570715467, -0.041668261660892755, -0.18248755086325819, -0.08059669015229334, -0.20140062291163305, -0.0050117430477207205, 0.02434748470671293, -0.06022842230114021, -0.1764775663614273, -0.08798038214445114, -0.12419031272212819], [0.4447201215808484, 0.6155006289976863, 0.2308032617437161, -0.22647392086025903, -0.10445076204459684, -0.13670238617738992, 0.011425945799606542, -0.27222803813357727, -0.040419463714122694, 0.28278891010666585, -0.29656865450071324, 0.11257712228169278, 0.20013925800581536, 0.2016071082290296, -0.2048896126119566, 0.10644401925683608, -0.028863977382403407, -0.061651390504197795, -0.03343176347160196, 0.005489478495780072, -0.277076363217368, 0.31911993035431535, -0.0027722349143390235, -0.13004022390920383, 0.8264574758378729, -0.3098411372192473, -0.3223885058303254, 0.12024671383692032, -0.010885331962763438], [-0.1060548797249794, -0.18203873932361603, 0.03329768776893616, 0.13909555971622467, 0.09431107342243195, -0.1466175764799118, -0.0357433557510376, -0.11640413850545883, -0.012132853269577026, 0.10321395099163055, -0.1353195607662201, -0.008457928895950317, -0.011806607246398926, 0.05178244411945343, -0.03105872869491577, -0.0746811255812645, 0.14555124938488007, -0.0838961973786354, -0.10297487676143646, -0.031309157609939575, 0.09153331816196442, -0.10388270020484924, 0.15621738135814667, -0.04010555148124695, 0.08500935137271881, 0.14621107280254364, -0.16443553566932678, 0.14703302085399628, -0.04709847271442413], [0.4738538054652996, 0.6258349218009369, 0.05745123170693725, -0.3770946350243834, -0.10306753907213656, 0.06509059674770942, 0.068880810335846, 0.06449121389820599, 0.12314725064067936, -0.06522757051005248, 0.03952714329300559, 0.0375970794011825, 0.2722275487054612, -0.0035949843330600117, 0.2103664124217604, -0.032657400496173675, -0.03138650172333313, 0.030132264253448175, -0.01586907364387122, 0.05011906260927701, -0.3517574960135657, 0.2313210794609035, 0.2521449644624623, -0.07703184543571909, 0.800953763012666, -0.2749559609268597, -0.4774511237027615, -0.07979514171630576, -0.18475025523102115], [0.47695029125246674, 0.4776787976759887, -0.13343803215393601, -0.33022825521890226, -0.3282273480992901, -0.0751400207966467, -0.15161585431874477, 0.09789401163638319, -0.05112864706248096, 0.11860637768895979, 0.10811115143985209, 0.18615049924691304, 0.42393181839905697, -0.07584281227221157, 0.014146277394115987, 0.13431327481616712, -0.026718565268719286, -0.08339091280809269, -0.11621676144979, -0.2581233993644146, -0.4743285992485911, 0.2399309274807308, -0.13381116412331912, -0.27674079026179943, 0.8901579696987539, -0.3873250563497185, -0.5965377022989086, -0.1847770052234539, -0.00687349992977088], [-0.17424590099813772, -0.058112772614281785, 0.11454883668177482, -0.2000799986255133, -0.12195606980849213, -0.009286894796505765, 0.10837471220491103, -0.09695248574105801, -0.1452282553294309, -0.20986458243960457, -0.20435815348560693, 0.06197529829194457, -0.14130869679364652, -0.012502770167269129, 0.024177778852082422, 0.03501217488848427, -0.216822440965138, 0.04860023948156652, -0.09576468230085257, -0.10120904459923721, -0.06911385002333538, -0.20851806071401305, -0.060700237970350936, 0.015754282679578437, -0.21522689120781482, -0.28470757897390986, -0.33899426665093935, -0.31320128684595794, -0.28913601374148906], [0.3842724636356208, 0.6735008061211648, 0.29932186525580956, -0.26443764354202737, -0.029592766983173834, 0.06391687867520016, 0.2991172954802467, -0.05661300692263088, -0.00206388401457087, 0.33691952877241155, 0.11355939815560856, 0.2889488302336222, 0.6543752890888586, 0.43042915431736284, 0.28883106551339405, 0.32061822901378007, 0.021296116639523095, 0.38462522937973026, 0.29031598771063466, 0.019495285653169676, -0.30316708603741266, -0.21725095008074075, -0.6930269173215134, -0.9556673387824987, 0.31076746868251276, 0.13632558546865559, -0.04661227614796465, 0.018840062716550927, -0.22692844824891123], [0.170427975735514, 0.5399237594122571, -0.6404410425281001, -0.9955925274526518, -0.4144734816697072, -0.0035870270780981478, 0.2776435141304632, 0.2131628156312599, 0.2545900969318322, 0.480091207562806, -0.058840964588698315, 0.2565951094367565, 0.762426534794401, -0.17625757258698074, -0.5011130747517438, -0.5320695507188059, -0.2882484471064637, -0.15320701946001175, 0.4007400879329159, 0.4526619932643305, 0.35560257656797395, 1.0504318386312574, 0.3506164473512965, -0.13031839571486348, 0.931561197120948, 0.450440871334705, 0.013950375723699735, -0.3128485038482162, -0.31183935951511477]], "layers.0.bias": [-0.1922194082649367, -0.9498929506009077, -0.03835894167423248, 0.027308930719177494, -0.22036724015389517, -0.19969896832838208, -0.06836879982429467, -0.16941132602875322, 0.03279191255569458, -0.4431877690711325, -1.3308658440389038, -0.1941664375791676, -0.2787592801726871, -0.05443553626537323, -0.7674240288861248, -0.21824012436047033, -0.2978268311547775, -0.12918227498742418, -0.2864937923498351, -0.575102367831308, -0.30516673822776513, -0.07080486952342939, -0.02480567183485094, 0.041569143533706665, -0.07060439198087819, -0.46999939818910874, -0.2606688452085087, -0.17850047530615168, 0.01765234866159327], "layers.2.weight": [[-0.269725972120153, -0.22262975802912013, 0.07258744537830353, -0.06128195018568727, -0.282161543147688, 0.028462914703053788, 0.11381520330905914, 0.0332295298576355, 0.01233847439289093, -0.25572920290099127, -0.29028259372185394, -0.1426316350698471, -0.2403165780706143, -0.12132444232702255, -0.2040466274448133, 0.0679915042413031, -0.2900165203025467, 0.05339569025433958, 0.15911857783794403, -0.07988914091111178, 0.00907638669013977, 0.06187480688095093, -0.08557014356811393, -0.14442425966262817, -0.2566961006888597, 0.0687131723025268, -0.06542344391345978, -0.008369134001967548, 0.06910721957683563], [-0.028834309318442233, 0.5979437667469093, -0.03514109551906586, 0.3176616740248368, 0.1228786805251068, 0.030716522459277883, 0.014850748704773343, 0.041060373631153405, -0.13906875252723694, 0.17180155108060688, 1.2952101670646177, 0.12651032619884767, 0.27545547942304566, 0.03129361569881439, 0.6372612691195174, 0.2598174828495249, 0.020332709062973173, 0.328834328178969, 0.12307327033804058, 0.18221338632662926, 0.16648077711427195, -0.16385694192986688, 0.3166200985566139, -0.15152637660503387, 0.2836940862615255, 0.2523495328082832, -0.2295581802599242, 0.303681428458625, 0.15896974998345273], [-0.05530433804604527, -0.10248500049103428, -0.09897895157337189, -0.07905487870131658, -0.22336251226562778, -0.03753899037837982, -0.004396721720695496, -0.0312471062486636, 0.022768735885620117, -0.2987652816634788, -0.0457946653824557, -0.14777758148373824, -0.2342525651272211, 0.1744142323732376, -0.07051063775009794, 0.08847184479236603, -0.0016813874244689941, -0.28686590861060685, 0.004342955781068167, -0.0631354122931237, -0.07856132090091705, 0.1620355099439621, -0.2747203111855788, 0.13670213520526886, -0.02769710638850037, 0.004037634250578287, -0.10830650461558891, -0.23702023665281446, 0.02262607216835022], [-0.2386143704898664, -0.15906217780620993, -0.07320605218410492, -0.2581498328942269, 0.15249912440776825, -0.2816445349659923, 0.1283278614282608, -0.17556866327386741, -0.12267059087753296, -0.054946822321499694, -0.20843779569038756, 0.023479466608555905, -0.01147823198209007, 0.16086260974407196, -0.11582516461004447, -0.3040478962393872, -0.08465455753212965, -0.1595640647740322, 0.05949506163597107, -0.0868147950411037, -0.28180002875580235, 0.1146855503320694, -0.25369621180875757, -0.16690115630626678, -0.16039782349092818, 0.0593846909012597, -0.12017670273780823, -0.12201980651077206, -0.2330563324298107], [0.002491558705698875, -0.16499960821017892, -0.15058007836341858, -0.031105416269051372, -0.13751666247844696, 0.1475401371717453, 0.08780764043331146, -0.08882801619592719, 0.06799618899822235, -0.21266613745218577, 0.055239239626131476, -0.09914340862795887, -0.2525752221277892, 0.035108789801597595, -0.24683274278466544, -0.026333868503570557, -0.24328741777508653, -0.29089060133725547, 0.04890044033527374, -0.2589268493765186, 0.008249773987778595, 0.14279820024967194, -0.046159093097069316, -0.023527339100837708, -0.16114251502340302, -0.17245984120207175, -0.002780139446258545, 0.007042091481925893, 0.01319791470304422], [0.14223267084821567, -0.561427663435666, -0.16720500588417053, 0.006209436190437263, 0.18993215543614578, -0.20912799390261227, -0.15747037907037936, 0.13321353232731428, -0.056299641728401184, 0.21090035973901444, -1.4083655013994583, -0.15136112069988708, -0.08604866250854844, -0.024889156222343445, -0.018736582812296912, -0.11100604057679284, 0.016910407952716342, 0.2324721381591254, 0.0032577173328308708, 0.27369355389312916, -0.1933290255801622, -0.11070965981496123, 0.08735267825092037, -0.1562332808971405, -0.1863641734573621, 0.2593784029221815, -0.02312211744216693, -0.18549557373801387, 0.11742593637404598], [-0.14704866707324982, -0.05586160719394684, -0.0883173868060112, -0.006812721490859985, 0.07343064248561859, 0.08760206401348114, -0.012133315205574036, -0.18222732841968536, -0.013379544019699097, 0.12359990179538727, 0.05846951901912689, 0.08226688206195831, -0.16569986939430237, -0.17146828770637512, -0.10074904561042786, -0.04487009346485138, -0.14613983035087585, 0.03709086775779724, -0.0344371497631073, 0.002678900957107544, -0.004289031028747559, 0.015351399779319763, -0.056172117590904236, -0.17863629758358002, 0.04207272827625275, -0.0037286728620529175, -0.09710557758808136, -0.1615680307149887, 0.0010895878076553345], [-0.2682693753816705, -0.02652585506439209, 0.08052913844585419, -0.0951358866921349, 0.11516468226909637, 0.1604626327753067, -0.03164838254451752, -0.229134352937756, -0.17308025062084198, -0.08683390838018513, -0.16419221714171497, 0.06121453332873406, -0.1431541837781695, 0.001672506332397461, -0.018754173152607776, 0.050108522176742554, -0.1491091605455992, -0.010768582693377283, -0.10613425821065903, -0.14530952274799347, 0.018701208053903493, -0.034448057413101196, -0.12272348047241267, -0.04617320001125336, -0.17521573667744453, -0.22060835965295658, 0.05798400938510895, -0.04813081553534344, -0.2656078840229772], [0.29577338918852275, 0.34416498124453565, -0.1631825864315033, 0.20584583786796495, 0.05971097960078319, -0.18602788904668816, -0.015155118010659177, -0.021963283571662814, -0.019342973828315735, -0.038770250444089875, 1.2089374833130746, -0.10252287651577686, 0.35149131456867677, 0.16294734179973602, 0.6834563687702748, 0.35245913432130477, 0.33722871918185454, 0.39458804886669085, -0.03620338791283, 0.6890989752652572, 0.09055118513821829, -0.1976561393172794, 0.2289234767705474, 0.11581172049045563, 0.36257100240147927, 0.19358865260060953, 0.13083212640768782, 0.1854622276211386, 0.2756030908515773], [-0.06884770840406418, -0.08470084518194199, 0.10081230103969574, 0.1190311461687088, -0.14331237971782684, -0.10447775572538376, -0.0608711838722229, -0.0971723422408104, 0.08977372944355011, -0.03173588216304779, -0.07770932465791702, 0.040628135204315186, -0.16583038866519928, 0.15742240846157074, -0.16574300825595856, -0.1444343775510788, -0.03709520399570465, -0.174772247672081, 0.0360507071018219, -0.007258877158164978, 0.015370979905128479, -0.03887239098548889, 0.1403549164533615, 0.058213040232658386, 0.06327906250953674, -0.18109777569770813, 0.13888908922672272, -0.03819386661052704, -0.10969747602939606], [-0.17661606441219174, -0.08339913568156088, 0.14809434115886688, -0.2587866121711699, -0.16581292337926148, 0.02141276592901484, -0.25548860582917743, -0.05284617589861078, 0.044062450528144836, -0.15275508538473842, -0.2936363349130912, -0.06362833433206899, -0.002766288658605987, 0.13046197593212128, 0.0406486722791013, -0.04402768436990297, -0.06286269175895008, -0.0029607256721586677, -0.2667961149336527, -0.04638717123362761, -0.10020716408454708, 0.03364330389079543, -0.236249039732062, -0.11226028203964233, -0.06386977903722905, -0.20613243963161096, 0.06336175389559749, -0.06270457123780626, -0.1373863290874904], [-0.14069130279113903, 0.45170071550330265, -0.06261005252599716, 0.18212178192339867, 0.024493156453554467, 0.1146187307284205, -0.026970142622241296, -0.041671845375684954, 0.18142525851726532, 0.11006780408843195, 1.3258297302471225, -0.10300015849227247, 0.28177442430378374, -0.11984854936599731, 0.5058187466794828, 0.11271768866513748, 0.05488783031489275, 0.09342123084048029, 0.12340024725611101, 0.09142196335173328, 0.1463513994935075, -0.08497808091055575, 0.25098053787009555, 0.1636502891778946, 0.10771662329615447, 0.2010126188271206, -0.02896092249028337, 0.19103539689669474, 0.2613946126420435], [-0.226042786348368, 0.05009888764102563, 0.014581292867660522, -0.29084447789320067, -0.019595319743779874, -0.018644749393743276, -0.1748914546820601, -0.19598855646942898, -0.18153750896453857, 0.02251589868105023, -0.20779426528012207, -0.23932407121886995, -0.1972702621195319, -0.058362945914268494, -0.15309668844442784, -0.28339368489946737, -0.20374474545543272, -0.15621539982599264, -0.27724147407173766, -0.0758138746772394, -0.13987067858968455, 0.02676023542881012, -0.1743736196613889, -0.10057197511196136, -0.03549154111975933, 0.026398185461723712, -0.014937683864277199, -0.1906755639306484, -0.18165636460798681], [-0.23229821396262382, -0.07874235894286333, -0.12814129889011383, -0.07656299233789783, -0.13619624263383495, -0.020774126052856445, -0.05613487958908081, -0.2586954767380375, -0.1440945416688919, -0.006837430382598607, -0.18511265800553686, -0.16972098284233952, -0.2569777439535554, -4.430115222930908e-05, -0.25424986892146606, -0.11675814115989698, -0.2908637295497054, -0.09156302494988122, 0.03946433833494422, -0.28504844866860946, 0.07808883488178253, -0.11119834333658218, -0.023274246010190004, -0.15493661165237427, -0.007402538643020885, -0.03197784881019097, 0.053860176230255415, -0.08447307018427559, -0.100667765940102], [-0.17989778673039422, 0.4756520292234565, 0.0076359957456588745, 0.14053210946512099, 0.12422966627696025, -0.2344763566706526, 0.28139718637147804, 0.20304476580325698, 0.044257745146751404, -0.2793828455662956, 2.0168041308418676, -0.05126801724221219, -0.05985542893144468, -0.007789626717567444, 0.23258368313141958, -0.021988884446454207, -0.012029334515239125, 0.1318961975526753, 0.26714609325199784, 0.38391524696996704, 0.1272972516471307, 0.009129992078055505, -0.07554717218552126, -0.15903280675411224, 0.020321361123890692, -0.055927811736626365, -0.15283515333563372, 0.05514676714019044, -0.27012893896936957]], "layers.2.bias": [-0.2269890881400049, -0.02224092038932281, -0.13422832130998416, -0.010945420508179707, -0.04883139629185026, -0.14355463564789345, -0.05244572460651398, -0.07931507847970899, 0.2528952277578071, 0.09075485169887543, -0.009008053543278024, -0.06959178656524531, 0.03452129513163933, -0.19127762670252413, -0.05036469877301131], "layers.4.weight": [[-0.13670150935649872, -0.24958592653274536, 0.16030800342559814, 0.19164571166038513, 0.10602667927742004, 0.03591763973236084, -0.24816550314426422, -0.18671701848506927, 0.005818486213684082, 0.1381467580795288, -0.05689798295497894, -0.19074267148971558, 0.021604150533676147, 0.12863031029701233, -0.06730389595031738], [0.15497571229934692, -0.11044131219387054, -0.14660575985908508, 0.09114179015159607, -0.21974001824855804, 0.08645027875900269, 0.02694934606552124, 0.23322656750679016, -0.14491039514541626, -0.05592438578605652, -0.14277514815330505, 0.04939565062522888, -0.21751119196414948, -0.18649697303771973, -0.04348403215408325], [0.25713464617729187, -0.036169975996017456, -0.020851805806159973, -0.24389678239822388, -0.2311481386423111, 0.0063957273960113525, -0.06076391041278839, 0.12328815460205078, -0.1468564122915268, 0.006366044282913208, -0.01131671667098999, -0.16025225818157196, -0.011400684714317322, -0.14707931876182556, 0.07287102937698364], [0.06717437505722046, -0.30545493670870755, -0.179286390542984, -0.32239083826548615, 0.09893524646759033, 0.06344100954440865, -0.1670486330986023, -0.13003677129745483, -0.3775784008194881, -0.21317261457443237, -0.00840229984121649, -0.042709045045892555, 0.135929683791032, 0.15644410252571106, -0.16274148225784302], [0.16208561997496798, 0.35326122729109144, 0.11802891657814837, 0.053576204335310317, 0.11436574300801237, -0.21043377217434925, 0.1376631259918213, -0.041959446349359004, 0.04386362079839271, -0.054629236459732056, 0.055786058926591664, 0.2671604426290559, -0.02785070862041219, -0.10350324390197772, 0.22611105234072196], [0.04352617085338633, 0.007596828118612722, 0.2926267501792337, -0.07237926139875421, 0.0009638668222569394, -0.2442780889073602, -0.06912226974964142, 0.32096316663305663, 0.29748406657938115, -0.11219249665737152, 0.09404966547240448, 0.03972388854123611, -0.1063888239798371, 0.3772667217699461, 0.41305022908418754], [0.03181956416119678, 0.41824409996815193, -0.00957543401251203, -0.12557743265546642, 0.29364231836825055, -0.01694180486933355, -0.06008565425872803, -0.06905019180981971, 0.3719838583561302, -0.1351192146539688, -0.10062686017594512, 0.09146783638117244, -0.012937398721457577, -0.003960632239435095, 0.25138309318406127], [0.17119762301445007, -0.3545029557318186, 0.05147957801818848, 0.11212345957756042, -0.034788891673088074, 0.03452077624997044, 0.1552717685699463, -0.20303325355052948, -0.1651973009216185, 0.1464659571647644, 0.024668563547085288, -0.04173378562610713, 0.06816696859390899, 0.11886897683143616, -0.0721004456281662], [-0.18137890100479126, -0.4263124909091218, -0.24565215493224854, -0.0004005390307052275, -0.01217663288116455, -0.08255052187536986, 0.06428080797195435, -0.11283990740776062, 0.037225367709065545, -0.19266948103904724, -0.3561665297701973, -0.10872257680409475, -0.0542778141310968, 0.12531830239276978, -0.426826562891403], [-0.013626977801322937, 0.06389120633376114, 0.036777964312429995, -0.25444825785913266, -0.14797325432300568, -0.19342685183053684, -0.13169361650943756, 0.10887333750724792, -0.29902039939888747, -0.25589707493782043, 0.10030641345718955, -0.2817191436200029, -0.14962166973876156, -0.28365796643603813, -0.2618817465717961], [0.027861028909683228, -0.17184341912719694, -0.21737750212496595, -0.3430622180767957, 0.0787639319896698, -0.3541225554740896, -0.08391009271144867, -0.15488731861114502, -0.2158544552170722, 0.2540558874607086, -0.167275459401985, -0.07037183179522981, -0.3267233429357964, -0.0918436085144445, -0.12407269817903509], [-0.09575157733142858, -0.2130848424599082, 0.22580591210704853, -0.051412216882345686, 0.012168525672493508, 0.11456334854635243, 0.12767690420150757, 0.28410759415707987, -0.07637864568353646, -0.13461551070213318, 0.3069435033719892, 0.26788481923891266, -0.10905279783694546, 0.2816836052879453, 0.035459485418429304], [0.11982026866243452, 0.13268525713370974, 0.07224571868415393, -0.06129392471273524, -0.06685728423639818, -0.28596737231472735, -0.22128239274024963, -0.01128455312521369, 0.4496286160029659, -0.012954473495483398, 0.08236658124042295, 0.2087743022751555, 0.2734388262667513, 0.11819177872012708, 0.06496606661200827], [-0.11165322363376617, -0.3406947987267735, 0.0331969582306278, 0.08595240116119385, -0.08233045041561127, -0.2844131695034999, -0.020669564604759216, -0.05237594246864319, -0.3033599227055006, 0.15244850516319275, -0.25067171454429626, -0.078253373503685, -0.25664907693862915, 0.09639454907687892, -0.3720370651267638], [0.1408316195011139, 0.24809617605296647, -0.11762452125549316, -0.07634640874171297, 0.07913038914329219, -0.3610477973544794, -0.05557869374752045, 0.07713631848974574, -0.2613334377808453, -0.24331970512866974, -0.3443275789007622, 0.349614433326287, -0.054326266070943825, -0.23663428366843267, 0.8268754541732563]], "layers.4.bias": [-0.18001428246498108, -0.18499797582626343, -0.2518630921840668, -0.08361368335680272, 0.32192536690164175, 0.26647007510712695, 0.4742816763016604, -0.22609743061867035, -0.18660383633082805, 0.00014932069442965477, 0.027191879279024517, 0.33428748401662234, 0.22664022938160416, 0.008044195668010214, -0.5217561612056958], "layers.6.weight": [[-0.23295336961746216, 0.10238704085350037, 0.14649170637130737, 0.059749699745641274, 0.24981616143309926, 0.13802060764001886, 0.37698191546359666, 0.06304820700680576, 0.07101433782397949, -0.12082514460099869, -0.09754905891706321, 0.05618755045155311, 0.3410296840684476, 0.07095145622238803, -0.19227307723299863]], "layers.6.bias": [0.26475481187692895]}